-0.019541366
-0.07472245
0.19729914
0.05314973
-0.05866398
0.013056039
0.11450479
0.1339654
0.11233066
0.39280066
0.5618693
0.34441873
0.43509158
0.13433194
0.5220178
-0.1402279
0.1315206
0.018304149
0.00764384
0.58297443
-0.3625437
-0.18067178
0.42457637
0.54594815
-0.013288215
-0.22292544
0.46522003
-0.12301186
0.2343937
0.022779234
0.5367337
-0.55052984
0.40908447
-0.013634891
0.34442443
0.32657853
0.016026422
0.54985976
-0.27455992
0.39864632
0.69251525
-0.14741057
0.44068426
0.35629728
-0.009070035
-0.25523865
0.340462
0.12262846
-0.15011191
-0.018862115
-0.53246045
0.47878173
0.31345695
0.22560415
-0.17956074
-0.05537349
0.28964242
0.7418735
0.20367539
0.2508105
0.48492485
-0.015542199
0.15147531
0.48502153
0.26992252
0.21498509
0.30825534
0.21233264
0.5669783
-0.004800673
0.4607646
0.5225074
0.47953165
0.3160521
-0.03281921
0.06927796
0.27042753
-0.23810188
0.2925961
0.6659595
-0.21004753
0.35325533
0.2629166
0.19256166
0.6509122
0.46739858
0.043388914
-0.16344419
0.15037695
-0.20819183
0.66740304
0.07796162
0.4860184
0.20909849
0.60027647
0.11295919
0.19475856
0.43191156
-0.2508219
0.10584619
0.20257626
0.07271357
-0.11713415
0.5585116
0.691179
0.22395858
-0.014678528
0.12930498
-0.5959704
0.13660747
-0.02623109
0.25887716
0.64295447
0.45285994
0.4106683
-0.07191336
-0.12632428
-0.011076204
0.227842
0.3088844
-0.008604188
0.36103424
-0.18824106
0.25033063
0.10103072
0.4824339
0.41055232
0.28267363