0.031467497
0.19847168
-0.0054208115
-0.023684215
0.0131102055
-0.1743274
0.043282032
0.023647433
0.46763238
-0.06295979
0.31314605
-0.27620748
0.16797066
0.0101930965
0.03959974
0.000179968
-0.17175718
0.14240432
-0.0984775
-0.036333784
0.029506722
-0.37399817
0.20365974
-0.042170662
0.004464574
0.15396258
-0.005433509
0.086272165
-0.36971557
0.044659212
-0.07108315
0.13026805
-0.1253237
-0.012302019
-0.0143505735
0.06621843
0.101669766
0.16570175
-0.027106706
0.024868047
-0.22260839
-0.11209194
-0.042110503
0.24744639
0.018235706
0.0012850789
0.15480065
0.010904595
-0.1427318
0.05617146
-0.1777741
-0.18376178
0.21159773
0.00213629
0.07285283
-0.19370885
0.015661417
0.2138632
-0.05751187
0.13897371
0.27876207
-0.03632452
0.12985748
-0.16657756
0.2784304
-0.27790874
-0.051855437
0.0028159227
0.18602778
0.23387852
0.03031928
0.01991373
0.19906026
-0.15659201
0.06444707
-0.09330877
0.05684341
-0.028991684
0.2113995
0.19721802
-0.18145068
-0.06848334
-0.017648421
-0.21036005
-0.050287023
0.113942534
-0.022637226
-0.10191514
-0.031988937
0.037904225
-0.0024109052
0.01172781
0.10515633
0.043752775
-0.1157124
0.007258018
-0.0063938424
-0.05740106
-0.09252258
-0.11101224
-0.012417142
0.0638356
-0.22491802
-0.15715247
0.059010673
0.19454728
0.032984585
0.060484868
-0.26420528
-0.07003313
-0.06349118
-0.16449165
0.28758052
0.08253665
-0.15939131
0.045775976
0.13631174
0.056070417
-0.096116714
0.012527027
0.05647839
0.090762205
0.0016373094
0.12510489
0.14445738
0.0011937544
-0.17019217
-0.2133013
0.03621667
0.023674408
-0.13428774
0.23566619
-0.0382095
-0.25462982
0.08188889
0.10486523
-0.06270344
0.17423554
-0.0870977
0.2524912
0.05313823
0.24053258
0.2398083
0.02349806
-0.04468164
0.27812558
0.030195188
-0.101258226
-0.23141617
0.07532215
0.48375612
0.013687329
0.039479643
-0.10591146
-0.11600083
-0.038932588
0.0112702595
0.0620905
-0.15324232
-0.101880126
0.10516527
0.07611426
-0.06739556
-0.24670847
-0.26779464
-0.1810557
-0.06643282
0.042989455
-0.33729967
-0.18604717
-0.13914561
-0.22685492
-0.025846623
0.15102151
-0.1500203
0.0525049
-0.032981887
-0.064418435
-0.25817114
0.3996703
0.14515625
-0.025185257
0.031681392
0.22539516
0.11106126
-0.17483148
0.13901506
0.19041003
-0.08984234
0.029009983
-0.08104177
0.15899703
0.21523288
0.29621556
-0.0049122944
0.06321343
0.0550229
0.118408695
-0.034114968
-0.04779324
-0.037180647
0.119996116
-0.05966869
-0.27322066
0.07524525
-0.06973446
-0.10573231
0.18410675
-0.4192715
0.14393213
-0.0566505
0.08955167
0.15162535
0.046835624
0.179974
-0.1331328
-0.09442218
0.2850842
-0.017890286
0.037838295
-0.08809803
-0.10187885
-0.33421147
-0.070474006
-0.063540906
-0.10259246
0.004814779
-0.31667563
-0.32405403
-0.21487723
-0.040816046
-0.23916271
-0.10991862
0.13233128
0.034604244
-0.30349582
-0.12600936
0.049166504
-0.07051603
-0.08715998
0.15653671
0.1690458
-0.16228181
-0.057501856
-0.022729533
-0.07819564
-0.077923626
-0.14962584
0.036132067
0.18949828
0.15308237
-0.045625035
-0.30206162
0.11262806
-0.27700558
0.2013311
-0.029230844
-0.3656088
-0.17827666
0.18553643
0.03783434
-0.32938012
-0.21965277
-0.0012110646
0.17547049
-0.018404054
0.14051332
0.077750735
-0.15848958
0.27558365
0.23421423
0.06298986
-0.28434917
-0.22061397
-0.08804718
-0.38854694
-0.10937961
0.2943308
0.38001207
0.13957618
-0.07337746
-0.28547782
-0.2557221
0.040442143
0.043027677
0.1460948
-0.052422374
-0.35551128
0.3009998
0.034726255
-0.06816729
-0.30717683
-0.4068096
0.26640847
-0.0972573
-0.001326259
-0.13673612
0.006212988
-0.05969174
0.43762794
0.0013788566
0.3537554
-0.12876387
-0.0418427
0.262132
-0.4244284
-0.3927165
0.21077031
0.03681066
-0.080493376
-0.3529949
0.4307806
-0.17596908
-0.06939304
0.2146323
-0.13285384
0.251003
0.05239007
0.11380608
0.07661021
0.1445027
0.32597688
0.0042799697
-0.05318278
-0.29675925
0.089402534
-0.059321187
-0.24431017
0.3767377
0.3439201
0.03489909
-0.79140896
-0.142431
-0.29286116
0.14255123
0.33592823
-0.28681377
-0.1675152
-0.08133392
-0.027243644
0.1950267
-0.03787891
-0.08168808
-0.26655668
-0.25636655
0.18017349
-0.0016147452
0.016713362
-0.16177139
0.22684963
-0.05640838
-0.14389125
-0.109450005
-0.08159265
0.2625455
0.08914531
-0.3641072
-0.184681
-0.2903886
-0.4196709
0.043808144
0.36165926
0.02288533
-0.07857671
-0.50069606
-0.1337473
-0.0047311187
0.03409783
0.18115474
-0.0702904
-0.2804003
-0.19047508
0.09062138
0.05492203
-0.06764047
-0.16527238
-0.037952535
0.14064007
0.3653259
-0.109092325
-0.044581234
0.1034734
-0.25557148
0.040056232
0.024359778
0.12491537
-0.314601
0.2236811
-0.09455339
-0.083050266
-0.2018638
0.11840545
0.07192893
-0.1566754
-0.28384003
0.15309225
0.47353867
-0.0150652835
-0.036907684
-0.26993164
0.027077205
0.27118638
-0.050201792
0.0801662
0.34433335
-0.07198055
0.1701966
0.23263508
-0.05338679
0.20683044
0.10657551
0.4276293
-0.09517324
0.016628444
0.018336657
-0.021245563
-0.03452283
-0.049637005
0.124128565
-0.46833292
0.09300073
0.025037402
-0.036087092
-0.051026016
-0.1021417
-0.03552944
-0.12990436
0.09253601
-0.033207264
0.038993746
-0.11192121
-0.09550773
-0.05267486
-0.1107061
0.39432722
-0.20148002
-0.18510327
0.07738728
-0.06596512
0.13002881
-0.055602852
0.1633689
0.36021528
-0.41339752
-0.24156576
0.06049896
-0.16625682
0.07313265
-0.04986311
0.32220057
-0.1360803
0.16873474
-0.35916907
-0.026902467
0.15961303
-0.05870915
0.12372224
0.19022378
0.009280471
-0.16404878
-0.29469857
-0.13268611
0.28561607
-0.079522625
-0.14685951
-0.47256178
-0.2959412
-0.36817634
0.11540364
-0.26642773
-0.030105188
-0.05834184
-0.28719863
0.2557194
-0.088388205
0.0018110436
-0.1328158
0.12999833
0.21613576
-0.16279484
-0.006179092
0.041243754
-0.023569366
0.061046746
0.030000132
-0.47846764
-0.031078765
0.06651842
-0.3033293
-0.18514724
-0.008985482
-0.23296677
0.098806135
-0.12625128
0.0010822862
0.53901947
0.30199882
-0.08884805
-0.5208956
0.24965131
0.10327265
0.020560402
-0.018604908
-0.017681772
-0.027761329
-0.028698178
0.21763784
-0.06297663
-0.08598287
-0.025453353
-0.2572574
0.057108164
0.08088554
-0.11720316
-0.38111776
0.12268453
0.16580014
0.30892405
0.43536958
0.073341936
0.7463912
0.18016621
0.06633559
-0.6401194
-0.0061304965
0.29556376
0.10380208
-0.23988546
-0.34789282
0.12983538
-0.09508012
0.29098734
0.32250798
-0.2764925
0.19634338
0.09982357
0.039971434
0.14629097
0.15404229
0.32873166
-0.048020266
0.44966906
0.3281077
0.011594752
-0.11435139
0.04947669
-0.096814305
-0.6489345
-0.11241731
0.48078603
-0.33365643
0.52060676
-0.2519749
-0.10126413
0.1640872
0.08829703
0.06136336
-0.007901849
-0.37872398
0.032325625
0.022672499
-0.16504303
-0.07081998
-0.8396952
0.1253255
0.47088438
-0.0074514896
-0.25291982
0.20026186
0.045428265
0.061786722
0.20707208
0.017281357
0.07551659
0.064301684
0.09774363
0.018705027
-0.45517415
-0.009075468
-0.39404476
-0.3382065
0.32158387
0.00032531505
0.49425897
0.16048227
0.13754381
-0.006402304
0.58433723
-0.31920847
-0.46716794
0.35881263
0.28285718
-0.1368355
-0.33848616
0.018612696
-0.34148642
-0.13380435
-0.4484126
0.016226644
-0.34561786
0.07218055
-0.026232565
-0.039836586
0.02227639
-0.23668535
0.06710243
-0.17416024
-0.33193737
0.13285764
-0.42750117
-0.17718711
0.40423226
-0.120816246
-0.4464975
-0.033857487
0.23486887
-0.15766136
0.09793555
0.05975359
-0.2085365
0.10684651
-0.46680242
0.0025984645
0.29831478
0.14223035
0.32023308
-0.6117852
0.12569107
0.01172817
-0.081224695
0.13823232
-0.4932366
0.05598583
-0.31237617
-0.1890549
0.96888375
-0.31643865
0.06761363
-0.29614532
-0.86599064
-0.022490289
-0.18035203
-0.15986456
-0.08347368
0.038140614
-0.077647
0.07259643
-0.20042042
0.52349913
0.3222063
-0.14014935
-0.60311544
0.16695735
0.08287771
0.016618244
-0.22538675
-0.14235553
0.37339547
0.049448367
0.19041783
0.16389453
-0.3468322
0.2913628
0.05535065
0.05174952
-0.1109951
-0.00627589
-0.008246813
-0.38701004
0.23539561
0.23900136
-0.090226196
-0.09822694
0.07076335
0.11221626
-0.44445983
-0.043288246
0.8541116
0.1290017
0.14753354
-0.27111608
-0.30212557
0.15339297
0.014911567
0.04418508
-0.13763195
-0.25088844
-0.02680643
0.38792518
-0.029836852
-0.014337761
-0.8496777
0.06800039
0.40225524
-0.062300332
-0.23983087
-0.15443663
0.077753305
0.35570842
-0.0935024
-0.18589944
0.05046317
0.044079095
-0.043718427
0.04272754
-0.45034057
-0.019474583
-0.22529396
-0.23275904
0.22834429
-0.00035195512
0.5735727
0.1965647
0.17783491
0.07423723
0.15896133
0.18411668
-0.3138846
0.28597963
0.6051415
-0.10462288
-0.2294608
0.17801799
-0.13994786
-0.31000137
-0.32956266
0.0092898095
-0.23659483
0.2527313
-0.11980272
0.067084424
0.08582445
-0.044781532
-0.042252652
0.2484746
-0.32638988
0.12627012
-0.19621101
-0.41831195
0.52208054
-0.12036064
-0.25222334
-0.14507955
0.15323126
-0.27938977
0.31711987
-0.019515071
-0.30871487
-0.17104039
-0.43769315
0.043203287
0.18939558
0.072952256
0.2434166
-0.58399117
0.30925226
-0.53509057
0.011748499
0.16434851
-0.7872316
0.06937245
-0.16152659
-0.19886674
0.89169127
-0.4203516
0.15568656
-0.14663447
-0.6076137
0.059803434
0.5112599
-0.20914519
0.08093738
0.0849358
-0.35599944
0.17620032
-0.148024
0.53387713
0.123145975
-0.5683654
-0.5254908
0.9462367
-0.71837723
-0.13806145
-0.26501822
0.15448116
0.92728066
-0.004102937
0.27262536
-0.077388726
-0.38008848
-0.056459557
0.06797515
0.0024648022
0.24036011
0.09904483
-0.33434787
-0.8574406
-0.399543
0.23028383
0.187697
-0.03271732
-0.01185089
0.24458653
-0.2502364
0.6097815
0.4194248
0.5844916
-0.12263125
-0.3520358
-0.2836539
0.03202653
-0.33564198
-0.01798605
-0.20246203
-0.3186744
0.08098551
-0.014831103
0.29900366
-0.07699393
-0.8139
0.27470312
0.47359973
-0.09634609
-0.22091213
0.14001665
-0.023780156
0.21561109
-0.19542983
-0.40406796
-0.027778752
0.016342396
-0.086418234
0.5318099
-0.49015138
-0.0028950323
-0.04744662
-0.25475547
0.22373651
0.09880683
0.56952536
0.059205424
-0.058352303
-0.0003913534
0.1786372
0.09356159
-0.24965458
-0.3659631
0.009122897
0.07311388
0.03528078
-0.014880341
-0.5670144
-0.3124649
-0.37452418
-0.10414543
-0.14199394
0.17718174
-0.032251522
0.047965772
-0.16500391
-0.12749678
-0.08473805
0.33618614
-0.48949763
0.12563138
0.12331189
-0.73644304
-0.17819454
0.27155235
-0.41792727
0.50983167
0.08706076
-0.28630206
0.029746264
0.03068839
-0.5798711
0.38709664
-0.15800768
-0.06491983
-0.059636235
0.11710177
-0.23117563
-0.6083207
0.56120205
-0.7563298
0.018203065
0.013114491
-0.2371999
0.07140999
-0.074816614
-0.21757406
0.78542185
-0.03582162
0.112313904
0.2329338
0.047687855
-0.074808896
0.14546809
-0.13394308
0.09856617
-0.016081372
-0.21311563
0.21442938
-0.13095947
0.54564136
-0.20644265
0.06730196
-0.3506598
0.81390274
-0.56012625
-0.09184612
-0.4194801
0.030942257
0.75620925
-0.073522106
0.39592806
0.033520646
-0.34144238
-0.102726296
0.34460682
0.050551966
0.21350023
0.1425434
-0.2593507
-0.5510014
-0.41273597
0.31125998
-0.3042135
0.053331573
-0.031050013
0.14716597
-0.24394768
0.39880952
0.34174106
0.19616298
-0.03972917
-0.38180453
-0.13002174
0.044400774
0.08727331
-0.07413503
0.052285906
-0.2839283
0.0063429913
-0.25146842
0.11313031
-0.2701779
-0.043604
0.01089227
0.29005903
-0.007547181
-0.081742376
0.031532664
0.13113004
-0.32992798
-0.67354697
0.23109539
-0.035867658
0.41013134
0.37595254
0.5559447
-0.3749396
-0.09345921
0.28022513
0.13128816
-0.19642028
-0.037073027
0.44658598
-0.19320194
-0.14862818
-0.047189463
0.30180967
0.062749684
-0.06271328
-0.11068419
-0.038683325
0.13305496
0.13818918
-0.057918202
-0.36316985
-0.064173944
-0.83047265
0.05565476
-0.11422633
-0.47193086
-0.085028335
-0.43722066
-0.20668878
-0.21440707
-0.05814586
0.21972385
-0.41774872
0.13733046
0.17047288
-0.70381534
-0.048568554
0.37734893
-0.64751965
0.3635257
-0.35523456
-0.21389616
0.13884597
0.058428727
-0.23307517
-0.05752959
-0.08937069
0.049389906
0.17377056
0.13882461
0.13246505
-0.7051541
0.20242178
-0.6059879
-0.04582984
-0.13115247
-0.17507546
-0.00031360984
0.07268446
0.11529814
0.6523387
0.14301157
-0.098963596
0.15972888
0.11399677
0.014277019
0.03026753
-0.078139946
0.09819849
0.15715848
-0.22635517
0.5344813
-0.15132646
0.17654446
-0.30892983
0.3472176
0.50398725
0.107906625
-0.11781291
0.2117671
-0.5946907
-0.12007449
-0.076832905
-0.19628036
0.24420917
-0.1544386
-0.13392697
-0.0842862
0.124407
0.014182823
-0.09832264
0.11138168
0.08219067
0.3945242
-0.32793137
0.32928702
-0.4945507
0.1952871
0.03227756
0.09000479
-0.54738533
-0.2647354
-0.08335906
0.29309386
-0.010557693
-0.2940156
-0.021955574
-0.051162954
0.4236907
-0.051188014
0.5380254
-0.3360158
-0.041002326
-0.3903932
0.06733469
-0.12009252
0.35777414
-0.27395555
0.28514418
-0.34706324
0.1886336
-0.25534734
0.050898854
-0.35147223
-0.73515975
0.3066775
0.043096118
0.25074002
0.48377207
-0.09134259
0.021273853
-0.041739352
0.26646888
-0.011509528
-0.5864218
0.055383094
0.14796145
-0.2233864
0.04316627
-0.03947425
-0.057824
0.34117994
-0.034583546
-0.13564494
0.008619958
-0.1952201
-0.03360116
0.19045639
-0.11827949
-0.033216815
-0.52459157
0.19964972
0.047159504
-0.4877288
-0.12137571
-0.017384222
-0.43430817
-0.3379892
-0.20745979
0.04926915
-0.15662168
-0.023450935
-0.11338689
0.040423486
0.15764748
0.18658279
-0.5395487
-0.31198668
-0.47101945
-0.18963592
0.090445004
-0.00837329
-0.15809649
0.04517718
0.026131606
0.051279075
0.4234947
0.020892344
0.13553178
-0.7774006
0.13675478
-0.13858077
-0.08274546
0.11467303
0.264261
-0.07446481
0.34970486
0.3402074
0.011459916
-0.1365289
-0.031468194
0.19584143
0.10459053
-0.052450594
0.05778355
-0.16248454
0.09827499
-0.043744694
-0.45446858
0.2978976
-0.15225959
0.007896444
-0.067578696
0.73375195
0.2871672
-0.07606906
0.15771651
0.5409876
-0.40176418
-0.22693515
-0.034948647
-0.48884258
0.29929173
-0.24631552
-0.23794855
-0.054853585
0.26644775
-0.071498714
-0.2450059
0.1324145
0.052160364
0.3660612
-0.053162605
0.014173287
-0.5114139
0.09452144
-0.006384594
0.033322684
-0.9179985
-0.19810832
-0.58176863
0.24185008
0.40694496
-0.20380785
0.11465431
0.004674553
0.38580737
0.008360132
0.46489578
-0.38757282
-0.079778805
-0.44270763
-0.16654101
-0.37087524
-0.046260025
0.0043772515
0.48740262
-0.45487517
-0.23974384
-0.36993805
-0.34304416
-0.37355068
-0.19763476
0.3521668
-0.020036891
0.29426122
0.3695085
-0.2248087
0.008256778
-0.107764624
0.14697719
0.1431061
-0.30950364
0.39221665
0.22831206
0.066644065
-0.05741503
-0.043920115
0.024856916
0.5120747
-0.41224974
-0.09380063
0.26742366
-0.14610964
0.056633726
0.15468511
0.17300355
-0.12896633
-0.4215045
-0.020720907
0.1644605
-0.5653244
0.031222643
0.2681382
-0.6654357
-0.51244175
-0.22797704
0.06253078
-0.0379636
0.18205479
-0.06723041
0.28007907
0.011276419
0.057031114
-0.9969376
-0.50746137
-0.5272303
0.032982152
0.30726114
0.06590868
-0.118462734
-0.1905793
-0.040606823
-0.04283443
0.31892464
0.22701503
0.2683851
-1.0672171
0.17277482
-0.0173635
-0.06515753
0.19396326
-0.044327233
-0.03551144
0.46788198
0.54202574
0.052320555
-0.3658577
-0.11945734
0.4113391
0.096707895
0.013620503
0.19148876
0.120415665
-0.2514914
0.04930614
-0.4804133
0.11453507
-0.25860313
0.521243
0.02359171
0.2720075
-0.33615476
0.34029567
-0.30521303
0.66341716
-0.5532326
-0.42160678
0.22853844
-0.41114634
0.16603246
-0.074197166
-0.57660383
0.082939155
-0.10066173
0.027634729
0.030872185
0.30666912
-0.138044
-0.08271882
-0.1714512
-0.0067227776
-0.35595542
0.43597683
-0.07514197
0.25638613
-0.37080976
0.13320462
-0.9815486
-0.15422557
0.26659688
0.2799245
-0.004511092
0.086051136
-0.083295606
0.03483816
0.12792684
-0.4123702
0.08504949
-0.48642188
-0.076028824
-0.9193713
0.069227986
0.031988822
0.4067248
-0.3138199
-0.27266932
0.12619199
-0.88614607
-0.124748625
-0.20676453
0.34408498
0.0037439049
0.020723272
0.39952028
-0.22552444
-0.47749546
-0.08915074
0.014956524
0.40563008
-0.20794836
0.21815342
0.4856255
0.39955384
-0.34157518
-0.06788882
0.5044243
0.32295212
-0.27323306
-0.11661546
0.43004733
0.28765723
0.43938538
0.25231963
0.33599347
0.0824558
-0.71878266
0.38753876
0.14615136
-1.3260232
-0.21335082
0.16664039
-0.384686
-0.81138176
-0.18606319
0.14567618
0.24033803
-0.14196523
-0.07456076
0.3114955
-0.021178167
0.029269416
-1.2037367
-0.07853919
-0.14974067
0.28908202
0.7119887
-0.013610274
-0.035924405
-0.16401587
0.24659798
0.0735532
-0.18613034
-0.0015155658
0.5754673
-0.7005362
0.09883258
-0.5129329
0.042711426
0.19479911
0.04140012
0.05901226
0.2669046
0.3575593
0.31671253
0.034451418
-0.38057372
0.3111737
0.0067552007
0.04134097
0.44762704
0.1312837
0.09837009
0.17670979
-0.10902448
0.095504515
-0.113547616
0.24267358
-0.11604445
-0.1452021
-0.26155183
0.20017773
-0.025346749
0.44986996
-0.3273796
-0.31090805
0.32467252
-0.043706916
0.3957694
-0.05375742
-0.09659538
0.2863383
-0.5654784
0.03589207
0.15294881
0.082764804
-0.34176317
-0.046536893
0.016059626
-0.14179249
-0.12930499
0.37281105
-0.06439422
0.15837339
-0.13123207
0.33650315
-0.015754128
-0.06913088
0.24964066
0.7778489
-0.079146646
0.052363914
-0.42625672
0.037266377
0.22397102
-0.2597809
0.08207465
0.18696603
-0.28347158
-0.270172
0.20802139
0.22579093
0.30120412
-0.21906802
-0.00027159462
0.0009219731
-0.4426577
-0.28623238
0.016317919
0.06959068
0.03644991
-0.2036784
0.46567494
-0.061242335
-0.2828735
-0.045461357
-0.17627038
0.18896168
0.17838834
0.007580168
0.45065245
0.31207275
-0.56772226
-0.035414673
0.18213685
0.25090462
-0.19278164
0.18777947
0.26045313
0.049210083
0.39898416
0.12154077
0.31710553
0.57088095
-0.37983403
0.14605434
-0.35793957
-0.08533595
0.0365175
0.2591965
0.08062382
-0.47379607
-0.3444943
-0.007293081
0.22944012
-0.15152225
-0.16038688
0.22383295
0.124907255
0.3775891
-0.17773646
0.008373404
0.27018946
0.26089194
0.26391897
-0.00286515
-0.08159794
0.0032601457
0.57718855
-0.0319777
-0.2973954
-0.06965462
0.11658023
-0.36747232
0.1306853
0.116609044
0.032748386
-0.033789564
0.37736258
-0.04884781
0.047788847
-0.030526698
0.20174432
0.14589088
-0.51875556
0.27933025
0.1370454
-0.08222207
0.08267161
0.14364448
0.09337737
0.015238168
-0.0039975606
-0.06967125
-0.00715545
-0.003025146
0.5091539
0.072614744
-0.29498574
-0.31620628
0.45868996
-0.04065128
0.044287518
-0.052321516
-0.034499686
-0.0063967626
0.5036363
0.13574103
0.054190405
0.097874485
-0.30898064
-0.08528825
-0.0816284
-0.31693545
-0.03492895
0.03425647
0.41577473
-0.08825834
0.07597082
-0.3965379
0.0316392
-0.1379987
-0.17349936
0.44179785
0.28838065
-0.06213893
0.46582127
0.33340198
-0.16429372
0.34553626
0.05447414
-0.015764764
0.043934427
0.11514251
0.049652647
0.5701685
-0.1120269
0.24034649
-0.045857195
-0.06374268
0.50162405
0.25917614
-0.25790074
0.016137024
0.053463124
-0.5279802
0.1963808
0.20462918
-0.01844698
-0.17461012
0.11258515
-0.1336069
-0.0026106352
-0.009458732
-0.2643862
-0.3498639
0.2381145
0.23931214
0.08417162
0.31283262
-0.7821942
0.061100993
-0.06666952
0.21263036
-0.15379488
0.15874156
-0.08782532
-0.59967077
0.19480668
-0.077151075
-0.027634777
0.21078601
0.017446604
0.14378309
-0.87837416
0.75517523
0.17427368
0.028094439
0.42876396
0.23592421
-0.22124629
0.09320392
-0.13663803
-0.2573188
-0.0594775
0.27681482
0.12792358
-0.009631115
0.092519924
0.15448429
0.2783203
0.14292808
-0.47011614
-0.07382587
0.12046345
-0.106381334
0.19064543
0.055139747
-0.12951018
-0.04149812
-0.33455876
-0.24254346
-0.096457236
0.19328856
-0.03311209
-0.14511842
0.3018754
0.03192059
-0.2615176
-0.24584971
0.10641042
0.043037876
-0.23927355
0.100117505
-0.3315576
0.0012610717
0.39259934
0.25384492
-0.054385167
0.07230387
0.30392462
0.28769436
0.040815536
0.059894603
0.20586173
-0.27394772
-0.15468304
-0.3082299
0.044501606
-0.12088954
0.1958542
0.20968592
-0.3161306
-0.027616179
-0.01082217
0.47427368
0.24824195
0.2792733
-0.6026637
0.07339867
0.44539347
-0.3735433
0.062411264
0.1382749
0.2772285
-0.15084139
0.16713355
-1.1872318
-0.033304237
-0.19311588
0.4569171
0.1779029
0.047697853
0.12451731
-0.16456698
0.07692768
0.00048091193
0.28279614
0.017204463
-0.04944796
0.19391087
0.10080855
0.03227227
0.30414304
0.3132721
0.369217
-0.18254612
-0.11198729
0.4496676
0.13004892
-0.29835886
0.07776464
0.10340643
-1.0788903
0.14172775
-0.24008606
0.01947019
-0.18770881
-0.00058062136
0.2229683
-0.10136869
-0.045464087
-0.4057604
-0.39626542
0.22384529
0.33718166
-0.129192
0.25125515
-1.1000195
0.010770925
0.19887441
0.20161216
0.13304837
-0.038510114
-0.18236583
-0.016465612
0.40299046
0.14028858
0.04744081
-0.0029568335
0.41300383
0.35460904
-1.1130544
0.40889984
0.24565332
-0.037923865
0.034313504
0.1521994
-0.26460832
-0.17352457
-0.18502451
-0.046935655
0.05960584
0.22910148
0.038048025
0.030193204
0.027526336
0.43430722
-0.10842195
-0.3443913
-0.7992073
0.016899414
-0.18936059
0.34170815
0.46286273
-0.012768785
-0.42465886
-0.11031813
-0.5393263
0.50100183
-0.052994948
0.24656406
0.03238505
0.4681752
0.13546546
-0.04868296
-0.68319285
-0.40183896
-0.023416013
0.1727483
-0.234214
0.25869727
-0.44831946
-0.052411065
0.36108837
0.2116739
-0.39090228
0.0024457166
0.24868971
0.22068703
0.012575806
-0.11277106
0.03431993
-0.3354713
0.0915768
-0.25870004
-0.21382414
-0.2850703
0.22507975
0.43155774
-0.41725034
-0.032176375
-0.13724028
0.34591368
0.124538906
0.3875922
-0.68472314
-0.06856296
0.4602224
-0.3299508
0.0013940195
0.24874492
0.023226801
-0.022083675
0.12185418
-1.0705665
-0.042813167
-0.026150323
0.63026625
0.15149085
0.20602232
0.10436347
-0.28052247
0.20117168
0.08831727
0.037961435
-0.029884972
-0.008848487
0.13613588
-0.061465427
0.010575502
0.28919002
0.2886357
0.567912
-0.09964173
-0.058954738
0.43340895
-0.09738049
-0.17254859
0.072651245
0.14035776
-0.9945346
0.02214288
-0.22735582
0.0581927
-0.07495999
0.07389838
0.19733956
-0.085010804
0.04778305
-0.37737727
-0.38640508
-0.0042637256
0.13146478
0.0057117664
0.18449883
-1.0994661
0.042413972
0.16160245
0.2634047
0.46945113
-0.1604486
-0.06367484
0.118230104
0.3092356
0.09253209
0.028629681
-0.0065779313
0.36162502
0.4057096
-1.0422863
0.4104368
0.04692266
0.018123258
-0.055709235
0.19249615
-0.124485284
-0.18606965
-0.08553064
0.290064
0.05840742
0.34488106
-0.02322203
0.16156752
0.074340925
0.3751307
-0.012194942
-0.36871383
-0.9878227
-0.078935094
-0.45538533
0.5493172
0.5784329
-0.020429239
-0.21595483
-0.40946385
-0.51653355
0.8111307
0.0016436448
0.20723411
0.03799526
0.50030416
0.35543996
-0.0581062
-0.62811667
-0.42035666
-0.0862677
0.16158573
-0.30970794
0.49493662
-0.37175784
-0.09067886
0.2193013
0.28399464
0.030826919
-0.00778911
0.19822326
-0.059444517
0.055805743
0.0045586764
0.3681527
-0.16511977
-0.1454772
-0.18185863
0.1982144
-0.26365224
0.19264005
-0.04335505
-0.075520016
0.075469665
0.33212435
0.21565224
0.073571734
0.10025067
-0.7108422
-0.04310368
0.21083017
-0.28419313
0.0833
0.18750654
0.30484655
-0.1465592
0.14447305
-0.5355511
0.016367124
-0.054350186
0.16143046
0.12596741
0.21063018
-0.011107693
0.18278973
0.12107217
0.18963699
-0.27630597
3.527217e-05
-0.0293054
0.16133453
0.17043829
-0.0036796427
0.5380286
0.31283784
0.29579654
-0.25157076
-0.03592881
0.6017242
0.09352815
-0.24364485
0.041829064
0.21632192
-0.87897927
0.24068758
-0.068569675
0.051978204
-0.19767682
0.03546677
0.07542582
0.034597866
0.0063524926
-0.2675771
-0.36182743
0.11414301
0.14051296
0.17869496
0.30864182
-1.01442
-0.021290818
0.027574932
0.16181464
0.076517634
0.0741132
-0.08195173
-0.12711176
0.26608458
0.021084199
-0.020689365
-0.05007384
0.05441354
0.30436495
-1.0068736
0.6342086
0.16593207
0.12590286
0.27489743
0.22491865
-0.2448782
0.03313026
-0.12662959
-0.118804164
-0.07574067
0.42480963
-0.103689745
-0.10038157
0.20957412
0.16000177
0.21476126
-0.0028278576
-0.63798815
0.056384005
-0.14480463
0.1412877
0.33049908
-0.0729681
-0.26439196
-0.17164838
-0.28388348
0.62665856
-0.21991812
0.1741701
-0.061170053
0.2946495
0.39047578
-0.08186642
-0.308418
-0.3878092
0.10886001
0.23158944
-0.1334759
0.11036997
-0.4031992
0.005917545
0.55599016
0.12893347
0.073753744
0.13069989
-0.00060406915
-0.1410934
0.026167385
-0.033927076
0.1340338
-0.030416448
-0.15344869
0.29804292
-0.18872109
0.04656911
0.022595517
-0.24196748
0.10418654
0.056445524
0.6950715
-0.18939611
0.08049626
0.40332142
-0.32556695
-0.061592378
0.06445387
-0.019302445
-0.20454444
0.24314718
-0.20320421
-0.27071965
0.06941459
0.14983304
-0.011777977
0.15830274
-0.22003862
0.39199907
-0.11678051
0.007087119
-0.008557486
0.50387454
0.1812629
-0.23083392
-0.19665326
-0.04749018
0.24972557
0.0020962793
0.011449561
0.26981917
0.11293579
-0.24398912
0.29924875
0.21087994
0.36012748
0.2540061
0.10352582
0.05110938
-0.028790817
-0.56563866
0.05060484
-0.025569744
-0.06506722
-0.060401168
0.36089256
0.20543073
0.061533917
-0.049928006
-0.1406167
0.14264883
0.18653348
-0.0037051048
0.5937196
0.43059832
-0.85199153
-0.038867738
0.15788347
0.06598415
0.042156205
-0.013182202
-0.0544102
-0.026520997
0.3538582
-0.11679601
-0.06451391
0.3400619
-0.35037413
0.10163766
-0.4691663
0.1796585
0.13611108
0.18704025
0.014495534
-0.2652497
-0.23270904
0.29212642
-0.32351878
-0.24160585
0.018294815
0.4385978
-0.08522989
0.16238838
-0.13000077
-0.014569543
0.5626292
0.27881157
-0.23497549
-0.05764755
-0.1922433
0.0060595544
0.5610878
-0.017292732
-0.41974878
-0.18214957
-0.10725701
-0.19667825
0.17429581
0.20924321
0.07074657
-0.04034711
0.7341404
-0.046795666
0.07907755
-0.22594592
0.30244884
0.06833875
-0.022027113
-0.034306318
0.30838355
0.062315084
0.5223781
0.16859639
0.20159844
0.049865816
-0.053176653
0.0893246
-0.039283685
0.09755335
0.21321397
0.18815471
-0.12904988
0.43388802
-0.2055267
0.50703454
0.039585244
-0.3263817
0.3736662
-0.19735146
0.4691566
-0.21286668
-0.024881888
0.30920434
-0.026549779
-0.007974386
0.21911271
0.3046155
-0.37174588
0.022434501
-0.22641805
-0.005457658
-0.1452826
0.626941
0.07371377
0.27746114
-0.015283797
0.32675168
-0.8843154
0.27043897
0.025464602
0.369208
0.20563796
-0.0038737925
-0.3376431
-0.026182685
0.035257485
-0.08196847
0.062929615
-0.27594888
0.19721095
-0.6009996
0.23273802
0.07202762
0.1451379
-0.301214
0.11632817
0.033400215
-0.5548977
-0.5638175
0.16206448
0.017238824
0.039748903
-0.16012572
0.31561342
0.024783865
-0.007271756
-0.037576947
-0.060330257
0.35899836
0.14974494
0.21572801
0.4380085
0.3894238
-0.38490847
-0.004510912
0.55248123
0.3294013
-0.03895233
-0.17118348
0.031245548
0.015067322
0.48166016
0.08099001
0.20868684
0.24337298
-0.5349266
-0.015835285
0.026121667
-0.38555634
0.28292736
0.2987422
-0.5317935
-0.56873006
-0.22333866
0.33932874
0.3746084
-0.12711813
0.048221428
0.36790746
-0.21096991
-0.021286344
-0.62018156
0.004130374
0.35855225
0.19454019
0.23076019
0.013854129
-0.13006753
-0.14339022
0.37856546
0.07012863
-0.42733333
-0.15344727
0.09244203
0.038735777
0.059483804
0.07799441
0.07204403
-0.12528491
0.4300671
-0.053261425
0.37895644
-0.0011523205
0.18307754
-0.04560535
0.15284865
0.305067
0.3113152
-0.080566555
0.3365779
-0.05001575
-0.000821387
0.09708991
-0.37789613
0.3805726
-0.05220823
0.014765208
-0.006048842
0.19771338
0.0632053
0.05681256
-0.23481357
0.44913927
0.12083028
-0.31772715
0.07880408
0.011659803
0.24311571
-0.17338148
-0.1060816
0.036187332
0.46894
-0.066173844
-0.19442852
0.18054374
-0.28724498
0.27122977
-0.19886015
0.17970078
-0.25643712
0.24112515
-0.03281543
0.26529086
-0.6934435
0.15029122
-0.6196709
-0.015288713
-0.053089842
0.1374004
0.25136226
0.18681559
0.21141376
0.03992365
0.1754974
-0.07494486
-0.009118519
-0.5400672
0.14379159
-0.49138376
0.28522822
-0.21070875
0.4357946
-0.62942356
-0.063598506
-0.18451911
-0.45885766
-0.49309328
-0.20107672
0.2171445
0.06927136
0.08557245
0.26601604
-0.07168319
-0.0534719
-0.18562327
0.0099437395
0.2520852
-0.17865956
0.6108302
0.2671197
-0.12960984
-0.04396786
-0.048660155
0.1634735
0.2944758
-0.31197345
-0.2699351
0.18948609
0.189687
0.12018189
-0.000947883
0.17917362
0.087212116
-0.11744007
0.108781755
0.10258169
-0.44950235
0.25552836
-0.05742701
-0.6405643
-0.38401878
-0.046597898
0.0688974
0.09437658
0.07665571
0.1625931
-0.046897423
-0.13415465
-0.032603815
-0.64024365
-0.04468794
-0.3038032
-0.2060024
0.3202032
0.024485935
-0.18605216
0.04519589
0.15287578
-0.0027931675
0.037767835
0.15487593
0.11765995
-0.55733705
0.005741223
-0.2579844
-0.014314015
0.039219894
0.07371036
-0.000822939
0.43047154
0.26704043
-0.010432813
-0.038347203
0.14082256
0.12678796
0.29818776
0.07032778
0.1983538
-0.065549426
-0.03670644
0.06682889
-0.19927886
0.8644271
-0.14072792
0.06695055
-0.47045982
0.6681483
0.28176537
-0.036351312
-0.49373484
0.3653835
-0.10974591
-0.45507443
-0.19400722
-0.1362705
-0.0009745619
-0.20436773
-0.10714209
0.35534722
0.38509688
-0.07781822
0.091266535
0.2725045
0.052198336
0.4757892
-0.41461474
0.1475016
-0.57968646
-0.21953595
0.023688456
0.14942093
-0.5548142
0.07346623
-0.25033903
0.17061001
-0.088065535
-0.20993046
0.20862159
-0.03895632
0.3744933
0.016791398
0.6800412
-0.45895955
-0.028422723
-0.2997571
0.21150398
-0.29673362
0.2555806
-0.32924902
0.19586879
-0.45856544
0.104171194
-0.055039905
-0.21424279
-0.5857311
-0.5216509
0.22290462
-0.07019111
0.43389377
0.2436008
-0.20661537
-0.2453028
-0.10468512
0.10143627
-0.22034869
-0.25113076
0.22627918
0.22715634
-0.39109898
-0.10858861
-0.0807762
0.29300618
0.11164463
-0.10187466
-0.10059977
-0.0052389284
0.12508342
0.15025969
-0.026506826
0.09580656
0.024337586
-0.5864077
0.30417505
0.14794314
-0.21119872
0.122287914
-0.070311785
-0.5394596
-0.58565754
-0.14845817
-0.03744284
-0.16984172
0.355957
-0.0021278271
0.025100254
-0.06900238
0.17894971
-0.67720145
0.11500474
-0.3597392
-0.08095862
0.18656015
0.044756703
-0.46095616
0.45607117
0.21574445
-0.010183416
0.06699636
0.060265016
0.0659778
-0.32261795
0.3734601
-0.40312672
-0.032284427
0.053528976
-0.053113278
0.022407308
0.090785615
0.46663085
0.23472254
0.035756193
0.32038802
-0.017439093
0.037429057
0.074780755
0.2122298
-0.123260684
0.04855925
-0.090323366
-0.43863353
0.4702203
-0.047145568
0.3324606
-0.56148535
0.60025424
0.25454697
0.3606748
-0.640642
-0.06931841
0.03849641
-0.084042184
0.1526004
0.0717182
0.15461314
-0.40115103
-0.33185935
0.47915024
0.6859494
0.0016868636
0.18745552
0.11600618
-0.061575443
0.14810054
-0.2616523
-0.039172873
-0.2806944
-0.15167983
0.050159313
0.20546187
-0.15691657
0.2692026
-0.25210476
0.11840971
0.05561716
-0.33653966
0.2902311
-0.5457701
0.18661164
0.026384331
0.27360758
-0.6497943
0.062376563
-0.15702249
0.30409315
-0.30592212
0.14486955
-0.43908355
0.028725814
-0.20047581
0.031407792
-0.06761383
-0.21232073
-0.48137146
-0.682229
0.16058494
0.043246597
0.29365295
0.17735466
-0.115328856
-0.11464095
-0.048372727
-0.045737416
-0.540808
-0.26775095
0.25131953
0.27745035
-0.42548317
-0.15239884
0.05288547
0.3805794
-0.02727584
0.0818736
-0.19884305
-0.27144337
0.13854961
0.07718111
-0.005861416
-0.17310762
-0.034059532
-1.0565306
0.24408527
0.22896025
-0.5977173
0.042343836
-0.27444124
-0.42990947
-0.6700847
-0.15900038
-0.08414644
-0.27161404
0.1490002
-0.43680567
0.035358027
-0.20773488
0.5709408
-0.47095284
0.42899173
-0.08274172
-0.112124875
0.107683204
0.058996342
-0.5796195
0.56356555
0.443075
-0.023760738
0.13886762
-0.00011584494
-0.086544685
-0.0964645
0.2205516
-0.6250921
-0.06969032
0.105207436
0.23916888
-0.080999225
0.38025746
0.74860805
0.38770676
0.056647137
0.22031446
0.13245882
0.08310786
0.030559622
0.5309489
-0.24196526
0.32826832
0.17105067
-0.555295
0.06662997
-0.17129605
0.72445
-0.20098074
-0.09289083
-0.4881493
0.5591596
-0.6352067
-0.023699582
0.23765263
-0.001173002
0.8044625
0.19009545
0.28166217
-0.121804744
-0.57479376
0.6782982
0.3590743
0.034792636
0.23258176
0.027148599
-0.47572258
-0.45945102
-0.13729729
-0.088301286
0.26615548
0.24609415
0.045744658
0.37812096
-0.3225962
0.5813415
-0.227183
0.091846146
0.042870943
-0.31409985
0.15680793
-0.53607076
-0.10772573
0.07314574
0.026780678
-0.612998
-0.028841117
-0.042996503
0.43599275
-0.31759405
-0.5711001
-0.17015454
0.19339967
-0.34827057
0.03815482
-0.17557184
-0.36297736
0.026517777
-0.16670386
-0.30385867
0.05752407
0.14584847
-0.009194933
0.68379074
-0.515419
-0.030450167
-0.44785008
-0.50936514
0.0053299624
0.09274646
0.55061126
-0.38710037
-0.27182734
0.01378995
0.62728906
0.047746323
0.111760795
-0.22237886
-0.14538428
0.25255466
-0.28427887
-0.061712224
-0.3671772
-0.7373545
-0.43235314
-0.32969728
-0.20620412
-0.06807977
0.21059082
-0.15189625
-0.26470774
-0.2103826
0.11700558
0.2071591
-0.5806208
0.21658657
-0.025229929
-0.5082412
-0.41174445
0.32751158
-0.32395637
0.15826929
-0.0628849
-0.15467168
0.072253905
-0.05045782
-0.50962776
0.5349953
0.14474972
0.07477326
-0.1756896
0.08837097
-0.18917407
0.12002253
0.2869266
-0.9255577
-0.06549699
0.3108883
-0.28773955
0.024806552
0.1470536
0.35078126
0.71751624
0.0049514733
0.024525354
-0.33363563
-0.061516218
-0.058071233
0.45927796
-0.3039949
0.22898997
0.1119339
-0.09941355
0.28129345
0.06694438
0.6475954
0.21940781
-0.53036606
-0.6128721
0.11742065
-0.37999135
0.13278729
0.36554137
-0.11764587
0.44837207
-0.07608082
0.066582344
0.29851294
-0.5182155
0.6459928
-0.14290677
0.016919918
-0.013286627
0.21543403
-0.02747244
-0.22367173
0.06621308
-0.14154801
0.28482446
0.14938416
0.043191478
0.2695937
-0.27491271
0.47131714
-0.14132762
-0.25172222
-0.22543946
-0.29600435
0.20951758
-0.29763874
-0.1371193
-0.04581367
0.10103614
-0.35676205
-0.018263552
0.2987434
0.16840793
-0.08445981
-0.73877794
0.040007025
0.36225387
-0.2774749
-0.13956644
-0.027432859
-0.19502264
0.058644157
0.13719448
-0.49615481
-0.056872707
0.1352939
-0.114974685
0.24776396
-0.63738966
-0.036335528
-0.36562672
-0.3549439
0.21046573
0.05441558
0.4781393
-0.05428123
-0.017176341
0.037182957
0.70846
0.0121544665
-0.16361395
0.1880507
0.23136914
0.2523217
-0.052233186
0.1529511
-0.16792487
-0.56393826
-0.28752115
-0.07023325
-0.11202849
0.11724255
0.25198287
0.13968346
0.1873063
-0.27781233
0.04969153
0.21607399
-0.5031489
0.0763578
-0.17991696
-0.18378906
0.07046283
0.03445824
-0.22738089
-0.17657565
-0.05792414
-0.2183478
0.16504982
0.074007
-0.3375143
0.39542717
-0.03458362
-0.057888836
0.0842476
-0.004770322
0.14786799
-0.12972479
0.05168888
-0.53882074
-0.025785828
0.26388252
-0.2574972
-0.051045045
-0.11596892
-0.12304522
0.36733294
-0.2821935
0.031299643
-0.2909038
-0.55508745
-0.0071402043
0.012260038
-0.3267265
0.1837291
0.14902459
0.13541993
0.3266802
0.20145336
0.8187589
0.46298426
-0.3195787
-0.34213027
-0.26628798
0.22942238
0.05609273
0.12911546
-0.07994806
0.13161813
-0.002159137
0.022489635
0.1939114
-0.31566128
0.2974275
-0.07215192
-0.014778692
-0.08257396
0.22291824
0.11453078
-0.21015246
0.50635767
0.049158808
-0.05571666
-0.05106651
-0.07054128
0.07940311
-0.48086977
-0.11401029
0.35175478
-0.18177317
0.06941877
-0.20579252
0.31028107
-0.26456413
0.17460962
-0.07949288
0.19353355
-0.32763284
-0.090412326
0.31883287
-0.1668747
0.062296566
-0.70413935
0.13965024
0.35065183
-0.28348362
-0.5060029
-0.24131387
0.03260297
0.21267742
0.04706689
-0.3451278
0.00620763
0.16835113
-0.029590616
0.10288448
-0.3967468
-0.07816228
-0.35113248
-0.38717338
0.24156272
-0.05185174
0.3459973
0.24748419
0.19626263
0.027554642
0.7902816
-0.22879149
-0.13853754
0.5677986
0.36052445
-0.0079256445
-0.18137547
0.09351981
-0.10358474
-0.40187547
-0.37457034
-0.05129751
-0.3994682
0.17707647
0.21898587
-0.16122952
0.2300606
-0.21998572
0.018692225
0.01645279
-0.19956996
0.13697591
-0.4899962
-0.05174074
0.5657354
-0.17515594
-0.28891867
-0.36652783
0.0917057
0.11986082
0.14461313
-0.078647956
-0.22175063
-0.016246928
-0.42031607
-0.0720407
0.3604784
-0.11152244
0.2932362
-0.35454962
0.18321164
-0.30284163
0.05643382
0.110237114
-0.1548574
-0.006577961
-0.30312613
-0.16904986
0.52561206
-0.31716824
0.09478146
-0.37595102
-0.50500107
0.076525174
-0.15238863
-0.20797245
0.08917899
0.0027223458
0.039765663
-0.32557938
0.032743044
-0.2610629
0.043700147
0.13532713
-0.07767922
-0.12248567
0.25820148
0.05166831
0.03800518
0.23621617
0.18616638
0.028998844
-0.12314445
0.32783908
-0.4278177
0.08946898
0.15318502
-0.027460555
-0.03437762
0.091766775
0.26142633
0.030959502
0.08911044
0.10072686
0.023147702
-0.055658802
-0.040755905
0.15992412
-0.4064988
-0.3206533
0.34819627
-0.082830906
0.14426884
-0.09597691
0.0839044
-0.63287777
0.3907028
-0.034306087
-0.21846493
0.06496245
-0.06931768
0.18488379
0.20606452
0.3895607
0.098903246
-0.31806493
-0.07895905
-0.41631755
-0.091308646
-0.21037585
0.34291425
0.2949584
-0.19310373
0.17589307
-0.026601218
-0.041664984
-0.11869914
0.077681534
0.4383716
1.9588664e-05
0.27950862
-0.14104936
-0.032724492
0.12453158
0.12605003
0.30524927
0.26767385
0.0341173
-0.17773174
-0.3497059
0.11464074
0.2839422
0.20756741
-0.22810274
-0.22162259
-0.18099515
-0.20582427
0.20467077
-0.041679624
-0.22488932
-0.02753322
-0.0128475735
-0.024854632
-0.045818105
-0.0813325
0.036880374
0.15497999
0.21067986
-0.1585816
-0.031106086
-0.23834361
-0.07658471
0.59960616
-0.23962025
-0.11012929
-0.1760967
0.080257475
0.13717069
-0.089234665
0.04790347
0.09711056
-0.23549403
-0.24691406
0.0055822507
0.30740476
0.12382088
0.12161741
-0.2912701
-0.0057248613
-0.09816686
0.07666503
0.11861254
-0.016934806
0.029120699
-0.09392349
0.22698283
0.020147108
-0.35810876
0.18118495
-0.22306636
-0.27765253
0.08042394
-0.0068572653
-0.16973978
0.0154102715
-0.007302819
0.06327776
-0.13472041
0.029891642
-0.16759935
0.07117096
0.008044628
-0.12245679
0.33921346
-0.21110822
-0.24379314
0.018506113
0.4173524
0.1368673
0.13202624
0.09921655
0.33263043
-0.01667595
0.20934825
0.10342224
0.009279504
0.11469894
0.105730996
0.31310618
-0.10295519
-0.12321694
-0.2447277
0.007000169
-0.099937186
0.0059728622
0.1055514
-0.20146058
-0.13563251
-0.15276247
0.016952604
0.15093644
-0.11209469
-0.022859273
-0.37906832
-0.049803957
0.042637587
-0.002519407
0.0127210505
-0.017152479
0.17918089
0.09005548
0.38641366
-0.31000394
0.1544607
-0.15273584
0.0015070081
-0.17930225
0.068514355
0.2668469
0.27726358
-0.14791855
-0.14861542
0.008676164
0.041992884
0.09165776
0.032489773
0.26432508
-0.07515809
0.25722948
-0.15466003
0.06658668
0.08018608
0.0042248457
0.17369373
-0.022961577
0.021053033
-0.24896157
-0.14448912
0.18853585
0.26999825
0.12314535
-0.0699739
-0.28680018
-0.07273552
-0.29329154
-0.06731487
-0.10599272
-0.41111103
-0.066342324
-0.065798685
-0.13054883
-0.037689332
-0.06834038
-0.13117602
0.0025731449
0.20363995
-0.21226132
-0.0809894
-0.08130955
0.022957787
0.352201
-0.08293275
0.024818504
-0.13107464
-0.039042547
0.11473401
-0.14300607
-0.06367278
-0.16144244
-0.15808527
-0.25340676
0.002429992
0.30061182
0.09901241
-0.2099205
-0.011874568
0.2046624
0.22392328
0.06069118
-0.036420412
0.010939907
-0.022024855
-0.06315888
0.088862814
-0.19731933
-0.052946243
0.1529871
-0.27336562
-0.19967489
-0.049126882
0.2209656
0.1175656
0.09718831
0.09811594
-0.23520134
-0.042195182
-0.078758664
-0.07833504
-0.0075627775
-0.04502808
-0.21381181
0.23156421
-0.20361012
-0.33912233
0.20862359
0.10937323
0.27814555
0.18026641
-0.0077618114
0.43808952
-0.029654901
0.20336571
-0.12918186
-0.07565729
0.23120335
0.041832972
0.14508522
-0.24386486
0.021892354
-0.12851675
0.20761116
-0.15641354
-0.045197185
0.0039263195
0.08827749
0.04596521
-0.20373324
0.13603766
-0.08643258
-0.08343205
0.104462475
-0.19126526
0.023141587
-0.002228178
-0.15476365
0.06138765
0.0877327
0.12086189
0.25373402
0.2123927
-0.051468216
0.20301677
-0.15096146
0.0787578
-0.24922343
-0.02694837
-0.030660253
0.11091078
0.05701474
-0.0029787947
-0.045821
0.27414718
0.072800286
0.33814123
0.014504585
-0.063880794
0.101909384
0.065112576
0.28102595
0.07453093
-0.17467351
-0.00053399155
-0.12508537
-0.075487494
-0.22787504
0.24065274
0.04436116
0.4901086
0.14920609
0.27462864
0.070393965
0.046528876
0.08791726
-0.2081383
-0.03183089
-0.42569003
-0.15807134
0.35133395
0.14628029
-0.06916688
0.19244482
-0.0022665146
-0.114688486
-0.09842686
-0.05437209
-0.08565978
0.011178126
0.19297397
-0.07489246
-0.05320666
0.2820718
0.285195
-0.37958953
0.05647218
-0.28843355
-0.04553257
-0.036611907
0.034301206
-0.013323825
-0.055955738
-0.07864427
-0.02042446
-0.4027748
0.26345095
-0.08926064
0.08736259
0.010746592
-0.018241875
0.049865056
-0.062841855
0.032669526
-0.06320859
-0.10880845
0.34161562
-0.14162923
-0.17107429
0.18808675
0.024743453
-0.21246934
-0.07245077
-0.0045529446
0.05154267
-0.27444977
0.017795721
-0.04043437
0.13243179
0.17777726
0.37538412
0.08747783
-0.24922282
0.29512268
-0.02964712
-0.13356638
-0.23751996
0.15583293
0.03460861
0.15293086
-0.3045659
0.14095692
0.3521366
0.064716145
0.03412968
-0.30145338
0.07178494
-0.19054317
0.014850712
0.1334189
0.012925385
-0.2323209
0.22003362
-0.06323425
0.09388705
-0.29676697
-0.29374933
0.14849252
-0.16930267
0.17611012
-0.22798789
-0.11287312
-0.18774624
0.07564352
0.050223686
0.1453068
-0.22731683
-0.039869346
-0.07074867
-0.20762539
-0.16083054
0.13312095
0.10381744
0.041460466
0.066831924
0.24314089
-0.00077443797
-0.06067188
0.30464965
0.14209484
0.20758578
-0.0719494
0.13557513
-0.107273705
0.24261884
0.24549232
-0.022512313
-0.016081737
-0.069918744
0.14563212
-0.1292013
0.15367675
0.3760272
0.24217461
-0.042634435
-0.107091
-0.01829254
-0.27338752
-0.20572402
0.0476403
-0.19280307
-0.12981725
0.06599932
-0.14097641
0.08795412
-0.08007807
-0.06313447
-0.20917147
-0.08982319
-0.21931055
-0.07558409
0.07264705
-0.00074931496
0.074156396
-0.011287435
-0.17669465
0.05206749
-0.17629714
-0.25403732
-0.36804387
-0.15330139
-0.24592856
-0.19326352
-0.050051406
-0.096754745
0.16417013
-0.07168265
-0.16451387
-0.31648424
0.048473105
-0.053163443
-0.055280466
0.16974509
0.113359764
-0.2279508
-0.07298946
0.0059383074
-0.016746763
0.023360725
-0.10428174
0.028302513
0.053631417
0.20011963
0.11128462
-0.07949154
0.21307534
-0.15064201
0.41840896
-0.072689444
-0.11666255
-0.15247409
-0.06580027
0.07048854
-0.29421
0.03580388
-0.03196952
0.15467753
0.42751664
0.42965502
-0.2365004
-0.21222548
0.30268273
-0.00059225387
-0.1862138
-0.33165953
0.06772698
0.24376503
-0.13696018
-0.3390314
-0.02006839
0.37879708
-0.25053778
-0.06389394
-0.21816492
0.14703712
-0.18239276
-0.024175689
0.18908282
-0.038125664
-0.14233658
-0.29053172
-0.06585985
-0.014042302
-0.28641337
-0.38920662
0.011379774
0.04392382
0.06000427
0.109336615
0.048672516
0.06521249
0.37279344
0.02235838
0.46466658
0.09014532
0.031199135
-0.45646966
-0.22168149
-0.338004
-0.1376937
0.16735815
-0.004759462
-0.060993247
0.28836337
0.029693767
0.0070727803
0.10019244
0.36966336
0.5693484
-0.07954856
0.13761994
-0.18495041
0.35934332
0.16770396
-0.0024034502
-0.15894762
0.048774164
0.49266466
-0.0026411067
-0.037440367
0.33073756
0.1261296
-0.078575745
-0.04916193
0.011522164
-0.33733025
0.24418308
0.13210529
-0.38323474
-0.048600703
-0.069674574
-0.026777009
0.1983787
0.0511129
-0.055600632
-0.1086964
0.0666846
-0.041864857
-0.036296535
0.03430075
0.06770088
0.06689495
-0.11053659
-0.14058717
-0.027561216
0.042673323
0.08735959
-0.21404234
0.12834741
-0.1068752
-0.28356227
-0.024510931
0.22301017
0.22144362
0.024094455
0.094749466
-0.2948013
-0.23404282
0.054606073
-0.2820192
0.14699428
0.27152693
-0.15748966
0.006732381
0.15946028
-0.05091589
-0.027122438
0.023451596
-0.068182476
0.3098758
0.22193262
0.021346511
0.06875881
-0.06278868
-0.18307695
-0.17139669
0.07111164
0.07165523
-0.11365515
0.20665501
-0.012733475
-0.17821707
0.110312656
-0.027421366
0.02449235
-0.07523615
-0.17921822
0.4472117
0.23131017
0.24453276
0.0483581
-0.04982846
0.2833012
-0.045301165
0.18961926
-0.3278527
-0.029439285
0.4031165
0.37909302
-0.15005285
0.0071183518
0.037041236
0.15497358
-0.11887963
0.11005295
0.16136743
-0.10947654
-0.122425914
-0.15322259
0.046969227
0.061686084
-0.20220232
-0.22988078
-0.26175523
0.03147038
0.13220945
-0.06690847
0.03240902
-0.05826174
-0.2695672
0.015282288
0.17220509
-0.050717905
-0.014239021
-0.16923006
-0.008570321
-0.1117696
0.37226602
0.058727928
0.029386105
-0.06315669
0.23834021
-0.003321077
-0.106574304
0.03890892
0.39666322
-0.38206393
0.01708369
-0.14642239
-0.19683012
0.35577562
0.18899123
-0.081058614
0.18287419
-0.13875644
0.32769227
-0.0063958564
0.17388944
-0.16557026
-0.1199752
-0.0141580105
-0.29838812
0.1844004
0.11531085
-0.019349275
0.12599353
-0.23059934
0.06848812
0.037735082
-0.07901672
0.33409318
-0.055358585
-0.1024829
-0.047149204
0.032878723
0.17188133
-0.019148648
0.077465914
0.043455135
-0.09204678
1.236045e-05
-0.042411983
0.041902687
-0.18134494
0.06731018
-0.2739207
0.17783616
-0.06643617
0.29871875
-0.10124252
0.11805849
0.10861891
0.02762501
-0.23491831
0.1596209
0.2983257
0.06803734
-0.33997148
0.057349727
-0.13927612
-0.10807734
-0.00047229734
0.14352076
0.053449016
-0.008612155
0.22867987
0.01996287
0.08728913
0.11060787
-0.03542361
0.35672224
0.000725456
-0.17914905
0.401722
0.012242921
-0.27153125
-0.20786634
0.1913669
-0.04493421
-0.15923527
-0.119600326
0.06257608
0.12265108
-0.047808297
-0.17839076
0.08951666
-0.22378899
0.19842239
-0.065611176
-0.27629688
-0.274134
-0.17956917
0.05067085
-0.20303386
-0.15569577
0.35090274
-0.10875591
0.13113908
0.021173581
-0.43941295
-0.07029572
-0.1252612
-0.058958326
0.067006014
0.14231342
-0.43493652
0.17676507
0.026048556
-0.0361687
-0.39569515
-0.38575852
0.17154306
-0.11005226
-0.041790232
-0.26451594
0.18247002
-0.0705962
0.10112158
-0.018860549
0.2550246
-0.18917166
-0.05039203
0.1139868
-0.36560678
-0.2385719
0.090633616
0.14740385
-0.12833212
-0.119105704
0.3269318
-0.18476896
0.037020497
0.36597636
0.15065138
-0.16576414
-0.05560891
0.12258774
0.122794956
0.048605774
0.19722225
-0.059959922
-0.020572806
-0.38188294
0.128387
-0.031649407
-0.098906934
0.09420776
0.24125792
0.07466843
-0.3288164
0.016288549
-0.17604311
-0.09714516
0.2766457
-0.21161978
0.1399471
-0.32094982
-0.15649554
0.18957299
-0.19344796
-0.21604495
0.23479728
-0.09951061
0.07904736
0.045163374
0.17271107
-0.07095788
0.20574778
-0.0536575
-0.07551654
-0.027460787
-0.07858256
0.2569713
-0.026397368
0.0083309775
-0.4287653
-0.40955973
-0.050685406
0.024536185
0.31862882
-0.048138212
-0.16095202
-0.116423845
-0.032495786
0.03542152
0.06518136
0.03318129
-0.097775996
-0.40771356
-0.121314116
0.052860945
-0.0069717513
-0.077724144
-0.023151182
0.036576115
0.014488393
0.48651192
-0.012522376
0.17764021
0.12109831
-0.015896581
-0.32865712
-0.05909218
-0.029267302
-0.333646
0.18966316
-0.020522617
0.064912826
-0.4324864
0.12377344
0.25563234
0.0005698932
-0.39207035
-0.1576286
0.24299206
0.2858726
-0.15098901
-0.34515145
-0.2594924
0.2727851
-0.07163071
-0.20691994
-0.09282098
-0.104379326
0.29894677
0.13244976
-0.0008036422
-0.14105092
0.021988582
-0.01828963
-0.029004695
0.012897491
-0.10124098
-0.2178167
0.27614042
0.05358044
-0.018925438
-0.66683215
0.14305806
0.08302394
-0.33600044
0.084386826
-0.005761515
-0.012612151
-0.26227763
0.026221365
-0.0036530388
0.21065186
-0.1748499
-0.02715097
-0.11865322
-0.12188919
-0.06597263
-0.46526024
-0.19018798
-0.026246611
-0.004506796
0.2001802
0.0065641045
0.284439
0.34912232
-0.25072813
-0.1328314
-0.025955565
-0.08709397
0.1465903
-0.06782327
0.0125068575
-0.031181674
-0.020156119
-0.23838976
0.13260525
-0.036000207
0.07679318
0.27162957
0.3254887
0.055792887
-0.23053986
-0.43628103
-0.33233792
-0.06138003
0.05973604
-0.32706022
-0.3160386
-0.2210107
-0.28976688
-0.07200043
-0.28344283
0.017031126
0.083629906
-0.31544796
0.19896628
-0.13353023
-0.03926353
-0.03745778
0.05211511
0.40021983
-0.18594012
-0.15071045
-0.3031299
0.10211632
-0.014107595
0.14592971
-0.6619483
-0.2785195
0.33934626
-0.24685265
0.027457476
-0.017700054
-0.16342694
0.15574902
-0.25779134
-0.046172783
0.18745244
0.12539697
0.09728358
-0.6915446
0.2985387
0.18285611
0.05231012
-0.1750084
-0.12041934
0.058797576
-0.038040362
0.2005872
-0.0510716
-0.03291917
-0.011390706
-0.30013356
-0.24370354
-0.0010615587
-0.39567256
-0.1973013
0.10647024
0.09032569
0.21101563
0.04722232
0.04776075
0.33531994
0.31655943
-0.46379492
-0.5699074
-0.08158069
0.29060763
0.1152897
-0.20718095
0.010431774
0.09705292
0.15157972
0.06700489
0.38373715
-0.32896957
0.017521821
-0.06300531
0.043664314
-0.18894926
-0.07601665
0.21439181
-0.2342225
0.26240653
0.18021168
-0.15742896
0.073843606
0.02011121
-0.013441479
-0.6260402
-0.3059295
0.79227287
-0.2638359
-0.07198314
-0.2181789
-0.13461047
0.08871107
0.22260359
0.009035297
0.024319397
-0.17049187
-0.004555727
0.33989316
-0.10384339
0.26458442
-0.45791927
-0.1311042
0.12769163
-0.12774977
-0.1902307
-0.07701194
0.41938132
0.16926077
-0.15301573
-0.14655593
-0.040345017
0.3289764
0.055192
-0.18039612
-0.2551043
-0.084884934
-0.108594246
0.034866564
0.17897919
0.084817365
0.26470754
0.51918226
0.098575525
-0.052906614
-0.0852393
-0.025373837
-0.17430611
0.26648337
0.5080218
-0.12378523
-0.18622427
0.026532073
-0.21278888
-0.37669632
-0.38898215
-0.15503693
-0.19947
-0.06643332
-0.11528289
-0.11519473
0.01624392
0.027736075
0.060126655
-0.058140945
-0.1435758
-0.0026384587
-0.4792631
-0.029784948
0.4831633
-0.16132459
-0.5061945
-0.29849815
0.28842345
-0.3929287
0.25722337
0.06629347
-0.07480124
-0.18423738
-0.3833126
-0.036334984
0.36447415
-0.016446413
0.44027403
-0.4917348
0.05891982
-0.1628231
0.035157572
0.07644434
-0.31569242
0.07343986
-0.17491531
-0.048114046
0.51970243
-0.30985743
0.1089903
-0.114802316
-0.44382668
0.0551799
-0.19970371
-0.1665071
0.09135784
0.10630955
-0.28148293
-0.23702528
-0.098951295
0.057439826
0.2207031
-0.3477766
-0.3474385
0.25361562
0.0004231067
-0.15880275
-0.12877205
-0.053022165
0.52380896
0.0037506474
0.14111018
0.11634571
-0.49065366
-0.22661115
-0.02622293
-0.05162422
0.054052334
0.086322516
-0.0149174975
-0.4338819
-0.13581692
-0.053542737
0.012162503
-0.07257692
-0.077881515
0.04825069
-0.5234715
0.14460401
0.5982837
0.14378805
-0.15846051
-0.44136298
-0.15142351
0.038801804
0.001646666
0.007687482
-0.2415186
-0.23778315
-0.13575305
0.22690831
-0.048827767
0.26074573
-0.34934592
-0.15270264
-0.024335932
-0.0090992255
-0.43604764
-0.13003063
0.17380823
0.2179346
-0.23759586
-0.13363887
-0.06748521
0.30282626
0.2539994
-0.12226638
-0.21750544
0.0057618245
0.13851126
-0.075890526
0.10072171
0.17485297
0.24431394
0.28102177
-0.011659658
-0.07557742
-0.16944984
0.21454827
-0.074665025
0.128312
0.46337777
-0.06305453
-0.01734436
0.07926852
-0.22977728
-0.3213757
-0.20392345
-0.24032801
-0.15279894
0.13843481
-0.043684356
-0.15868129
-0.29279873
-0.03271366
-0.03601836
0.016394293
0.09311375
0.062192027
-0.506628
-0.14067847
0.17777625
0.11776819
-0.42267096
-0.027898032
0.25613466
-0.14449444
0.017619288
-0.024497796
-0.26700512
0.004276405
-0.10324737
0.07244334
0.19287555
-0.22198735
0.24648362
-0.6286645
0.2703144
-0.46809733
-0.07048786
-0.025091847
-0.17772186
-0.06780555
-0.027533658
-0.05341374
0.41977927
-0.29988235
-0.03705255
-0.28746012
-0.19529533
0.0015790462
-0.07412388
-0.2677796
0.242899
0.030710997
-0.4763677
-0.10714562
-0.05256274
-0.052942477
0.20691232
-0.3190096
-0.17588739
0.027310489
0.13234195
-0.031045238
-0.20068228
0.06755937
0.5950305
-0.19672716
0.11721548
0.18298188
-0.38548487
-0.16427894
-0.11021597
-0.0867391
0.018999225
-0.14244805
-0.038639583
-0.4021918
0.13243808
0.13222378
0.40549064
0.038408235
-0.076275826
-0.10983584
-0.30912566
0.092653155
0.10307953
0.36639705
0.115693055
-0.5857307
-0.09447178
-0.03649292
0.045335654
-0.082322195
-0.29065228
-0.018237298
-0.1277919
0.09605692
0.1251348
0.27757597
-0.3929936
0.08587823
0.13856706
-0.18705177
-0.36723793
-0.20985232
0.16294979
0.014704017
-0.40701625
0.1249034
0.0026871338
0.3310313
0.15480852
0.42179033
-0.16147596
-0.027967747
-0.028980063
-0.3463117
-0.20872277
0.25643945
0.046044588
0.15427355
0.16628997
0.04855789
-0.55518657
0.2210028
-0.29581344
0.20078379
0.21660584
-0.10522849
0.053655025
0.15526894
-0.26674086
-0.47085348
-0.33278626
-0.0055126864
-0.5338487
-0.15496331
-0.16088757
-0.19416477
-0.47781485
0.11431587
-0.08149573
0.29626837
-0.20830251
0.23863931
-0.26475987
-0.058663554
0.008960915
-0.0877112
-0.062170576
-0.18663281
-0.23333628
-0.068658344
0.076432474
0.06251446
-0.049755163
0.055740707
-0.22411975
-0.06437985
0.16425085
-0.25579324
0.035166517
-0.4399541
0.32145807
-0.5854511
-0.0059780935
-0.49038634
-0.18743815
0.05467253
-0.15392162
-0.21336101
0.43393362
-0.3353783
0.07814601
-0.25176245
-0.3921792
0.029735401
-0.31968084
-0.08670134
0.19517103
-0.17749237
-0.2633735
0.056812536
-0.0910593
-0.030755257
-0.072721384
0.1998042
-0.06454943
-0.2214277
0.35157943
0.11251225
-0.70713603
-0.10510674
0.17098005
-0.33796486
0.18317924
0.23265669
-0.25063714
-0.2874379
-0.025900653
-0.019209906
-0.2165214
-0.19043846
0.32936433
-0.17595206
0.06080817
0.1869855
0.096511826
-0.010388733
0.047021125
-0.20487987
-0.5127275
-0.040124647
-0.33061758
0.015434792
0.035615657
-0.47392452
0.025323655
-0.19962475
0.3632134
-0.017640527
0.15059848
0.21837167
0.0038235588
-0.3125409
-0.13471729
0.25236106
0.15512405
-0.21804161
0.11426628
-0.24989301
-0.35708135
-0.09922258
-0.07443915
0.060983397
-0.5271206
0.1385908
-0.022616245
0.32304662
0.03838595
0.027705092
-0.0050979326
-0.073990315
0.17111164
-0.04269321
-0.6028075
0.20161271
-0.34420145
-0.038440228
0.118938304
-3.2844524e-05
-0.35890698
-0.041405957
-0.1377236
-0.0023816808
-0.28571722
0.06664563
-0.24941891
0.25530842
0.07002564
-0.16943184
-0.5133848
-0.063943736
-0.07305071
-0.6464765
-0.057971057
-0.3604892
-0.08728228
-0.21585266
-0.1418006
0.22738497
-0.17760056
0.08082087
-0.3516082
-0.023178017
-0.08313165
0.0064381966
-0.43449458
-0.19315833
-0.15117818
0.23165761
0.14991525
0.062425815
0.08014028
-0.2196361
-0.2094847
-0.06299879
0.29192743
-0.23685841
0.014672097
-0.9451811
-0.094766356
-0.26303458
-0.032172725
-0.7889353
-0.04473496
-0.025306407
-0.24573661
0.6158709
-5.1967916e-05
-0.14581433
-0.14758673
0.038386088
-0.083402395
-0.046147816
-0.15720998
-0.20707239
-0.06545697
0.08490253
-0.1531688
-0.17348069
-0.11134091
0.17331445
0.0062142117
0.19524693
-0.24721308
-0.069723114
0.31667784
0.102654725
-0.41072577
-0.26084274
0.21154465
-0.59647584
0.23615888
0.2368903
-0.2229574
-0.1076889
0.057497945
-0.06478357
-0.1539407
0.084498234
0.11191089
-0.27011472
0.053540554
0.07433591
-0.029181136
-0.025392255
-0.04478729
-0.15460758
-0.67613256
-0.18275271
-0.39763352
0.16368996
0.13223639
-0.30434585
-0.0012450666
-0.46589845
0.05606524
-0.0053190696
0.13224511
0.1748835
-0.02803871
-0.21936308
-0.24587782
0.13232224
-0.0008726059
-0.07741572
0.09794463
-0.3011594
-0.32824305
-0.14153002
-0.506275
-0.23170833
-0.2030962
0.19868775
0.029864319
0.12193684
0.20906776
0.10751681
-0.17940235
-0.121416375
0.022706196
0.08951368
-0.4910704
-0.12455485
-0.32586643
0.16820665
0.072960496
0.026692377
-0.1912595
0.18109472
-0.11275012
-0.079687744
0.13088638
-0.09314339
-0.060360342
0.24247661
0.010089733
-0.22021335
-0.3501306
-0.14374253
0.055240173
-0.6399813
0.33451107
-0.09539389
-0.17458181
-0.13292581
-0.23980932
0.2791795
0.02803603
-0.09946865
-0.03272211
0.036880273
-0.06772379
-0.089716464
-0.67032
-0.086880766
-0.07978717
-0.020126387
0.26764
-0.040533446
0.20002529
-0.20509177
-0.22837509
-0.06855056
0.2177002
-0.09759617
0.15060943
-0.64055926
0.09574627
-0.28219873
-0.06211652
-0.3851832
-0.08305779
0.05566951
-0.08646637
0.68166983
0.10343873
-0.13670965
-0.26160306
0.20338558
-0.083252974
0.0466095
0.45470107
-0.11571186
-0.058895256
-0.030382913
0.06237054
0.014095257
-0.057224277
0.23020306
-0.34179008
-0.100579664
-0.34329936
0.43534258
-0.19449697
0.26260388
-0.010529714
-0.20326175
0.40634823
-0.49663147
0.16456603
0.10739424
0.24301513
0.032058887
-0.14670923
-0.06838979
0.05371954
0.027383959
-0.39781967
-0.43122917
-0.24822015
0.0490167
0.016387407
0.1722155
0.08182796
-0.003089094
-0.370012
0.13923648
-0.92611533
0.20733948
-0.104103535
-0.049624182
-0.08440376
-0.027338391
-0.3406601
0.06966875
-0.22138855
0.14152595
-0.033699095
-0.5603229
-0.10485677
-0.3295932
0.1162886
0.5520364
-0.03766386
-0.3997079
-0.1309811
0.055999223
-0.95118403
-0.43358612
0.20037524
0.052280184
-0.06843216
0.08981532
0.2455357
0.4576348
-0.11864481
-0.116695404
0.08048623
0.15723298
0.16020778
0.1514977
-0.030149205
-0.0792236
-0.10766745
0.011680874
0.20860824
0.19155872
0.028193934
-0.30873787
-0.08052891
-0.42999068
0.3684392
0.019530678
0.13161507
0.04939289
-0.30079702
-0.2551504
0.24428168
-0.6835472
0.17872362
0.28484097
-0.20745738
-0.10775602
-0.3445971
0.3532327
0.1427168
0.03961056
0.286143
-0.1262265
-0.25520685
-0.02638021
-0.68786687
0.33367985
0.0642258
0.046232954
0.21926346
0.012264289
0.07971917
-0.16389005
-0.045710407
0.07600076
-0.4072523
0.16852184
0.14249803
-0.74758947
0.08952107
-0.01312301
0.06368195
-0.06835181
0.00839621
-0.016491547
0.20315143
0.21547022
0.17112868
-0.08841487
-0.18925267
0.38850516
0.14757296
0.049915396
0.2640008
-0.021831004
0.055729046
-0.024392104
0.05361384
0.1436871
-0.12315472
0.16347349
-0.5418228
0.12796216
-0.19187246
0.13261831
-0.14433534
0.20366758
-0.14723645
-0.095013544
0.073781826
-0.059214585
-0.07716416
0.14386865
0.23429228
0.10734002
0.09181625
-0.06122482
0.18584026
0.09646386
-0.117344856
-0.10636035
-0.18867674
0.052380435
0.096895576
0.15622552
0.024125095
0.013552789
-0.057646405
0.06838732
-1.0095043
0.19790252
-0.13515258
0.2202202
-0.05250378
-0.144025
-0.30892777
0.042400226
-0.10672843
0.008548874
0.0013420723
-0.42184618
-0.11138188
-0.10340661
0.06546249
0.41559154
-0.08478806
-0.26607144
-0.102398105
0.006153259
-0.8031067
-0.124018304
0.20424509
0.12231954
0.06342795
0.15450206
0.20775418
0.22603805
-0.28233048
-0.12990978
0.051988885
0.07697029
0.30719796
0.008056903
0.107991435
0.054009892
-0.2955448
0.037431315
0.15033157
-0.01573881
-0.0006324556
-0.07234292
0.0054617897
-0.12088305
0.2668293
-0.04011115
0.18226597
0.07069739
-0.2139431
-0.105069265
0.22510122
-0.40977946
-0.046643212
0.06776152
-0.0003816301
-0.21031728
-0.2643986
0.06360273
-0.0031691028
-0.03615081
-0.16970314
0.3678796
-0.16169362
0.07444475
-0.3636207
0.20534647
0.068604015
0.027038258
0.13012895
0.061720334
-0.15530542
0.20290063
0.009245682
0.051216997
-0.34550694
0.019104175
0.033529785
-0.48755357
0.21060231
0.06341181
-0.09063863
0.026913198
-0.06734499
-0.053893037
-0.093933515
0.46253267
0.1454162
-0.03350816
-0.23196976
0.13697109
0.1050352
-0.038717538
0.15259457
-0.063871056
-0.033804264
0.120390505
0.078069866
0.085240245
-0.029148864
0.15064947
-0.060617723
0.113897525
-0.0912219
-0.14682512
0.11021412
0.024510792
-0.075154096
-0.21215309
-0.07013531
0.0068833185
0.05530438
0.19865368
0.2174934
0.035165995
-0.37793195
-0.0607286
0.1632318
0.16496444
0.012143846
-0.049861375
0.20637682
0.16715428
0.13530087
0.18306836
-0.029827055
0.1588007
0.0629472
-0.009755173
-0.5342875
0.020761939
-0.013247121
0.26609045
-0.04186107
-0.054952048
-0.1393178
0.042079628
0.032037497
-0.089733474
-0.012228739
-0.17523476
-0.13951327
0.19390935
0.12457697
0.118472785
0.28716266
-0.00835988
-0.020539993
-0.012967911
-0.41594887
-0.528576
0.1921037
0.022018522
-0.050580516
0.04938495
0.21814132
0.042093515
-0.20841622
-0.03477526
-0.15552814
0.10649192
0.17706814
0.0055414625
0.1337007
0.16892447
-0.49889117
-0.027480502
0.09636659
0.090198494
0.13365693
-0.0014672654
-0.08210672
-0.16591847
0.15822318
-0.013404362
0.14319454
0.02848898
-0.1477804
-0.07646445
-0.11914242
-0.110821076
0.07975841
0.14143305
-0.046577502
-0.14369425
-0.38883623
-0.008463987
0.11980165
-0.012243006
-0.06614805
0.23018761
-0.20826139
0.17475331
0.087392636
0.049222324
0.10516356
-0.004650402
0.04398581
-0.0011212177
-0.13619404
0.10485113
0.034206603
0.048387725
-0.17658356
0.0040754043
-0.10256654
-0.015981602
0.24638888
0.24362315
0.04476382
0.10750244
0.15226886
-0.058845002
-0.12366317
-0.08784014
0.22156063
0.10120889
-0.080761634
0.13043597
0.018875252
0.04761892
-0.06510373
0.0715261
-0.07031292
0.067846745
-0.10511987
-0.06784657
0.061536252
0.11694101
0.333383
-0.032990336
-0.1001973
-0.11493403
0.19858547
0.19437617
0.15591179
-0.05647687
0.0423751
-0.1258663
0.044481266
0.17453916
-0.11386505
-0.02476853
-0.23804525
0.05199488
-0.010995022
-0.09732342
0.10529138
-0.019023942
0.46454945
0.049569428
-0.016249971
-0.007125213
-0.0044700634
0.026050957
0.025906138
0.11029088
0.10299045
-0.13542275
0.17567608
0.1327958
-0.0057489155
-0.15338725
0.12776151
0.0050860336
0.1449188
0.08634859
0.036022786
0.2772158
0.22338332
-0.027170448
0.24546498
-0.049177684
0.28239852
-0.0065478603
-0.10355971
0.062344436
-0.005567055
-0.8597425
-0.016315416
0.058804188
-0.071903974
-0.1213297
0.18889976
-0.044292048
-0.10153778
-0.0008716437
-0.0036929375
0.12633157
0.09673638
0.007289668
0.14381365
0.13554657
-0.56463194
0.021093162
-0.13951328
0.06538086
-0.0705339
0.30083966
0.21522221
-0.06376177
0.09001256
-0.10337767
0.12328832
-0.013639848
-0.14584044
0.19610056
-0.043515064
0.26708165
0.056984253
-0.03028747
0.19013801
0.08873998
-0.277898
0.15404727
0.24196738
-0.15872908
-0.06877409
0.14541337
0.1393887
0.0412092
0.11753399
0.027251113
0.17859742
0.009412414
0.19474296
0.03904117
0.115873136
-0.007444546
0.0634484
0.0666495
0.056679837
0.24296676
0.039050423
0.035620157
0.04761589
0.09817994
-0.01748568
-0.055844046
0.27636135
-0.037225835
-0.04138951
-0.15800923
0.22199142
0.27280453
0.020330423
-0.1664019
-0.0033969334
-0.08821649
0.25343212
-0.04630024
0.05060028
0.03519044
0.17203307
0.008086894
-0.0799497
0.13786271
0.2460622
-0.037359647
0.01537314
-0.050287087
0.029859506
0.005315252
0.28764445
-0.014146012
0.15251294
-0.20457077
0.019304851
0.11076141
0.056288123
0.1799581
-0.58796424
0.022522302
-0.067501225
-0.2065043
-0.03234487
0.012894108
0.2347554
-0.095566384
-0.00045923403
-0.4283377
-0.031462
0.13137537
-0.043461148
0.2061739
0.022214675
-0.19962329
0.012559229
0.2555857
0.13497898
-0.26175094
-0.0064406153
-0.057290226
0.08054631
0.11040383
0.068165615
0.11158383
0.14417231
0.09049902
0.35832268
0.12721694
0.17243758
-0.00951799
0.06628155
0.053778272
0.099169575
-0.7137366
0.17207949
-0.09800805
0.04847172
-0.1665529
0.23374519
0.109717764
0.056459315
-0.082061544
-0.08424773
0.066782795
0.076327756
-0.045507345
-0.041739278
0.38538262
-0.6575496
-0.0742258
0.022252103
0.077246875
0.0888862
0.08531759
0.18017237
-0.0015305567
0.02788914
-0.08383722
0.033301316
0.1919857
0.24041438
0.2281618
-0.14932421
0.22483222
0.088611975
-0.12855434
0.16912399
0.10808297
-0.09918613
0.20101924
0.10249485
0.18621388
0.14032944
0.28477728
0.0074082296
0.15055886
0.1787836
0.12281925
0.3717798
0.026239093
-0.1399334
-0.063244306
0.046026085
0.009885556
0.279195
-0.004953457
-0.16088243
0.180107
-0.09182968
-0.02165468
-0.2298058
0.17472863
0.029287247
0.046711545
0.54768825
0.0656516
-0.04214204
-0.25607595
0.14300825
0.3449006
-0.061226632
0.06475163
0.15470187
-0.078125075
0.35580024
-0.16392921
0.014438747
-0.033350907
0.25150678
0.020675967
0.07390692
0.107840665
0.13185246
-0.19662842
0.0074197417
0.10307788
0.0018010497
0.16345254
0.20601296
-0.051309854
0.046839647
0.012066881
0.051663067
-0.012470041
0.25834748
0.20618163
-0.6975191
0.0074818563
0.10632913
0.090115614
-0.07619754
0.04597833
0.12539409
0.13605249
0.11915538
-0.3848238
0.053039793
0.06822636
-0.03694434
0.22730798
0.0028306397
-0.09764362
-0.0019319556
0.27427042
0.12113496
-0.10431014
0.023544082
-0.00028916314
0.032346915
0.017032629
-0.0026452492
0.110022336
0.005099814
0.01731891
0.36477304
0.22172487
0.20822501
0.2127819
0.15081917
0.22163358
0.07851733
-0.45603248
0.31253037
-0.26152712
-0.012978017
-0.18249224
0.38491318
0.094854034
0.007932675
0.05337322
-0.22107586
-0.054807566
0.1709299
-0.013457418
0.07735788
0.33173713
-0.65636134
0.064262025
0.15886183
0.1286681
0.030543866
0.0078121508
0.010538819
-0.18326016
0.21454513
-0.18033159
-0.08052418
0.14398372
0.15394929
0.19950257
-0.4034026
0.27066728
0.07191867
-0.109266706
0.16332294
0.20485398
0.05643012
0.25740182
0.10493139
0.17341651
0.043894943
0.31868696
-0.17416553
0.21614589
0.119809665
0.27300552
0.3365726
0.24924655
-0.25381196
0.006295696
-0.22679853
0.12572038
0.28457585
0.045434117
-0.22328907
0.27543092
-0.15060543
-0.071595766
-0.19581719
0.42161945
-0.0026716094
0.096278906
0.58945155
0.056371327
-0.10862217
-0.37665322
0.050628643
0.4430595
-0.012918586
0.020374313
0.23851845
-0.07678165
-0.04950987
0.061755426
0.16945302
0.009013681
0.195823
-0.010346081
0.052316282
0.07031929
0.3183562
0.0071454914
0.07702123
-0.1351447
0.20391579
0.04983705
-0.051939394
-0.21306434
-0.1127357
-0.042900257
-0.12543994
0.18885913
0.13996382
0.18717201
-0.49012473
0.015787398
-0.055708516
-0.06961809
0.27395904
0.074387796
0.43391377
-0.12557974
-0.0030819569
-0.2513985
0.010247809
0.031273503
-0.0049876925
0.13663416
0.04622701
-0.19893223
-0.0035458833
0.21721733
0.10603218
-0.2304842
0.19708064
-0.0660312
0.11780984
0.005213651
-0.038423784
0.25187135
0.12814862
0.247284
0.33339038
-0.014940742
0.26557946
0.14254275
0.07710838
0.047985643
0.25585765
-0.4027398
0.20402758
-0.11912857
-0.03353709
-0.1849415
0.24710952
-0.008481694
0.03444249
-0.029008502
-0.15722606
-0.08991212
0.0466548
-0.08028186
-0.023420362
0.22022058
-0.75023925
0.02536716
-0.026987797
0.03188179
0.041333396
0.17567077
0.06755161
0.28440815
0.067373246
-0.18015797
0.030528026
0.24513963
0.16639404
0.24537541
-0.30504477
0.31108868
-0.025133021
-0.07609097
0.23069781
0.14815982
0.007821742
0.26415172
0.14283027
0.19403762
-0.058898848
0.337875
0.017520966
0.1715988
0.14207958
0.004764302
0.368956
0.06892044
-0.19393945
-0.04988205
-0.1051244
0.13375688
0.16930668
0.021197928
-0.027434485
0.08442663
0.0004724234
0.120072305
-0.2172602
0.3305863
-0.044940315
0.0132034905
0.5968023
-0.033083595
-0.07331951
-0.24502921
-0.04175543
0.29608405
-0.11288193
-0.08350109
0.1871164
-0.042319786
0.17111187
0.122221954
-0.0025939147
0.07860825
0.23913613
0.19325933
-0.0053671594
0.08418738
-0.0439284
0.23420739
-0.050614614
-0.08521689
-0.14076892
0.114860795
-0.112017855
-0.22225943
-0.20584625
-0.15112248
0.10621983
0.12337735
0.20536937
0.07670807
-0.33987898
-0.035392236
0.15476654
0.1523439
0.2396911
0.23436415
0.12668775
-0.12559387
-0.038497243
0.15850592
-0.07943375
0.055871688
-0.043377172
-0.019405527
-0.23671263
0.06366966
-0.18142389
0.3947752
0.1264503
-0.11609267
0.116207354
0.036548987
0.13417171
-0.16525558
0.043641284
0.05965121
0.076329425
0.052225478
0.273978
0.21467072
0.2982794
-0.049401592
0.08704111
0.02089436
-0.04372746
-0.6602595
0.1552789
0.051622305
0.025864193
-0.13538794
0.15560685
-0.008541494
-0.1478117
-0.03386533
-0.055826485
0.22182548
0.1339646
-0.026716184
0.24058858
0.14929053
-0.6253628
0.031416282
0.20716508
-0.01381677
0.2838941
0.1814911
0.050004207
0.09804394
0.035533104
-0.26293266
0.15965533
0.20765632
-0.22332919
0.31018126
-0.20006534
-0.06628573
-0.05353289
0.04480537
-0.11969356
-0.1312154
0.06740368
0.106665075
-0.05042295
-0.18417192
-0.19270168
0.31881216
-0.073487006
0.19179446
-0.10253703
0.14722113
0.3197076
-0.081439115
0.017004637
-0.05407795
-0.11666558
0.24741973
0.1420523
0.046981104
-0.02143912
-0.041781485
-0.060317446
0.32340994
0.1534063
0.16284505
-0.05284174
0.10860648
0.38596216
0.057136502
-0.07846559
-0.24482083
0.042067908
0.26434964
0.079258285
0.04504472
0.09632913
-0.076779544
0.3632337
-0.087951094
0.0040565594
0.0550595
0.25816315
0.309286
-0.04505711
0.027485894
-0.3943081
0.17680664
-0.023874119
-0.054986093
-0.17385422
0.24655265
0.077126704
-0.28550887
-0.13143638
0.06503513
0.028981954
0.20183705
0.39538357
0.014736824
-0.13646138
-0.004178509
0.22809874
0.100922436
-0.03810841
0.18238625
-0.20795676
-0.0826389
0.050236758
0.14998357
0.06675177
-0.021845076
-0.13848265
-0.08260562
-1.0259422
0.29977018
-0.33850455
0.19265926
0.24849324
-0.18672208
-0.038848124
-0.04116179
-0.02573881
-0.014645686
-0.014071225
-0.30529183
-0.055980843
-0.12498402
0.13066426
0.2040289
0.0053767473
-0.16631025
0.056745388
-0.12709196
-0.765533
-0.6900395
0.1013832
0.24469064
-0.038749095
0.035683252
0.1656867
0.0037455633
-0.23126346
-0.12979451
0.006744281
0.23618704
0.18772466
0.045021396
0.21050252
0.13737163
-0.2102979
0.0325885
0.3909241
0.07921985
0.14996588
-0.16084792
-0.120461404
0.032864355
0.3082002
-0.003082379
0.13577384
0.18251719
-0.3116783
0.23728514
0.12193459
-0.27480474
0.07863095
0.07482286
-0.12709495
-0.38322693
0.018193655
-0.08282375
0.047105175
0.019293588
-0.15850529
0.47396243
-0.17552307
0.015092841
-0.41115683
0.16351858
0.12939373
-0.21498677
0.042037718
0.017636249
-0.15650366
0.4138113
0.13743997
-0.05965893
-0.12808514
-0.144258
-0.013281127
0.16914959
0.17842321
0.1927494
-0.061887324
0.3375002
-0.082267985
-0.055476982
-0.07320042
0.1350068
-0.0854007
0.041384228
-0.1700442
0.2108716
0.017480517
0.048494123
0.54241186
-0.121663645
0.030703992
0.026767304
0.14974605
0.26011986
-0.0370731
0.11531376
-0.41677982
0.2461275
-0.15231183
0.18868175
-0.119077496
0.19891179
0.15051109
-0.2949027
0.11647264
-0.07746731
0.0139019955
-0.078750975
0.281387
0.1731123
0.23952721
-0.03747527
0.061575186
-0.028640503
-0.21349543
-0.044456504
-0.3046866
0.14894392
-0.06840326
0.044438366
-0.061888494
0.12344667
-0.15195502
0.24207005
-1.1833802
0.22993419
-0.103186876
0.16487457
0.1225491
-0.13074623
-0.26467118
0.027556216
-0.14973205
0.040900532
0.010561658
-0.61647314
-0.069405064
-0.18675685
0.06403449
0.25472832
-0.005139897
-0.41541323
0.0816401
0.15664445
-0.8987409
-0.4627428
0.11120828
0.12156293
-0.009398926
0.12539074
0.11319125
0.18953106
-0.08682172
-0.02079046
-0.06384432
0.19663446
0.29746604
0.18375842
0.21603036
-0.18510377
-0.19657777
-0.0155203855
0.3494716
0.079427235
0.044412855
-0.3359606
-0.25505227
-0.032839593
0.31750244
-0.019628298
0.061335195
-0.0348878
-0.37245625
-0.097717494
0.07738758
-0.763044
-0.0034501313
0.15056278
-0.2564445
-0.412185
0.0682161
0.28779092
0.12827517
0.05943525
0.16701466
0.11900571
-0.35383338
-0.12510559
-0.49199638
0.29520103
0.112216756
-0.19549687
0.19895503
0.03960487
-0.20342046
0.27848446
0.23148923
-0.04940185
-0.39894804
0.11793146
0.015432269
-0.2599742
-0.0007827644
0.103133366
0.06314416
0.15391697
-0.037676405
-0.052454222
0.0551544
0.31518325
0.18940058
0.10581485
-0.14368264
0.20012575
0.29652232
0.026315443
0.32257468
-0.12917607
-0.08591284
0.11491831
-0.10267311
0.10947529
-0.061799925
0.22062203
-0.04123981
0.22951822
0.031138953
0.08023587
-0.17717034
0.17995997
-0.03606499
-0.3496006
0.14531758
-0.3414077
0.078588426
-0.07569562
-0.052384026
0.2889446
0.14846952
0.031105781
-0.0975005
0.18801878
-0.1380801
0.041467372
-0.16866176
0.08106293
-0.09166457
0.012377234
-0.06055133
0.033056695
-0.75176156
0.2448144
-0.57393676
-0.033127163
0.056245465
-0.02027538
0.09035046
-0.48550674
-0.123775855
-0.08906371
0.043580756
-0.06032961
0.047727082
-0.46696302
-0.08029599
-0.37376195
0.0926108
0.13971953
-0.037014004
-0.40264523
-0.022015957
0.036034297
-0.6776324
-0.4977808
-0.19946013
0.07537003
-0.0824899
0.07635742
0.15076157
0.20434289
-0.23320334
-0.036310382
-0.012070863
0.20031023
-0.07455781
0.03858945
0.16008681
0.16669379
-0.2600614
-0.048838243
0.18353888
0.062713444
-0.15588753
-0.25082073
-0.10619562
0.17585178
0.07736768
0.0078065293
-0.04472521
0.017505733
-0.3950751
-0.036152467
0.021989297
-0.62659353
0.15040413
-0.0724774
-0.3134947
-0.31125057
0.124123685
0.32647696
0.11858014
-0.03114124
0.17540537
-0.10548213
-0.22569872
0.08143623
-0.52886397
0.16113563
-0.061016858
-0.13185889
0.3169338
0.03530986
-0.045237314
0.061929945
0.0794022
0.018051222
-0.011443297
0.03982023
0.228817
-0.21655183
0.07905474
-0.2965686
0.04579544
-0.104997896
0.017649734
0.039678946
0.084173135
0.3568022
0.27251115
-0.04988146
0.0907674
0.16628198
0.30490437
-0.06394938
-0.11927638
-0.19702813
-0.10382426
0.23328875
-0.24832524
-0.0112253465
0.06640617
0.09993887
0.038881183
0.36981475
0.12404699
-0.21808574
0.14536892
0.0446893
-0.22348505
-0.20016934
0.06284066
-0.2199042
-0.027356116
-0.028501086
-0.009443923
0.26967672
0.43487826
-0.0648873
-0.08324173
0.08390407
0.14716703
0.18168977
0.09319207
0.0762238
0.038501337
0.012553589
0.023173187
-0.06206512
-0.56927705
0.044564806
-0.053259615
-0.056050006
0.08490269
-0.023630235
0.004920316
-0.3613006
0.04795508
-0.049894065
0.1091704
-0.18735428
0.034431793
-0.25160682
0.025875492
0.102935076
0.19615561
-0.27599776
0.019745244
-0.5017382
-0.18836579
-0.10874452
-0.2556362
-0.14112885
-0.44857267
0.014625239
-0.03142718
0.05944932
-0.027541043
-0.23146422
-0.18651898
-0.10568398
0.041930474
-0.3001026
-0.31512588
0.22133058
-0.14198114
-0.1469715
0.07490731
-0.07835112
-0.22452128
-0.066256054
-0.26796034
-0.08403513
-0.051154237
0.093022175
-0.14802122
0.055220872
-0.023507012
0.0010629419
-0.49283025
0.111748114
-0.05639036
-0.39405894
0.08873832
-0.22694854
-0.39324176
-0.41987708
0.065633915
0.37615564
0.028430685
0.025802093
-0.19296895
0.08628756
-0.14883669
0.2941181
-0.35139236
-0.078228235
0.18996823
-0.15706329
-0.02686275
-0.005417414
-0.16762124
0.30246043
0.031096427
0.059003603
0.24051106
-0.42175815
-0.16207209
-0.4042394
-0.042130858
-0.27433622
-0.085285984
-0.48540685
0.12265203
-0.016261153
-0.09077487
0.5175789
0.018221054
-0.062517144
0.198223
-0.057063486
0.06097263
0.01721362
0.024849713
-0.21236444
0.05155707
0.083844
-0.16280271
-0.26945218
0.08480962
0.14935134
-0.10623622
0.14786473
0.17967163
0.2657175
-0.077070534
0.08741583
0.024039589
-0.016292376
0.5534907
0.16579522
-0.014482184
0.0022217599
-0.1606264
0.22534126
0.41099983
-0.05667409
-0.00036942915
0.025167197
-0.22341304
0.03687299
0.034502942
0.125906
0.08748878
0.22435364
-0.08152813
0.070745386
-0.335328
0.26326525
0.13612223
0.13956852
-0.090515405
-0.28279048
0.107588805
-0.26318702
-0.014547379
-0.009381756
-0.039709114
-0.06518658
-0.021953136
0.011212526
0.22638695
0.09310186
0.10773458
0.014190216
-0.008482791
-0.3334962
-0.36245298
-0.08048431
0.11118954
0.027548524
-0.051281612
-0.04843953
-0.07668979
0.22514147
0.1568652
0.15572426
-0.09156655
0.00673438
0.23579153
-0.21737435
-0.4365242
0.19384873
0.03385532
-0.20620644
0.032481357
0.060673904
0.054626036
0.007479535
-0.04321448
0.0048869615
-0.027295168
0.072780445
-0.12281696
0.03247105
-0.12616006
-0.34228155
-0.6493015
-0.266258
-0.23784225
-0.33283105
-0.06919894
-0.22879429
-0.18312292
-0.18514913
0.19043247
0.4972687
-0.137843
0.20831423
-0.3035755
0.05213244
-0.2076152
0.14275607
-0.3478538
0.03314172
0.41088575
-0.1252281
-0.045890354
-0.061300732
-0.19629878
0.08516491
0.11960131
-0.06840361
-0.04835966
-0.18618096
-0.052730065
-0.43051466
0.06446906
-0.50816095
0.025580319
-0.8287918
0.14276361
-0.05290495
0.17220397
0.42127267
0.25916246
-0.22120304
0.117957674
-0.26251954
0.25933132
-0.028515097
0.28778842
-0.1652277
0.08069084
0.18321978
-0.15065746
-0.37910137
0.12278271
-0.02904526
-0.041797534
-0.20272277
-0.1758143
0.19868836
-0.25244564
-0.06541003
0.28394496
0.07756015
0.5779315
0.055328853
-0.1855735
0.09556901
-0.38244182
0.26362532
0.2402835
0.023203013
-0.0907135
0.1675089
-0.19137962
-0.30311808
-0.14255634
0.07253632
0.15275292
0.16181362
-0.047387265
0.23182142
-0.30651027
0.27149358
0.17891194
-0.18501651
-0.52074015
-0.37487826
0.23296823
-0.6084747
-0.086652935
0.03386625
-0.16558151
-0.024489444
-0.062973626
0.27897155
0.36256698
0.28360566
-0.12848039
-0.2143325
-0.010813983
-0.24431708
-0.24410167
-0.09069215
0.23914418
0.20332308
-0.058502574
-0.2283259
-0.076258935
0.3358201
0.0750871
0.13191125
-0.15566188
0.01944173
0.15403543
-0.30483973
-0.3730085
-0.073665746
0.11571157
0.17714956
0.15992185
-0.04101221
0.21604414
-0.18991905
0.09627526
-0.049196187
0.10756854
0.124373
0.24896473
-0.051941056
-0.15647453
-0.36440173
-0.3094469
-0.32782042
-0.20248744
-0.04241836
0.095041774
-0.09649314
-0.027208375
-0.084343135
0.029740054
0.24843599
-0.3468323
0.24099508
-0.3683637
-0.0046559945
-0.07273073
0.103303745
-0.09880772
0.16615807
0.530193
-0.05737253
-0.14021051
-0.0071636364
-0.3229597
0.31317216
0.052556936
-0.014337361
-0.13503501
-0.02161739
0.077747405
-0.35010755
0.054376543
-0.73644495
-0.08330093
-0.24287134
0.034791734
-0.047876623
-0.0493378
0.100059435
0.09346475
-0.22780904
0.18384294
-0.3063255
0.088373914
0.030900247
0.24274477
-0.06017156
0.12643081
0.19057791
-0.12714958
-0.368863
0.06492761
-0.1393803
0.2700969
-0.21268483
-0.057485424
0.1802064
-0.20941514
-0.27689245
0.11501083
0.49661568
0.35947213
0.34016523
-0.11718839
0.27949524
-0.40517846
0.110079765
-0.057838287
0.07242165
-0.15754364
0.057321806
0.045968752
-0.29197976
-0.27394903
-0.24083856
0.12513375
0.08324587
0.0017521775
0.19960883
-0.29032293
0.06715455
0.0646655
-0.2136216
-0.5889763
-0.42500657
0.44850996
-0.6252942
0.108243674
-0.03366317
-0.029402561
-0.03900778
-0.14288408
0.28552288
0.43216956
0.36948675
-0.40244517
-0.26839185
0.11135431
-0.32633534
-0.28363532
-0.1604182
0.15661678
0.058824163
-0.34009627
-0.24697073
0.049923856
0.19936106
-0.04769683
0.1580079
-0.1359255
-0.005826011
0.057540137
-0.26915097
0.020115204
-0.040336665
0.16739774
0.42082933
-0.058711823
-0.07733743
0.30010504
-0.38194403
0.23064898
0.18154424
0.26908737
0.11729398
-0.30194515
-0.11917482
-0.27797586
-0.3654633
-0.30550936
-0.3476811
-0.17640004
-0.03583968
0.21314687
-0.1400331
-0.14160672
-0.21111204
0.045839127
0.27808136
-0.00634083
0.1572146
-0.20416687
0.12952487
0.08591405
-0.08613586
-0.030697407
-0.13674858
0.42459816
0.17549624
0.01828398
-0.029618869
-0.23228744
0.2958143
-0.15016851
0.06023147
0.10579355
-0.024881888
0.029188361
-0.07348105
0.04353318
-0.6105549
-0.0700049
-0.13315524
-0.012178725
0.04385507
-0.19673167
-0.042030856
0.19728668
-0.1756034
0.04104009
-0.28012723
-0.3195032
-0.07426975
-0.0356009
-0.19780192
0.22327839
0.17313087
0.0836319
-0.5411319
0.01843679
-0.28752258
0.0895162
-0.330152
0.053718828
0.032177243
0.020728508
-0.102275044
-0.05567946
0.36001533
0.31000882
0.24440865
-0.03789833
0.24887982
-0.35436487
0.20702258
0.19377212
0.010144925
-0.12773378
-0.029502872
0.23802023
-0.16661458
0.011087845
-0.20738357
-0.01636916
-0.21132486
0.07553178
0.24809301
-0.49387145
-0.10666044
0.35153297
-0.13110115
-0.13628133
-0.23537782
0.23157595
-0.3209272
0.19387318
-0.06966812
-0.1364572
0.09452172
-0.029606028
0.33985204
0.34584853
0.573817
-0.3299474
-0.1922433
0.13125418
-0.25410026
-0.31788284
0.052627526
0.5015669
0.34170997
-0.31383422
-0.25518027
0.052781824
-0.08782579
-0.15997252
0.0038697943
0.2487989
-0.051417187
0.22950296
-0.14195548
0.08438645
0.026520481
0.07332792
0.312316
0.07290792
-0.07582289
-0.13720955
-0.40274027
0.063669026
0.30984423
0.08534761
-0.065202355
-0.3991656
-0.17737776
-0.043739248
-0.007756283
-0.048979267
-0.46681362
0.12901357
-0.093405776
0.14094011
-0.12792502
-0.13206373
-0.082410045
0.14174327
0.34955597
-0.061635595
-0.13898759
-0.19250499
0.28369448
0.40745342
0.09702202
-0.3244793
-0.36689284
0.5275263
0.08538309
-0.09319994
-0.017032191
-0.09679901
0.10638535
0.029519267
0.05229623
0.17299038
0.06490472
0.15744257
-0.4211349
0.08495613
0.00076521846
0.007864219
-0.008536879
0.10345779
0.030408181
-0.088662036
0.2711487
0.08604923
-0.2530046
0.16581176
0.100600645
-0.058691904
0.024554513
-0.09248567
-0.059041165
0.08549233
0.09492709
0.11971141
-0.2780583
0.07725916
-0.29933447
-0.12459542
-0.095651925
0.08084495
0.23531803
0.049958076
-0.14352067
-0.2483232
0.5639329
0.059113793
0.17274204
-0.017072447
0.0005230737
0.07364621
0.22144465
0.2527282
0.05395942
0.039031006
0.18475857
0.14173687
-0.10197002
-0.27119324
-0.12560557
-0.053270984
-0.17859295
-0.07805918
0.2095195
-0.38437787
-0.23483562
0.116170965
0.08895145
0.08311669
-0.08567106
0.12530611
-0.24206422
-0.04526183
-0.06866647
-0.08445648
-0.0067632594
0.025919355
-0.12251567
0.24928987
0.330424
-0.113284074
0.001139156
0.035351343
-0.05490651
0.055585954
-0.27224588
0.24749492
0.44686732
0.0014246714
-0.24084054
-0.07656449
-0.05822873
-0.07873542
0.022296455
0.30728528
-0.0288993
0.22549877
0.09889899
0.25657454
0.076293916
0.14079551
0.11957041
0.26329875
-0.054454107
-0.37312564
-0.23526065
-0.10409926
0.008936343
-0.2079904
-0.3477123
-0.06575507
-0.026380654
-0.4386094
0.10651122
0.031221163
-0.4464034
-0.12959093
-0.15030141
-0.040410772
-0.07021223
0.11892123
0.044059914
0.03536595
0.15343091
-0.11027699
-0.22235237
-0.176259
0.22181888
0.108868755
-0.03073655
-0.15234661
-0.16422112
0.28252974
0.2651319
-0.15316647
-0.07352951
-0.34667817
-0.06807051
0.12764102
0.07080906
0.22007065
0.080532424
-0.1340994
-0.33232823
0.1897882
0.13699858
-0.045559388
-0.106058925
-0.03636351
0.044709988
-0.18993016
0.25119808
-0.108660206
-0.05577115
0.19468926
0.009065215
-0.23591365
0.045563884
0.20906962
0.18188177
0.031885106
0.11635284
-0.23234197
-0.03135453
-0.06712729
-0.44579327
-0.058695417
-0.0084842695
-0.070866115
0.3132345
-0.1049034
-0.22812985
-0.0036327043
0.31923246
0.08447544
0.19137512
0.11354492
0.15109977
-0.074152164
0.13669844
0.15618157
0.032200333
-0.018826611
0.25465965
0.08912377
-0.20687316
-0.31138572
-0.24931866
0.008091621
-0.35520804
-0.07337585
0.05456876
-0.14352253
0.05228557
-0.11322735
0.2294854
-0.06392969
-0.0090623405
0.14501955
-0.20192267
-0.25381795
-0.021413956
0.15029807
-0.15008864
-0.045035277
-0.08697059
0.22405097
0.24192142
-0.26099658
0.12469469
0.082868256
0.041747525
0.03584963
-0.041957237
0.03824903
-0.051855896
0.16019376
-0.16963513
-0.06939851
0.108190164
0.047970165
0.06695485
-0.085079774
-0.06252272
0.11833144
-0.044334773
0.32041776
-0.04770494
-0.20768973
-0.03419053
-0.05631235
-0.03027523
-0.41168293
0.17950447
-0.05674788
0.12151322
-0.2989159
0.00938577
0.10820258
0.01648152
-0.19419186
-0.05659245
-0.081244424
-0.29713657
-0.07680653
0.119512334
0.184371
-0.04965104
0.1595573
-0.12513566
-0.29000792
0.076990336
0.23182467
-0.057603236
-0.20287697
0.26310408
-0.13079618
0.035187893
0.06327926
0.117675655
-0.03860816
0.20615469
-0.19788027
-0.042871173
-0.09963431
0.24131104
0.18194054
0.0498664
-0.14410658
-0.018199975
-0.124949485
-0.011976729
-0.062096618
-0.063370705
0.009745174
-0.12538269
0.3313436
0.073940806
-0.053562816
0.08232676
-0.095890075
0.30902436
0.21235177
-0.038133916
-0.07394504
-0.0319115
-0.29330426
-0.024241023
0.23145281
0.15091334
-0.30357197
-0.014177884
-0.014584769
0.021032931
-0.008718177
-0.053714313
0.031296194
-0.23231791
0.30713546
0.059846938
-0.004331525
-0.4104421
-0.07513636
0.37729564
-0.027934607
-0.38390738
0.2695111
0.3185581
-0.038977716
-0.06732142
-0.24383838
0.18805397
-0.18644355
0.07845299
0.006093325
-0.070754796
-0.17280377
0.0387515
0.009766422
0.014831009
-0.24982809
0.020279441
-0.11174664
-0.115973435
0.06244871
0.084372826
0.27069864
-0.11595255
-0.14391941
0.059652008
0.431393
-0.2952003
0.041233245
0.019423353
-0.29591846
-0.27997044
-0.11687979
0.21626186
0.17245497
0.059037313
0.21095635
-0.007875163
-0.15681641
0.011601679
0.3480648
0.07692962
0.04246176
0.010670627
-0.12509157
0.2767123
0.17594266
-0.0020733718
-0.35466522
-0.18682954
0.45478293
-0.13252816
-0.04967475
0.037204854
0.11280444
0.05488924
-0.16415642
0.0442666
-0.2342154
-0.40699977
-0.1254907
0.01242178
-0.0016541164
-0.12363719
-0.3226064
0.28560093
-0.12872888
-0.119109824
-0.0021623485
-0.09082084
0.25935018
-0.10102358
-0.09103974
-0.15697345
-0.06556133
-0.18656234
0.020163033
-0.05689618
-0.12607864
0.23690133
-0.5048682
0.18734406
-0.4332059
-0.4352754
0.029265875
0.053733084
0.25520813
0.013865732
0.07093664
-0.09600101
0.25213093
-0.07659102
-0.30554327
-0.0036798911
-0.012089325
-0.33506435
-0.4040979
0.09353104
0.062538624
-0.012710194
0.2315316
-0.06606091
0.031886127
0.26107883
0.062703796
0.16585769
0.101098634
-0.24855529
0.08954718
-0.036599394
0.2754818
0.07137248
-0.060387123
-0.044194944
-0.5206219
-0.13444372
-0.066257
-0.12591058
-0.029915776
-0.026451563
0.25997528
0.52267635
0.0008458508
-0.39731067
-0.10850949
0.14770576
0.21616867
0.31998995
-0.33691314
0.1868072
0.123033345
0.56506467
-0.16568269
0.06666417
0.38660765
0.046234883
0.13395531
-0.22858237
-0.1547353
-0.025277674
0.11814895
-0.34562534
0.06006936
0.13365525
-0.06827771
0.14113477
-0.33175325
-0.08361569
-0.2603261
0.22591871
0.054006573
-0.052355453
-0.114214174
-0.056845725
-0.24296112
0.1681259
0.07211179
-0.6472613
0.29304338
0.26821235
0.008655815
0.021180624
-0.014719307
0.17975867
-0.02036999
-0.0003895724
0.4512814
-0.10473263
0.104459725
-0.07934894
0.055831157
-0.16674358
-0.27286986
0.33281946
-0.05925399
0.013767574
0.3150227
-0.022778906
0.2275424
0.040058307
-0.009143254
-0.22658457
-0.26750895
-0.04543058
-0.15484746
-0.0693576
0.21742909
0.0533271
-0.16291231
-0.12242807
0.16697486
-0.054875966
-0.35070148
0.15454228
0.083908185
-0.22427608
0.025857542
-0.14877997
-0.17669292
0.042036653
0.08708756
0.023310296
0.10119949
0.03565143
0.26963782
-0.17095922
-0.16975391
-0.03648185
-0.4453118
0.50653356
-0.03037379
0.19560972
0.15263627
0.17648248
0.0018588516
-0.021310266
-0.3623328
0.30818975
0.06760993
-0.06560876
-0.19293763
0.05547219
-0.4941201
-0.07247128
0.06444526
0.43807247
0.0151277045
-0.11228258
0.0026525827
-0.06896862
-0.0033518884
0.058923464
0.06785283
0.16306138
-0.09183165
-0.10703137
0.6289949
0.03793952
0.18548472
-0.044782683
0.079073966
-0.045453474
-0.43999738
-0.025801236
-0.14834423
0.2579433
0.07890492
-0.09538182
-0.2597849
0.22704494
0.06941723
-0.16537866
-0.050450172
-0.11648769
-0.016412461
0.020565048
-0.32610756
0.33706027
-0.1473481
0.050694384
0.0031264243
0.0051532537
0.26269114
0.025040204
0.37002248
-0.19015259
0.11259131
-0.18022434
0.07131916
-0.53634244
0.006201096
-0.052691184
0.032523032
-0.042736106
0.1246087
0.076979995
-0.005509163
-0.3205689
-0.03998403
0.008083833
-0.1342368
0.031005621
0.044307824
0.20159319
-0.05351986
-0.0038077123
0.041634858
-0.014499148
-0.22635747
0.098866016
-0.07357527
0.27975026
-0.22040796
-0.01536947
0.06194199
-0.21748996
-0.07068435
0.0155508425
-0.029090371
-0.025059626
-0.18310715
0.3443745
-0.30933213
-0.043533746
0.20938365
0.021082977
0.22786532
0.015200282
0.11666038
-0.12887257
-0.16163294
0.05541245
-0.28841808
0.20253801
0.0436188
0.4806936
0.21859856
-0.18760358
0.005770238
0.08604232
0.31687355
-0.025387038
0.0031142693
-0.032981556
0.33453944
0.28602064
0.09270014
-0.004311922
-0.11117441
0.19624569
-0.113121
-0.0023294075
-0.08066321
0.03810743
-0.027099006
0.095444255
0.3395813
0.26485655
0.28217322
0.24384706
-0.19491757
-0.016789148
0.14104705
-0.028634317
0.1900403
0.062714286
0.045491718
0.023024783
0.07454127
0.07307063
-0.2662779
0.14217374
0.16045474
-0.020022696
-0.047654264
-0.12719934
-0.0534721
0.028076619
-0.21919316
0.16442716
-0.16897017
0.060353078
-0.1264481
-0.28875452
-0.1408043
0.04539279
-0.19197315
-0.13932784
0.1306925
-0.06270823
-0.41817814
-0.11087927
-0.1281562
0.16898817
-0.06290308
-0.05665222
-0.14386278
-0.13352624
0.17557244
-0.07898505
-0.25019842
0.004552554
0.046927053
-0.041472934
-0.33359584
0.05412153
0.0706271
-0.16655321
-0.029525368
-0.020623676
-0.17923881
-0.09984311
0.2161138
-0.2234934
0.041720573
-0.086450376
-0.21107657
-0.011960421
-0.077277586
0.004507765
-0.28832084
-0.12789914
0.14123857
-0.16110681
-0.09825197
-0.24190716
0.069857866
0.00047314496
0.05589159
-0.001474388
0.12145979
-0.008626112
0.011174025
-0.054955944
-0.07246658
0.04755996
-0.16459194
-0.09263243
-0.0673127
0.14646092
0.24650368
0.0052390993
0.36276323
0.20423004
-0.09211303
-0.035273932
-0.0045649633
0.24177542
0.26097435
0.10900658
0.09496527
-0.040966913
0.2781288
-0.0683539
0.13410275
-0.026309444
-0.16840324
0.050205994
-0.01437684
-0.010316716
-0.4215881
0.2033489
0.012307705
0.22129938
0.20256856
-0.34582093
0.04787516
0.09296927
-0.004446805
-0.05376768
-0.14492221
-0.11306137
0.44369853
0.041473985
0.05453347
-0.17918053
-0.027358387
0.06962933
0.062880196
0.09556227
-0.040222935
-0.050845873
-0.20754305
0.37733683
0.21886837
-0.059197098
-0.33134574
-0.31598487
0.044926956
0.04907752
0.29427868
-0.04789942
0.10191347
0.020432848
-0.100872315
-0.035460446
0.13495953
0.064718254
0.039636616
-0.30451003
-0.059567377
-0.0282522
0.074797794
-0.19998084
-0.1608775
-0.043791734
-0.18793882
0.21251792
0.16591895
-0.008115494
0.12103721
-0.08488939
-0.54174393
-0.010202944
-0.34721285
-0.17725489
0.05244751
-0.031685013
-0.23478138
-0.5632325
0.11521885
0.077672176
0.071960606
-0.117144525
0.10883193
0.09469268
0.016261566
-0.26524863
-0.21160366
-0.19799675
0.04708081
0.019658547
-0.13581078
-0.30756474
-0.064208105
0.33963645
0.030443829
-0.016738728
-0.11733718
-0.12155364
-0.053521153
0.020001823
-0.080318764
-0.16712788
-0.21738115
0.09543365
-0.03218156
-0.031137783
-0.511719
-0.2804141
0.30519402
-0.17900777
-0.018941961
0.13610138
0.038749557
-0.07734154
0.24343531
0.058848612
0.13893622
-0.27587867
-0.02579155
-0.08000679
-0.2562648
-0.047117718
-0.10315408
-0.45721743
-0.097608574
-0.0032654922
0.22087355
0.04033707
0.29596835
0.5160501
-0.4444929
-0.07192212
0.060576178
0.056429625
-0.009773629
0.09202108
0.2780085
-0.030423757
-0.11499566
-0.31972402
-0.039732356
0.048179395
-0.23278044
0.22851771
0.34126067
-0.023740768
-0.4896428
0.011697361
-0.32982168
-0.14335649
-0.029057804
-0.18303807
-0.24920498
-0.3186383
-0.44581488
0.18248922
-0.14877333
-0.13293642
-0.025844574
-0.17829004
-0.075369716
-0.04752725
0.076593444
0.016558489
0.09753477
0.26328287
-0.112726346
-0.1386416
-0.1706844
0.28294495
-0.13428684
0.07719337
-0.59585184
-0.24555847
0.5668772
-0.2940635
0.11830352
-0.053290688
-0.16892438
0.16134298
0.04331449
-0.053456552
0.3283023
0.010867554
-0.022556217
-0.61299795
0.2752862
-0.13317986
-0.082158215
-0.1621493
-0.10737784
0.03615862
0.32541978
0.12948039
-0.055573992
0.04972164
0.07766061
0.014462001
-0.042993635
0.032544196
-0.19084829
-0.10415547
0.1719566
-0.0010667973
-0.0072544073
-0.19096862
0.061200336
0.08993412
0.24836896
-0.04365825
-0.22124411
0.0057671433
0.09101119
0.016765414
-0.2329198
-0.20375207
0.07707577
0.012656248
0.2073632
-0.03401476
-0.20196497
-0.014498258
0.05117516
-0.074343406
-0.054239146
-0.077971876
0.107317954
-0.2542583
-0.006537053
0.061536126
-0.09338048
0.01104287
-0.080515236
0.0370558
-0.4105558
-0.27322838
0.71415395
-0.52113116
-0.048395745
-0.10265038
-0.12693596
-0.1027194
0.13113461
-0.055946946
-0.020819372
-0.30603537
-0.1819166
0.3634093
-0.35011098
0.07558072
-0.12933554
-0.25116676
-0.043259297
0.049829725
-0.1912447
-0.12673925
0.086865865
0.28358203
-0.25463977
-0.08287351
0.023479752
0.28975937
0.12709245
-0.017255425
-0.19258058
-0.09668574
-0.1122119
0.04547593
0.08899827
0.1771225
0.14341097
0.32444856
0.16442923
0.07220884
-0.022630902
-0.024564276
-0.15130554
0.12924673
0.08608389
0.021061437
-0.28950915
-0.10669713
-0.3702294
-0.15255216
-0.46178633
-0.25135028
-0.3760199
-0.19304827
-0.16253644
-0.044947095
-0.3925417
-0.08786038
0.13018002
-0.16999862
0.07964288
0.10446406
-0.124460526
0.070616625
0.18689348
-0.08270149
-0.51705074
-0.07855658
0.33082214
-0.2851838
0.21194303
-0.04158044
-0.11336834
0.06663293
-0.13700595
0.061009847
0.3063484
-0.1732522
0.17783153
-0.47536454
-0.031751655
-0.5214588
-0.007312754
-0.017770424
-0.29698816
0.03118883
-0.029942734
-0.116295286
0.2596702
-0.3055355
-0.020204602
0.19404322
-0.2519055
0.06580215
-0.20772092
-0.06278002
0.19399182
0.09934701
-0.34782153
-0.5859835
-0.10218635
-0.18600716
0.22645137
-0.08496331
-0.11152293
-0.14748718
0.46058926
0.10996097
-0.34111446
-0.13710521
0.13513945
-0.1066722
0.07403319
0.0052489564
-0.24920179
-0.10962288
-0.030939778
-0.026955126
-0.049221657
-0.022810701
0.04720705
-0.25415248
0.21762659
0.088366956
0.033003006
0.22217083
-0.040085606
-0.085956834
-0.62771267
-0.14054668
-0.044372443
-0.15673089
0.3020641
-0.22104092
0.036560513
-0.047532994
0.1033625
-0.010207119
-0.28604206
-0.10984934
0.041440874
0.08589019
-0.09479918
0.18934906
0.12267726
-0.102585286
0.0705367
0.0010544164
-0.21492495
-0.46905276
0.11650195
0.25053594
-0.277166
0.17440464
-0.015070744
0.31910378
0.10706955
-0.16447666
-0.009497572
-0.025515294
-0.03134016
-0.15491809
-0.3074389
-0.05718817
-0.047545362
0.22631091
0.24987079
-0.07242299
-0.4187344
-0.053193524
-0.14020336
0.018286863
0.094193175
-0.15143451
-0.04619408
0.19421577
-0.09170785
-0.21529627
-0.4374791
-0.041702766
-0.45781416
-0.062722184
-0.07834421
-0.16981123
-0.13639657
0.0746614
-0.10079876
0.2673835
-0.16852881
0.11419217
-0.8562327
0.09415338
0.19922844
-0.23105158
-0.26533833
-0.25946593
0.072927825
0.11622937
-0.028740488
0.042830117
0.103556
-0.2075574
-0.033525854
0.06811551
0.20200619
-0.2209538
0.15029249
-0.51386565
0.21150512
-0.4603457
-0.006232755
-0.24258304
0.015831353
-0.009488471
-0.018593857
0.0032089022
0.09029913
-0.3442838
0.068585046
-0.29095298
-0.30921128
-0.02472423
-0.3036595
-0.08128831
-0.052393403
0.016279958
-0.38394788
-0.077273875
-0.10918785
-0.09280881
-0.00018302143
-0.046816893
0.04669641
-0.1641984
0.052580934
0.20626447
-0.38284424
-0.12824798
-0.051164113
-0.44828293
0.15742785
0.11645896
-0.33842084
-0.4647236
-0.4511253
-0.048382506
-0.12083178
-0.14217485
0.3549893
-0.05613351
0.061927423
0.04434474
-0.11814405
0.13560814
0.025665822
-0.22287184
-0.44785163
-0.13892831
-0.30825257
-0.021230502
0.1591666
-0.18604209
-0.080351986
-0.23062724
0.09920001
-0.08656465
0.09561262
-0.08827681
-0.09898055
-0.14465937
-0.07606805
-0.070963815
0.45529807
-0.015234282
0.1436607
-0.024134666
-0.092640616
-0.20431781
-0.39878717
0.070659995
-0.38190505
0.1320142
0.06941636
0.17049369
0.15391053
-0.016547134
-0.007391582
-0.012933495
0.21631709
0.38878304
-0.602758
0.11600918
-0.40256083
0.04013518
0.15800916
-0.065344
-0.27747595
0.070583284
-0.124423176
0.13916367
0.4621217
0.21190555
-0.046924345
0.106415704
0.41535798
0.033188194
-0.5157453
-0.05574359
0.17798723
-0.19285423
0.007916871
0.06851564
0.20056258
-0.16286863
-0.059495024
-0.05067216
-0.2938925
-0.02902283
-0.253481
0.16031137
0.14484276
0.020379568
-0.40578425
-0.4644388
0.05657736
0.19249725
0.2861973
0.05105769
0.50908154
-0.35323712
-0.06594956
-0.01326441
0.23944785
-0.520834
0.43447548
-0.4361392
-0.1134874
-0.4219732
0.017543787
-0.44836515
0.37855843
-0.026311863
-0.038677014
-0.011038522
-0.21754327
-0.21039596
0.054523792
0.07112146
-0.073458046
-0.021215662
-0.29485023
-0.19985011
-0.13720986
-0.20486525
-0.33422282
-0.08420569
-0.123466246
-0.06011028
-0.01097234
0.16452076
0.070720196
0.05586933
0.13276972
0.15793607
-0.76738495
0.008532508
-0.067419566
-0.533813
0.35475743
0.078689225
-0.35247862
-0.13213012
-0.37429813
0.014384185
-0.123264134
-0.051177736
0.29162556
-0.10700922
0.005737728
0.012911242
-0.35871282
0.31143764
-0.043532915
-0.05602416
-0.60202736
-0.19361043
-0.4017738
-0.048004825
0.050539892
-0.11965906
-0.11003347
-0.026487092
0.22567971
0.025031079
-0.06916922
0.08977786
-0.083075926
-0.116117835
-0.11436232
-0.09491492
0.18106213
-0.12639192
0.019071795
-0.32599762
0.019564062
-0.45627472
-0.45051813
-0.0036363741
-0.35485208
0.048452027
-0.02244056
0.118179984
0.048387874
0.0489812
0.10658454
-0.037388824
0.3768229
0.3615302
-0.6869706
0.17406312
-0.30685964
0.06446697
0.03881005
0.046668846
-0.29087844
0.027622782
-0.12654799
-0.021083513
0.45804617
0.08532239
-0.2753769
0.02817518
0.29652363
0.1462348
-0.2252295
-0.10316283
0.53853405
-0.11218276
0.1583168
-0.16428293
0.029779764
-0.06978107
-0.15016837
0.12172611
0.088273905
-0.039352313
-0.13212296
-0.07036111
0.13063401
-0.10707576
-0.48561257
-0.29772934
0.09736715
0.051509935
0.17734055
0.07282341
0.45735964
-0.52644974
-0.11135775
0.035589762
0.20256983
-0.06214762
0.2912707
-0.5212183
-0.008535056
-0.3348688
-0.017318597
-0.7339708
0.041104477
-0.07718179
0.20019305
0.06107645
0.16293259
-0.21636446
-0.30694366
0.11574937
0.24773647
0.020878345
-0.33880162
-0.20353945
-0.27263662
0.040708467
-0.31351507
-0.10459121
-0.12537874
-4.3661566e-07
0.13649352
-0.139731
-0.026494905
0.19936068
0.0933763
0.05773717
-0.21367846
-0.354711
0.28881818
-0.72732806
0.16868547
-0.082237706
-0.14472455
-0.033531226
0.002477585
0.04579166
-0.14320265
-0.00052524515
-0.08247983
-0.28528687
0.13392758
0.20640498
-0.19844927
0.20842956
0.018536644
0.03158504
-0.56770575
0.037479695
-0.103504956
-0.010815153
0.17436738
-0.18046273
-0.12693688
-0.39000222
-0.105032355
-0.0077416254
-0.25867262
0.14717653
0.0947575
-0.019740604
-0.17326348
-0.13790976
-0.06492192
0.17781073
0.03867629
-0.10174747
0.103089474
-0.2205149
-0.25733384
-0.10041128
-0.24913526
-0.02807843
0.05091714
-0.056218598
0.16477837
0.15401392
-0.02517289
-0.115120605
0.18581194
-0.014316498
-0.4903471
-0.18494856
-0.051904175
0.07349478
0.08389982
0.06476703
-0.26574448
-0.22492419
-0.22799368
-0.14412104
0.24515119
-0.22837226
-0.16668965
0.120926395
-0.07594332
-0.05882896
-0.24472664
-0.2014162
0.49040976
0.20137702
0.10424368
-0.19700122
0.114158235
0.1235588
-0.17374921
0.13961905
0.06459502
0.11500046
0.08832523
-0.13116127
-0.034293316
-0.06952877
-0.23743622
-0.113139905
-0.03186495
-0.1437993
0.08498645
-0.040967975
0.3218628
-0.49517697
-0.30369112
0.068112105
0.068864256
0.011500463
0.114893794
-0.4937178
0.08543664
-0.1639535
0.03025462
-0.720275
-0.073622935
-0.038810685
0.15732986
0.16339332
0.4059549
-0.06988424
-0.36767098
-0.19046007
0.028945075
-0.07997588
-0.16557804
-0.17207573
-0.010377195
0.0023202861
-0.047582235
0.03902151
-0.07581397
0.20250914
0.128456
-0.20076735
-0.00025907962
0.19815142
-0.04821199
0.086770475
0.02234343
-0.4677845
0.20993088
-0.357471
0.061354797
-0.10152282
-0.13554172
0.074740954
0.040663455
0.008139677
-0.08651135
0.13051446
-0.2145295
-0.2361981
0.09327365
0.17334315
-0.10985076
-0.023661258
-0.057614285
-0.14340322
-0.38406196
-0.0274459
-0.05414467
0.18495509
0.111301996
-0.18995717
-0.13282783
0.04487387
-0.40217775
-0.029684788
-0.06682095
0.11601725
0.072347105
0.02374736
-0.09682955
-0.25026622
0.053875674
0.30698076
0.13931856
0.07047759
0.18797186
0.042642426
-0.14479363
-0.19478408
0.20928858
-0.014291398
-0.06263148
0.09699318
0.08568458
0.23884194
0.06273775
-0.044568468
0.07170299
0.13579424
-0.027038027
0.026603304
-0.06927439
-0.0494949
-0.018862559
0.032760892
0.0021890758
-0.2881498
-0.3838504
-0.21893407
0.038447578
-0.2157746
0.03525984
-0.0064761904
0.08104305
0.013313842
0.16104327
-0.095565245
0.27729917
0.40185624
0.066803314
0.12324361
0.1278156
0.37434462
-0.25755462
0.08713382
0.07242915
-0.04111151
0.17245086
-0.0048415796
-0.1284823
-0.08173092
-0.17026737
0.003439603
-0.024689466
-0.18568231
0.08088691
-0.06715157
0.14405389
-0.35480225
-0.21904677
-0.032640267
-0.2548657
0.17567156
0.032444913
-0.80694264
-0.03589523
-0.021317134
0.028841164
-0.39715588
-0.187941
0.05403339
0.15580599
0.13545038
0.20851
0.0729841
-0.24181545
-0.04904653
0.12632152
-0.061407823
-0.15294574
-0.26635113
0.089789696
-0.008206763
0.002155403
0.108512506
-0.039623044
-0.056462064
0.09084259
0.04860151
0.109396145
0.07130371
-0.012706986
0.0068326457
-0.10327296
-0.27894825
0.029828755
-0.026528511
-0.3024813
-0.031713016
-0.05662254
0.016091274
-0.14076336
0.070340775
-0.10432074
0.073906235
-0.015355878
0.030050766
0.12493622
0.15105544
-0.11884221
-0.1229929
0.008047371
-0.18360178
-0.28580222
-0.27554992
-0.0011882324
0.091160044
0.17662868
0.001190765
-0.049900584
-0.18599088
-0.032773253
-0.0153373815
-0.20546252
0.02019202
-0.058081727
0.17356545
-0.14531846
0.0065862816
0.15451384
0.21537142
0.0024673913
0.11161091
0.033219114
-0.097109504
0.17217211
-0.22775394
0.03532701
-0.05715923
0.047289014
0.082123764
-0.07292889
-0.049515873
0.17261755
-0.0067080855
0.08007648
0.08888253
-0.080410495
-0.16339712
-0.09195442
0.0003775308
-0.3578828
0.063175194
0.004750874
-0.3214313
-0.07051516
0.02235074
0.17333877
0.057946853
-0.06311396
-0.011168841
0.17708541
-0.12494262
-0.057849623
0.06738112
0.12449464
0.41684097
0.15904143
0.06737755
0.13426636
0.10132504
-0.38352478
-0.04973286
-0.03895427
-0.102114074
-0.17632438
0.15263014
0.090844125
0.042484194
0.1086803
-0.10401888
0.03983628
-0.21588863
-0.09348741
0.016579285
0.1517378
-0.12699094
-0.054531977
-0.029303925
-0.061181575
-0.0830479
-0.015701074
-0.16062316
0.050537698
0.07650573
-0.0025398226
-0.03614016
-0.09480966
-0.0040065804
0.049178723
0.081937775
-0.00017803028
-0.010915715
-0.17757615
0.12976013
0.15779805
-0.008816312
-0.17593676
-0.121133775
-0.091619164
0.023655549
-0.114277184
-0.1318844
0.027103383
0.0008583587
0.1429805
0.07801084
0.036109846
-0.050433874
0.04375568
-0.12720181
0.101286456
