0.24152735
0.39040446
0.11430296
0.29641888
0.06759664
-0.013110685
0.17309138
0.6841995
0.3419928
0.03339589
0.5137452
0.7404794
0.24026877
0.81561893
-0.08599563
0.4104819
0.24372649
0.36132193
0.035809692
-0.16880696
0.31311515
0.54009336
-0.2175212
-0.013824692
0.6768648
0.049154676
-0.018299922
0.16585064
0.008479261
0.36804816
0.14934444
0.06103429
-0.19475035
0.5314494
0.025125606
-0.13907355
0.7000997
0.26889205
0.15649037
0.384591
0.15242901
0.097486384
0.051608592
0.3251631
0.17842971
0.30860096
0.669892
0.39520642
-0.12610878
0.2533753
0.13900448
-0.031213235
0.05876035
0.33277032
0.06116639
0.084630534
-0.016864235
-0.29023585
0.32550538
-0.2287095
0.07282444
0.10052831
0.35456604
0.054332342
0.33781475
0.5497451
0.42174762
-0.0068947314
0.26923206
0.5239494
0.293096
0.01380346
0.102307566
-0.22695155
-0.020343982
-0.14449948
0.025976839
0.10840629
0.08067478
0.32922944
0.06638117
0.064256184
0.030291244
0.13859244
-0.22426963
-0.015936619
0.67201346
0.45511645
-0.038588952
0.2542475
-0.07984221
0.3288229
-0.028826956
-0.00863702
0.5193584
0.5069516
0.25441164
0.4741879
0.2702581
-0.5938702
0.44222134
0.45450482
0.41338694
-0.016135622
0.3554637
0.17656568
-0.06559848
-0.49718985
0.47273538
0.13835329
0.33328182
0.7152327
0.24870233
0.46601474
0.32155794
0.46922624
-0.3979766
0.14101756
0.6591701
-0.042167783
-0.036413286
-0.11416616
-0.49538234
0.31356725
0.46322343
0.3018037
0.31599477
-0.03288738
0.04366281
-0.2907192
0.03159269
-0.011421612
-0.10676421
-0.021346021
-0.029832391
0.34908345
-0.30335504
0.032680236
0.32989067
0.16659744
-0.07216693
-0.010457434
-0.07200268
0.30485356
-0.36957598
-0.19192079
0.06685105
0.26620093
-0.044457257
0.05442248
0.021342536
-0.064157516
-0.02451404
-0.049709197
0.051467545
0.0035380532
0.059326563
0.044942416
0.079108715
0.04400995
0.026956711
0.05714104
-0.05238359
0.42310655
0.15323442
-0.17598838
0.022813216
-0.0649038
-0.011454274
-0.011395536
-0.32877252
0.014451313
-0.021891478
-0.2929515
0.34402922
0.09472231
0.28372484
-0.056610033
-0.008775006
0.0123412935
-0.063923635
0.004991107
0.1680505
-0.0694273
0.024803244
-0.22526166
0.076204196
-0.05331394
-0.057814617
0.10630715
-0.12527461
0.02948312
0.051513348
0.07069023
0.072016254
0.049728326
0.034212165
0.2758188
-0.0026171354
0.046286296
0.10576472
-0.20347577
0.026283506
0.07835296
0.18063374
-0.22460268
0.26232275
-0.1665304
-0.03248774
-0.08029322
0.04294314
0.052225895
0.17494458
-0.028007485
0.12732705
0.17460588
0.009701348
-0.08267712
-0.324805
0.33984697
-0.06733434
0.07552204
-0.07040572
-0.3000569
0.014875906
0.0103409495
-0.121766366
-0.27550086
0.09162527
-0.037573002
-0.15421245
-0.15877008
0.021914402
-0.06827262
0.24414708
-0.0064088157
0.021023389
-0.074673064
0.25128794
0.025453134
0.18006296
-0.0071426425
-0.07769965
0.05999511
-0.19459307
0.057515018
0.060252793
-0.23014648
0.009995763
0.14809996
0.04808054
0.13461483
0.23068386
-0.091712944
-0.008704752
-0.047242016
0.102342
0.1275017
0.04383883
-0.18621176
-0.17467973
0.03711451
0.030421048
0.0896369
-0.27284884
0.13115992
0.017658005
0.0626087
0.07391788
0.02320881
0.20970446
0.2831698
0.17229973
0.39231026
0.13641131
0.047767825
-0.16091558
0.030430434
0.20209971
0.034008354
-0.1910683
0.16532353
-0.049804516
0.035820004
-0.15534012
-0.05802052
0.17484869
-0.04020927
-0.04982743
-0.03330764
-0.20889387
0.1431524
0.210342
-0.14414237
0.02898718
0.020218808
-0.19702154
-0.085809335
0.0034479976
0.22286656
-0.07238616
0.039332993
-0.012804953
-0.038623564
-0.048861798
-0.12370659
0.2667975
0.12989847
-0.014662811
0.07878744
0.32999432
0.037887573
0.053142793
-0.115530185
0.04195306
-0.39288768
0.09607468
0.07085199
-0.1954362
-0.11925872
-0.16362521
-0.16366063
0.0305956
0.055336855
-0.011778525
0.20510545
-0.021631934
-0.38012168
-0.067088395
0.009073284
0.065578416
-0.09319749
0.26410723
0.066828206
-0.03256839
0.261292
-0.02099988
-0.148975
0.19606864
0.08123824
-0.013886172
0.073623516
-0.04540538
0.16912225
-0.002925511
0.010340473
-0.05016052
-0.3135241
0.07040206
-0.07691215
0.05937791
-0.17678964
0.19140886
0.22486089
0.05306166
-0.02713242
-0.38931376
-0.28077647
0.08617939
-0.037332244
0.0504379
-0.1414092
0.14300413
-0.02396054
0.010306381
0.08779883
0.21323137
0.10895183
0.38456976
0.017564798
-0.024849094
0.078993976
0.33465853
-0.07102708
-0.05943524
-0.017830985
0.07576209
0.12662317
-0.10156741
0.065370575
0.119486235
-0.059080333
0.031796344
-0.051814944
-0.06798411
0.17772193
0.0040121796
-0.21279237
0.34063092
0.06267184
-0.009246494
0.08045979
-0.4235811
0.18084252
0.30010056
0.0024344993
-0.0031451453
-0.10771032
0.274545
0.10698026
0.1708947
0.46412912
0.10902489
0.014832147
-0.21833313
-0.0384099
-0.18190552
0.056316517
-0.18095286
0.40027034
-0.060162824
-0.18423983
-0.076584995
-0.3191561
0.22752234
-0.3294099
-0.18054333
0.42004928
-0.1716866
0.021981241
0.14267041
0.405853
0.04510602
0.06487004
-0.3192002
0.022272607
-0.28353205
0.27034858
-0.02788807
0.0775074
0.004495479
-0.21944074
-0.29088148
-0.2158489
-0.12933823
0.18340564
-0.07650567
-0.18928954
0.39815113
0.038855862
0.043019824
-0.018662065
0.045603976
-0.14692044
-0.13096628
0.23001903
-0.27393374
-0.28927872
-0.27229658
-0.059873175
0.02811748
-0.060689926
-0.071229145
0.018150872
0.48932636
-0.12421339
-0.12731518
-0.45934367
0.2563643
0.15952371
0.034187675
0.16344535
-0.21782026
0.4689516
0.103798434
-0.040329523
0.22442277
0.0529951
-0.31038758
0.041643538
-0.08434762
-0.26612058
0.101065286
0.16971445
-0.35100773
0.076214775
-0.09737331
-0.069944
0.23395538
-0.0048705814
-0.013506043
0.11710254
0.14435902
-0.27437326
-0.11407853
-0.10860639
-0.1228796
-0.19919017
-0.4665907
0.11489516
0.31872764
-0.053951975
0.2865245
0.11965807
-0.07276461
-0.35857448
0.23518832
0.20609978
-0.029834488
-0.103621386
0.13894404
-0.030196156
-0.0757106
-0.257347
0.30804998
-0.004406567
-0.284709
-0.014453585
0.07722727
-0.27526784
-0.24645934
0.010728368
-0.20008501
0.08879136
0.25877875
-0.21637723
-0.0063450253
-0.08061487
0.004425462
-0.1457663
-0.11769634
0.26577866
0.40568268
0.063819334
-0.016982371
-0.08188448
0.18232939
-0.096382305
0.0435521
-0.03650423
-0.4292563
0.19005625
-0.10649946
0.36197945
0.09849655
-0.031004846
-0.15495369
0.10317356
-0.033106938
0.29753375
-0.12253044
-0.06454599
0.059573166
-0.26737556
-0.31215355
0.13091023
-0.30762687
0.27992514
-0.33238733
0.19768079
0.005657248
-0.0062621688
-0.24543929
0.016953405
0.11684202
0.16975312
-0.007017661
-0.16555388
0.21617836
-0.16864492
0.01945603
-0.20071924
-0.25200474
0.07497681
-0.14144981
-0.021420628
0.3375895
0.05251734
-0.066317506
-0.123932146
-0.09733431
-0.2619892
-0.20433775
-0.017161636
-0.1176218
-0.30331492
-0.1842142
0.2740669
-0.0041611306
-0.025803402
-0.18593167
0.34184
0.2915486
0.16886604
-0.24829552
0.10646759
-0.21979623
0.18784179
0.061111335
0.031094769
0.2316237
-0.057847783
-0.02448097
0.17356011
0.41861472
0.18991272
-0.011160095
-0.06773719
-0.33631563
0.16041829
0.18575798
0.22173543
0.13384353
-0.1736516
0.0039201276
0.009762101
0.054820083
-0.08600083
0.120045274
0.001225931
0.19783051
0.16207795
0.07237039
0.19703351
-0.095800355
-0.14048085
0.06328857
0.03272449
-0.06119889
-0.14467216
0.08033224
0.012593965
-0.15406843
-0.24323614
-0.26568958
0.2547918
-0.011500259
0.04896955
0.12627313
0.02994159
0.050803106
-0.019408477
0.1176605
0.13781881
0.13002263
-0.11855323
-0.39573312
-0.3748712
-0.23662284
-0.042611975
-0.2581379
-0.054747786
0.11870756
-0.5051662
0.27085504
-0.061971262
-0.20528495
0.059845746
0.032647897
-0.15348141
0.26465997
0.11836012
0.035163965
0.15465789
0.13461974
-0.33832216
-0.73809606
-0.089911185
-0.03172553
0.50042063
0.05154283
0.10648494
0.03138188
-0.025733996
-0.07148974
0.042913593
-0.014904723
-0.052366164
-0.04679327
0.0133996755
0.34041953
0.39803627
-0.005002136
0.51069015
-0.22885284
0.05395295
0.22061479
0.31002474
0.057054203
0.21517117
0.046912927
0.3200668
-0.38206342
-0.26596767
0.043442138
-0.471785
0.22056657
-0.14318465
0.27143902
-0.40554583
-0.084963046
-0.31327084
-0.14134745
-0.034291834
0.23441036
0.0423508
-0.03208864
-0.32711777
0.19696054
-0.18036748
-0.078862764
-0.05591863
-0.6700028
-0.42526263
-0.34246176
-0.25043023
0.32591903
0.06951744
-0.20559141
0.25275558
-0.42067367
-0.05212074
0.1851275
0.1632089
-0.388603
0.3392163
0.18931635
-0.21784374
0.20955803
-0.29311785
-0.01936469
0.098690696
0.046157345
0.18946825
-0.088624515
-0.034026124
-0.02411442
-0.44815016
0.11606825
-0.39813104
-0.3070717
-0.39271978
-0.021731459
0.028628292
-0.22755536
-0.1801246
-0.15000379
0.19180536
0.036423497
-0.13516644
0.007934214
-0.11977247
0.023541583
-0.4545025
-0.5054476
-0.05472144
0.056041785
0.12516041
0.25231552
0.16619252
0.42066035
0.0055907727
0.101481855
0.16018589
0.015301681
0.27503642
-0.1474249
0.121465646
0.27549547
-0.2722244
0.21843852
-0.37643254
0.104805976
0.64583206
-0.18905415
-0.47699386
0.036342066
-0.025656473
-0.06537182
-0.47546643
-0.0047808047
-0.23119587
0.09024853
0.016967349
-0.3642739
-0.0015431502
0.056002628
-0.316809
0.42900008
0.24003205
0.4047616
0.1445239
0.03830864
-0.25856945
-0.7416065
0.024956696
-0.11709461
0.3847521
-0.18027425
0.336086
-0.07957367
-0.041902594
0.034168147
-0.09829504
-0.008906335
0.16814418
0.010653288
-0.112072155
0.27336138
0.070332006
-0.121247955
0.6275655
-0.3479994
0.35243696
0.47260368
0.031439062
-0.010649096
-0.11352816
0.451568
0.17227073
0.09256161
-0.017468736
-0.05837268
-0.5051859
0.23863944
0.09912241
0.2176186
-0.19366007
-0.29910165
-0.33873862
-0.13881625
-0.06728065
0.050757535
0.1636737
-0.008303985
-0.5308467
0.18653217
-0.26640075
-0.15412968
0.25490493
-0.2465171
-0.3776294
-0.08909657
-0.35392192
0.47760937
-0.04225362
0.027705854
0.26243034
0.10912785
-0.042426728
0.120908305
0.25458616
-0.4700955
0.15817426
0.16091166
-0.42337847
0.11840945
-0.4075538
-0.36674687
0.01357429
-0.23923188
0.19564937
-0.19873925
0.018153712
-0.2601086
-0.18560304
0.12827715
-0.6697221
-0.36526632
-0.5605145
-0.06923534
-0.00018003734
-0.21686435
-0.04852822
0.041265786
0.2740358
0.24039194
-0.35960642
0.18568037
-0.26091334
-0.20747997
-0.3418948
-0.1499445
-0.15132643
0.41096193
0.024499124
0.3989832
0.14770465
0.63571566
-0.06836282
0.06145303
0.076687366
0.12716824
0.1842326
-0.44543394
0.053339668
0.35883167
-0.17962946
0.20243824
-0.499163
0.12233672
0.2780786
-0.04168367
-0.36835757
0.24038291
0.05702993
-0.078780614
-0.6905798
-0.047920104
0.07315344
-0.71189797
0.036485277
-0.30972603
0.11553447
-0.18407725
-0.37849525
0.30478126
0.10945349
0.33395913
0.049020085
-0.10805978
-0.19103011
-0.2856292
0.21012004
-0.14199153
-0.102723144
0.47113484
0.3369326
0.32139456
-0.030829111
-0.104912855
-0.5952738
0.021546692
0.5174062
-0.058428194
0.15201539
0.3508654
0.4757074
-0.22338438
0.3546559
0.144139
0.5612359
0.109450504
-0.49804547
-0.0069259675
-0.1336909
-0.011781613
-0.09890836
0.23918416
-0.5245941
0.0058761537
-1.0641769
-0.305205
0.105944075
0.4009514
-0.15298906
-0.2644066
-0.36886472
-0.6670606
-0.058035947
0.32520998
0.124860264
-0.059251584
-0.48923483
0.22027387
-0.514226
-0.23474255
0.49232173
0.15419334
-0.26999885
-0.03875909
-0.00508712
0.6435153
-0.003750968
-0.023060385
0.36976993
0.5244774
-0.1544494
0.15168211
0.8604189
-0.13882178
0.032731008
0.064815484
-0.6755299
0.25216997
-0.60302025
-0.5278142
-0.04686988
-0.012166575
0.16254649
0.036047403
-0.014175244
-0.049816415
0.02184161
0.06351886
-0.077462785
-0.25964594
-0.6889074
-0.0057392013
-0.05626505
-0.055274922
-0.23444909
0.2045364
-0.195329
0.0968538
0.15846753
0.13806999
-0.04828058
0.050899033
0.034326416
0.18538438
0.22790998
0.11470827
-0.15627578
-0.40139544
0.08364217
1.0733079
-0.000893008
0.11504646
-0.3099767
-0.11620531
0.22970733
-0.36094663
0.118493445
0.2703827
0.2154574
-0.17936313
0.022250926
0.3175754
0.31040552
-0.30076778
-0.5712726
0.31097072
-0.08024466
-0.2661673
-0.7001721
-0.15036592
0.1971909
-0.17070125
0.07831942
-0.24143812
0.48578498
0.030478448
-0.06336011
0.70377964
0.015458631
0.06661157
0.20097914
-0.08256059
0.21082464
-0.0014373024
0.2973166
-0.6971129
-0.009812984
0.37953624
0.1454874
0.67104733
-0.06279944
0.43214086
-0.15605792
0.05212558
0.18307482
-0.19199383
0.47508463
0.31537864
0.33831447
-0.5434652
0.4283481
-0.043631867
0.65224767
0.07390298
-0.3170286
0.0068887635
-0.107624486
-0.45265865
-0.21343769
0.36569476
-0.031915978
0.07464785
-0.70998245
-0.3170248
0.14890641
0.100872174
-0.69348884
-0.28306118
-0.4544109
-0.58114064
0.16725418
0.12821236
0.14168625
-0.017827496
-0.2656882
0.31018665
-0.45276567
-0.29318672
0.45597908
0.2850958
-0.45256576
-0.53387606
0.2294367
0.54952884
-0.025341589
-0.3746089
0.27145347
0.5584549
-0.024996297
-0.51373297
0.3436314
-0.011205579
0.10477162
0.09675011
-0.42905536
0.1217364
-0.051878907
-0.18950999
-0.090694696
-0.12620024
0.39896318
0.06423414
0.014799021
-0.081191674
0.2298254
0.16546573
-0.0064331177
-0.11107829
0.3448073
-0.13856916
0.06920527
0.23971891
0.076352194
-0.12411148
-0.22933227
-0.13710317
0.020677667
0.027528545
-0.07808381
0.35445082
-0.13669966
0.63470346
0.46314988
-0.029881708
-0.34759367
-0.6908751
0.067741856
0.9242292
-0.034229483
0.09584302
-0.098659076
-0.14272474
0.20153493
-0.35029644
-0.030518994
-0.5069499
0.2882994
-0.092005625
0.04419953
0.27635682
0.27513236
-0.091387115
-0.78317803
0.51934654
-0.018914748
0.0398556
-0.17479336
-0.07991636
0.03630757
0.44428188
-0.031802703
0.13454409
0.2538613
0.11573175
0.026351012
0.48559463
-0.075343475
-0.037402797
0.08328609
-0.09021699
0.0179773
0.12102812
0.46608984
-0.7708046
-0.219257
-0.090482794
0.12230184
0.14856453
0.058732055
0.14068206
0.62231135
0.041392565
0.24747008
-0.30783844
-0.047141023
0.37324128
-0.15398568
-0.6827846
0.0093258135
0.37729114
-0.08397603
-0.30222434
0.2890028
0.13863267
-0.033104707
-0.5302227
-0.24012592
0.4191872
0.1989471
-0.045752157
-0.1642636
-0.005744048
0.16671842
-0.1823717
-0.6740796
-0.2191753
-0.62312424
-0.19823371
0.12570035
-0.26680306
0.016662601
0.01531665
-0.30251056
0.21795635
-0.5321978
-0.1515448
-0.11485676
0.15886095
-0.47032356
-0.44444668
0.39708906
0.16405861
0.03722481
-0.09904676
-0.26325402
-0.05786954
-0.060065914
-0.39795327
-0.26196253
0.15588072
-0.06602511
0.112040915
-0.09410486
-0.11913725
0.286944
0.13733502
-0.4076966
-0.17842415
0.5005185
-0.049505457
-0.011455722
-0.05451597
-0.15248069
0.04627018
0.35942674
0.05567084
0.4852852
-0.24320436
0.08340982
0.54727477
-0.07394297
-0.035407033
0.06154389
0.03346412
-0.1717307
-0.19887316
-0.4039236
0.18864943
-0.2743934
0.41666734
-0.14526972
-0.07754846
-0.114799194
-0.14660215
-0.0024532513
-0.2903483
-0.03359664
0.25796214
-0.17468835
0.030944763
-0.05848011
-0.06915857
-0.100672595
-0.5970722
-0.047344886
0.15325567
-0.114497595
0.31596115
0.23457128
-0.09925635
-0.83062524
0.079666585
0.075320005
0.3066844
0.07617741
0.034993835
-0.34392923
0.21622293
-0.03499608
0.20332561
0.42012656
0.08001852
0.18254857
0.323094
0.32524386
-0.24121913
0.24527301
-0.2363856
0.0876846
0.06117446
0.22762166
-0.68080205
-0.25361532
-0.27621168
0.09395673
-0.070804715
0.02162809
-0.29765016
0.41498074
0.06612014
0.28107584
-0.28742647
0.0687787
0.33401042
0.11008411
-0.79177547
-0.46628666
0.4318836
-0.10423003
0.09966336
0.37161165
-0.097461216
-0.19209954
-0.8783287
-0.20275001
0.22247082
0.44928795
-0.05115463
0.34860903
0.071441375
-0.0718433
-0.2568065
-0.54954416
-0.33385083
-0.7997537
-0.043501053
-0.030242795
-0.013179981
-0.23308074
-0.02743484
-0.17320073
-0.17795764
-0.51240575
-0.04252259
0.020665348
-0.61355543
-0.30745462
-0.5454057
0.18448065
0.09766594
0.075744756
0.01180868
0.1847251
-0.07244312
-0.15023889
-0.6376899
-0.10229283
-0.14608674
-0.025446134
0.061973225
-0.1497369
-0.26371732
0.031953365
0.27242574
-0.4206716
-0.08092533
0.40748277
-0.1247228
-0.031192038
-0.047521334
-0.1685392
0.12714447
-0.1115967
-0.22846624
0.538575
0.03213709
0.04164514
0.14732163
-0.12226312
-0.058088705
0.21526796
-0.07358481
-0.39616707
-0.033756483
-0.36738876
-0.027466979
-0.17688467
-0.066645406
-0.4944783
0.36869505
-0.3803424
-0.064567536
0.47789475
-0.31011063
0.32066727
0.21538739
-0.012899032
-0.078845985
-0.2816263
-0.35473084
-0.06884644
-0.66027075
0.102207065
0.047214393
-0.37731296
-0.0927466
0.04418449
0.2487345
-0.7935118
0.043367654
0.033937678
0.13889909
0.09003811
-0.013804769
-0.103445925
-0.1686813
0.014908773
0.24782695
0.69496465
0.26412946
-0.2724364
0.37237364
0.11811656
-0.078392975
0.28311387
-0.34698832
-0.20207892
0.05403822
0.11757187
-0.7929055
-0.32843992
0.16594277
-0.24651593
0.2727066
-0.017065063
-0.1310194
-0.052511424
-0.031245492
0.120259084
-0.28155008
0.43483457
0.5658685
0.4416487
-0.549349
-0.9104445
0.066990465
0.70488656
0.69917965
0.041351393
0.1305853
0.06579235
-1.3454254
-0.48663086
-0.62026525
-0.15095463
-0.043927025
0.052138582
-0.2722956
-0.10169958
0.15725079
-0.78872424
-0.6547729
-0.6112219
-0.0035607705
0.2325467
0.15661688
0.31693882
-0.019281328
-0.4672522
-0.4763314
-0.5105356
0.016914709
0.45189872
-0.79806954
-0.15165336
-0.8950194
-0.07364024
0.075673655
0.041903596
0.2096684
0.22312212
0.03168486
-0.14613494
-1.1826619
-0.10154974
-0.09728615
-0.20037436
0.14852609
-0.32303458
0.3271075
0.2023295
0.3008664
-0.14119409
-0.12777433
0.3942582
-0.008665932
-0.03872604
0.36682948
-0.20799254
0.009590121
0.036067743
-0.81166655
0.41752982
-0.17826575
-0.017192421
0.040435214
0.023083283
0.40503645
0.14747706
-0.12323185
-0.19038954
0.2585046
-0.02928405
0.17506891
-0.102949016
0.1332953
-0.5979257
0.42400512
-0.13833089
-0.021529285
0.95817983
-0.17932838
0.44688827
0.23747055
-0.1432227
-0.14043416
-0.10547854
-0.18105349
-0.12631129
-0.21102192
-0.42934042
0.0750398
0.04250905
-0.17493764
0.043232035
0.5385871
-0.58119917
0.11090003
-0.02068326
-0.03499893
0.32087412
0.17260729
0.10681749
-0.2488737
0.06769517
0.07743419
0.26657817
0.11682043
-0.07440241
0.060251847
-0.033712707
-0.0019040927
-0.101233244
-0.10139794
-0.29195255
0.2312366
0.29851785
-0.139167
0.093142495
-0.09917818
-0.089837514
0.19805752
-0.033533
-0.082439706
-0.3605329
-0.018377729
0.096171126
-0.2531517
0.26586428
-0.002237255
0.35124156
-0.14018877
0.10096038
0.044108897
0.34004647
0.37940097
-0.15731408
0.21189873
-0.03202048
-0.018445373
-0.3093725
-0.6236114
-0.122444525
-0.016573438
0.0034394984
-0.065220155
-0.103752196
0.295842
-0.7434659
-0.18398134
-0.21175076
0.06387803
0.5424176
0.23104768
0.2967449
0.059110444
-0.23969367
-0.29055786
-0.042616464
0.14327498
0.31226474
-0.49639133
0.06961009
-0.68335027
0.027152706
0.2180579
-0.015362127
-0.19000557
0.03702487
0.08414627
-0.2251881
-0.47080252
0.12871012
0.25585938
-0.13042481
0.11237678
-0.028307423
0.14389658
0.08156447
-0.013981153
0.27366325
-0.36192453
0.22987495
0.1157437
0.0013606903
0.2583055
-0.20884712
0.0146630285
0.3910554
-0.34624386
-0.21072425
-0.1785685
0.064860314
-0.019582296
0.33329454
0.03781155
0.392011
-0.57693136
-0.100294985
-0.0565289
0.50361633
0.25961757
0.06818622
0.2982558
-0.5177294
0.17047907
0.2337363
0.3430462
0.43591753
0.08396017
0.58283466
0.32591763
-0.049299777
0.013184898
-0.13315725
0.1885726
-0.036897697
0.48168293
-0.23087268
-0.081971064
0.08532181
-0.025571665
0.026164385
0.08362361
-0.2146402
0.4036135
0.044242304
-0.13905779
0.1608401
0.20799296
0.07229633
0.03887341
-0.06380563
0.021880595
0.06016393
-0.03749068
0.31385174
-0.08878292
-0.15054317
0.116265915
-0.13085572
-0.124732226
0.023653755
-0.290932
-0.20400289
0.21179444
0.49707663
-0.088744454
0.48482668
-0.11713815
-0.03563051
-0.033870082
-0.7017808
-0.06458606
-0.049439766
-0.0016384837
0.19589663
-0.2200759
0.17257388
0.1169015
0.15663378
-0.08292517
-0.5764897
-0.26104692
0.035232157
0.13801219
-0.15902427
0.84702754
0.2281839
-0.42498562
-0.08029479
-0.013870597
0.21701348
0.19747095
-0.027926415
0.34816
-0.5440742
0.2158508
-0.20583308
0.4028852
0.2644876
0.18936083
0.044847038
-0.051538788
-0.13928673
-0.10179611
0.4037195
-0.04538413
-0.5208483
-0.41587925
0.116822496
-0.37095457
-0.07207854
0.26029843
0.06971161
-0.3547277
0.08394072
0.061673615
0.021051127
0.18328731
0.2034352
-0.13458264
-0.031288505
-0.17495048
0.05131804
-0.034678265
-0.20781846
0.15060206
0.30752224
-0.5351207
-0.16468921
0.17653148
0.06767429
-0.07470565
-0.053223968
0.048108205
0.20738253
-0.09525718
-0.29363307
0.21212913
-0.06517906
-0.042123634
0.22703344
-0.4905777
0.2369102
-0.88549024
-0.19794776
-0.08745276
0.20046724
-0.2225953
-0.14331912
-0.11014122
0.23971902
0.48513487
0.3687023
0.5299484
-0.040326428
0.12386361
0.4618509
0.029709315
0.017511599
0.016363822
-0.070492126
0.053623304
-0.086254045
0.19778468
0.13700446
0.15871055
-0.14240612
0.015583529
-0.0022784856
-0.33176187
-0.07982803
0.4033036
-0.09800169
-0.078583896
0.1496365
0.052740436
0.4337715
-0.05840665
0.024826815
0.19605154
-0.3885371
-0.12650137
-0.058814503
-0.49965614
0.24738333
0.09058047
-0.1692111
-0.056333646
0.13659316
-0.1709032
-0.24846113
0.30421922
0.14022543
0.14006324
0.43059707
0.21376827
-0.07355854
-0.26048046
-0.5406069
0.003940992
-0.10511875
0.14269057
0.20696427
-0.12641132
0.4914492
0.1374369
0.061673563
0.382702
-0.810606
-0.76973003
-0.16182746
-0.03557489
-0.32980695
0.5542965
0.24761008
-0.43802288
-0.3782895
0.056995776
-0.10776235
0.30190343
-0.05576536
0.48310575
-0.053386126
0.11871616
-0.22905248
0.17644617
0.29591018
0.08077449
-0.04087189
0.06439806
0.11356128
-0.17877577
0.23056763
-0.008861176
-0.9039351
-0.1139867
0.43075883
0.14888996
-0.13442926
0.21644543
-0.04641462
-0.13720012
0.15498096
-0.14194134
0.08486777
0.34640026
0.41304758
-0.015057334
-0.0051442613
-0.07444556
0.0052565844
0.22862266
-0.4311116
0.029742612
0.13495557
-0.6517316
-0.07382568
0.65604335
-0.004412702
0.17586204
-0.26123577
0.04573129
0.035535853
0.21712801
-0.34836176
0.03202696
-0.03759889
-0.5379446
-0.09231552
-0.95934737
0.006399082
-1.1288531
0.5107925
-0.26356652
0.006800548
-0.08900673
0.2473682
0.05035872
0.08292717
0.18264036
0.36560225
0.13228652
0.098696835
0.3773676
0.53823674
-0.05281845
0.019501701
-0.14794573
-0.1361411
0.34221965
-0.07818385
-0.06555644
0.0022490288
0.15176474
-0.014960278
0.30592364
0.22432382
-0.60992885
0.59049594
-0.08775805
0.00053747173
-0.009262594
0.28899994
0.031114869
0.5150861
-0.10740596
-0.049974304
0.18312605
-0.48667538
-0.19466518
-0.32077074
-0.41779414
0.09177659
0.05332786
-0.32748947
-0.22962174
-0.21897067
0.08540453
-0.1971564
-0.018764848
0.25829157
-0.008800231
0.2991985
0.1871654
0.04175017
-0.1298234
-0.48646927
0.033583567
0.048903745
-0.028533757
0.2897848
-0.14488952
0.29576224
-0.06250991
0.015078709
0.44126886
-0.7122579
-0.85625803
-0.025486019
-0.21389863
0.06443246
0.46488923
0.19227743
-0.10517729
-0.4892085
0.06248426
-0.16021681
0.36404896
0.027203524
0.24320714
0.23768991
0.23399678
-0.14581877
0.13798271
0.30364165
-0.07190164
0.19334374
0.0025768336
0.037680093
-0.1903137
0.13258436
0.119565845
-0.9876
0.45165932
0.4252017
0.42660442
-0.19016883
-0.01972982
0.06087499
-0.13626316
0.05704756
-0.046400905
0.21368179
0.5081649
0.36336815
0.103836104
-0.11067019
-0.116859205
-0.14897229
0.13589008
-0.29723454
0.25609204
0.10843439
-0.73853177
-0.08383491
0.6534185
0.0315983
0.08847235
-0.36813307
0.09231007
0.10164619
0.3856362
-0.3011595
-0.0018009974
-0.066886656
-0.60230094
-0.096258886
-0.5247906
-0.08886521
-0.97929364
0.5145716
-0.15721425
0.19209239
-0.07358594
0.33139583
0.15582065
-0.013635019
-0.048323978
0.39984182
0.0027892801
0.28085694
0.017607512
0.3968342
-0.11338358
0.14760156
-0.13497113
-0.034823943
0.4573467
0.08347175
-0.07433091
0.089948535
0.003169609
0.0630419
0.32405254
-0.031428155
-0.5510043
0.981345
0.009595135
-0.07001998
0.0577961
0.10344082
0.1115357
0.3151032
-0.16716425
0.041911487
0.13732675
0.0053957207
-0.10206502
0.0664692
-0.28824472
-0.036958426
0.1382755
-0.46057802
-0.15418348
0.1282802
-0.15229806
-0.05854571
0.3147017
0.39483956
0.017175239
0.41549405
0.0504504
-0.011829197
0.023467194
-0.5906686
0.03955338
-0.011688212
0.21021119
0.27416062
-0.077108525
0.15023172
0.16200164
0.15422925
0.12643498
-0.40513915
-0.38197094
-0.19466195
-0.09399158
-0.04635308
0.79260147
0.44525096
-0.2967031
-0.19785056
-0.072477445
0.11870447
0.3449211
-0.11690621
0.38113707
-0.30972943
0.39588058
-0.11644661
0.3563875
0.0329984
0.21703394
-0.035742413
0.060675405
-0.030472934
0.03503872
0.33271298
0.13720061
-0.6521823
0.17146137
0.16655424
-0.027353859
-0.13609254
0.19556542
0.006274784
-0.06976104
0.07422654
0.067497306
0.07822451
0.54213685
0.42853266
0.026896534
0.0046169744
-0.083616294
-0.03856544
0.06288947
-0.38867915
0.08011814
0.24551147
-0.768742
-0.15166558
0.3415285
0.0020939452
0.03370005
-0.105017915
0.07597784
0.16525093
0.043819927
-0.35841486
0.26099396
-0.038457084
-0.22938883
0.16542523
-0.37357676
0.034557007
-1.0530665
0.08216906
-0.20033339
0.106766425
-0.1479062
0.07439739
-0.05965065
0.17082626
0.2492285
0.41519874
0.15166424
0.17215198
0.2092971
0.32091713
0.12916914
0.05538658
-0.06492163
-0.26697978
0.2937217
-0.033737518
0.11629027
0.21199521
0.23027064
0.09473291
0.17809671
0.08837414
-0.43513978
0.7619144
0.38024676
-0.011913323
0.16931158
0.32550582
0.1841417
0.082330115
-0.37086254
0.030171998
0.2200688
0.1215232
-0.14825374
0.09522823
-0.14111948
-0.06685454
-0.031872325
-0.45215926
-0.34408316
0.05163683
0.11273417
0.31194907
0.16114762
0.025041606
-0.056683898
0.13197948
0.15613112
-0.032044183
-0.11299457
-0.28986084
-0.048534647
0.33106843
-0.060099605
0.08680546
0.21274644
0.22487065
-0.049449723
0.13719702
0.11105718
0.17017208
0.36195645
-0.19203672
0.1535713
0.15821247
0.18417491
0.09349737
-0.47541746
-0.20214935
-0.06507384
0.16989791
0.042102862
-0.039548833
0.036044244
-0.6649707
0.09587281
0.025376234
0.07149322
0.44115195
0.35102722
0.12638256
0.062275767
-0.14805636
0.021671927
0.2288268
0.009081792
0.23518622
-0.31866953
0.14608273
-0.22950956
0.14030926
0.28894055
0.0021236837
-0.08710844
0.1014378
0.2931263
-0.052014828
-0.11421019
0.19441494
0.26047778
-0.05089512
0.07259417
0.010296491
0.05105122
0.2432405
0.112853765
0.25016966
-0.37965736
-0.062255025
0.4475123
-0.07601982
0.058009427
-0.02471645
0.061410554
0.41836235
-0.26924333
-0.5221522
0.17154314
-0.025776464
0.19930005
0.33159214
0.06148264
0.127761
-0.94283307
0.15297303
-0.16285318
0.43001714
0.13212256
0.16069543
-0.06556795
-0.18831572
0.41371265
0.31120995
0.054120257
0.37223962
0.25001845
0.47470814
0.5932162
0.15600972
-0.057346012
-0.39493483
0.22838727
0.028347392
0.38776734
-0.046265967
0.041076507
0.35342738
0.08116145
0.24213669
0.037035692
-0.04508915
0.7431766
0.0030267942
0.1867929
0.3507361
0.05282254
-0.039962765
-0.58150196
0.0058762315
0.29137582
0.25438893
-0.100589216
0.13597332
-0.1051014
0.10023974
-0.25948763
-0.4163574
-0.5405527
-0.11869575
0.27531576
0.31232524
-0.15159321
-0.31126094
-0.03759081
-0.23300828
0.20331663
0.018459491
0.10901555
-0.12217864
-0.044708196
0.3162123
-0.26850766
0.07019047
-0.031807344
0.4361333
-0.081688784
-0.5017374
0.1289652
0.6077312
0.475166
-0.09522331
0.12755184
0.22941293
-0.39335057
-0.44074786
-0.8584812
-0.03887045
0.030777456
0.187257
-0.19535431
-0.1441526
-0.049166348
-0.6228904
-0.46340272
0.0135577945
-0.11233776
0.40829363
0.4682381
0.28226382
0.011009669
-0.12284761
0.027941117
-0.27019855
0.12534894
0.50955623
-0.41145995
0.22265415
-0.1982523
0.12946622
0.22393923
0.022560922
0.25929293
0.031520795
0.33631572
-0.33121517
-0.8896777
0.1061174
0.23658401
0.20274748
0.08777266
-0.030683072
0.20780845
0.28205577
-0.13593882
0.1040307
-0.06343991
0.07946229
0.35710186
0.047085997
0.29118076
-0.1413436
0.06254711
0.28184378
-0.43400857
-0.19992301
-0.24887593
-0.020958127
0.42126855
0.07453835
0.67809856
0.027394861
-0.7028196
0.055544917
0.1785813
0.33613706
0.14126384
0.30749
0.29258773
-0.48899344
0.46834022
-0.20461501
-0.09642826
0.21611367
0.00044502266
0.41427618
0.5357765
-0.18369764
-0.12311858
-0.012641417
-0.029341372
0.009289318
0.111975454
-0.21297812
-0.22451025
0.26549566
-0.1714948
0.2324488
0.3240595
-0.06990901
0.61122686
0.022980232
-0.075599656
0.09703553
0.037624728
-0.26749304
-0.16510876
-0.026208106
0.34813362
0.27067995
-0.06577493
0.0314993
0.053345554
0.36873454
-0.2276595
-0.3869007
-0.30098942
-0.0306876
0.18712765
0.30030495
-0.5443085
-0.30636084
-0.29375786
-0.17820247
0.16790873
-0.06411565
0.10986766
0.1962924
0.027639575
0.24265414
-0.26891026
-0.036596842
0.20212652
0.026984047
-0.20926239
-0.46764714
0.36999825
0.21588235
0.08027939
0.08562879
0.21576008
-0.19699027
-0.85018754
-0.4002804
0.08281209
0.18582657
-0.0043010567
0.31197724
-0.0034092006
-0.06938839
-0.26833886
-0.017038148
-0.5057465
-0.6085799
-0.13102289
-0.028453488
0.23158543
0.1767839
0.013977224
-0.027433097
-0.09676488
-0.29688382
-0.11196666
0.1222095
-0.58765
-0.10145839
-0.19750854
0.029490432
0.015055008
0.047740925
0.5899158
0.14345066
0.11235014
-0.093963675
-0.75103146
-0.09400672
0.1413891
0.22558925
0.1823111
-0.16048771
-0.10842425
0.32528678
0.022344122
-0.40361416
-0.16809033
-0.012067296
0.2996151
0.024534991
-0.04345586
-0.054267887
0.092486314
0.06658892
-0.11725973
0.2885033
-0.014318176
0.0614603
0.5413148
-0.07789885
0.4134348
0.17937425
-0.22951354
-0.16241263
0.020092983
-0.085360065
-0.024652073
-0.2600675
0.08670264
-0.7185292
0.05824661
-0.1044855
-0.09945319
0.4969319
-0.24105926
0.20744082
0.38884822
-0.003872686
-0.1826611
-0.09626096
-0.3270391
-0.06490597
-0.34494385
-0.09765045
-0.07967407
-0.1253189
-0.10052343
0.19102551
0.084256425
-0.527767
0.38271573
0.017985443
-0.33820736
0.20602596
-0.20302601
-0.30514786
0.35814467
-0.037788432
0.10173402
0.35501832
0.05886594
-0.4419273
0.09138492
0.24057543
-0.15750451
-0.24915351
-0.30264878
-0.2742002
0.022013532
0.5543827
-1.1011772
-0.36103263
0.055365823
-0.295517
0.42013702
0.07157803
0.11115766
0.67999655
-0.064213954
0.040619805
-0.41727868
0.019870438
0.42176887
0.24235792
-0.36339945
-0.09497607
0.5908378
-0.104599796
-0.36663687
0.2623315
0.12481305
0.2015651
-0.3458747
-0.268202
0.3491459
0.13706614
-0.09647731
0.108622916
-0.15163799
-0.10822897
-0.13588469
-0.762279
-0.6853819
-0.45780563
-0.46496722
-0.18701151
-0.34725222
0.10898149
0.027538374
-0.11868367
-0.1380075
-0.6643617
-0.11675962
-0.056518346
-0.14829452
-0.10191417
-0.15077354
0.1773344
0.020205189
0.06527555
0.51673245
0.108615756
0.03791271
-0.0491048
-0.6209028
-0.22620381
0.11998745
0.24447918
0.15740469
-0.46091437
-0.17765553
0.23257455
0.06661238
-0.7205013
-0.2163639
0.5393422
0.21218923
0.04991809
-0.19012786
-0.47554162
0.2534689
0.08402576
0.11093769
0.5569057
-0.26368642
-0.05471389
0.32327324
0.047844306
-0.13056435
0.2094042
-0.17925572
0.25675467
-0.14947328
-0.22392286
0.14062366
-0.6212141
0.3683343
-0.56069493
-0.08910146
0.23855369
-0.34588388
0.50643456
-0.3842802
0.041621353
0.5287748
-0.08416322
-0.14189938
-0.012317782
-0.15297629
0.02463364
-0.42021224
0.072658665
0.10231606
-0.17539236
0.37926093
0.11863664
-0.2777207
-0.45556563
0.25037596
0.012449555
-0.19092624
0.088547416
-0.2667316
0.22082423
0.060460024
0.055855744
0.28986973
0.5223693
-0.13909702
-0.33657742
0.27360922
0.08298833
-0.0010800181
-0.36290056
-0.1526757
-0.24714321
0.28567454
0.68040776
-1.0837073
-0.37293988
0.06737903
-0.32757992
0.46929926
-0.020098267
0.23082656
0.34863338
-0.021391407
0.38055593
-0.36902168
-0.1089073
0.23405959
0.35930473
-0.24462059
0.13994355
0.34219635
0.13490193
-0.3950612
0.17304681
0.14028373
0.21923348
-0.41774777
-0.28254792
0.63619936
-0.1216808
-0.10755757
-0.15133491
-0.52634984
-0.21903019
0.00764712
-1.0505923
-0.29075992
-0.35622343
-0.39872837
-0.18224046
-0.3326669
-0.0018364048
0.07118604
-0.3466512
0.038953062
-0.45048052
-0.1615152
0.044729646
0.13051926
-0.12691478
-0.24574237
0.13331902
0.20567825
-0.015902497
0.34069818
-0.28388366
-0.02931029
-0.28564963
-0.94297504
-0.043175284
0.21280284
0.08624841
0.0039474587
-0.6020974
-0.16103677
0.16841547
0.44955224
-0.48641533
-0.1718684
0.6241496
0.10145478
0.03428199
-0.17801201
-0.53426206
0.20265202
0.26621097
-0.12874047
0.4725335
-0.12385916
0.053900346
0.49089086
0.13145095
-0.23033564
-0.30602244
-0.10662094
0.37225214
-0.17540169
-0.006148742
0.30090472
-0.28837034
0.31315807
0.17010382
-0.3492908
0.28734526
-0.798692
-0.08033032
-0.16942371
-0.045549776
0.5468901
-0.012879565
-0.34484735
0.04181288
0.0033503296
-0.023796303
-0.0081734685
0.35137954
-0.03719075
-0.0047900914
0.536334
0.22050527
-0.48818505
-0.3640134
0.38779262
-0.082906924
-0.21969989
-0.14123219
0.014582966
-0.028151993
-0.51634586
-0.07899862
0.20646228
0.3658065
-0.21989948
-0.3811503
0.31578338
0.11228502
-0.10751123
-0.30220094
-0.14049844
0.05654393
-0.4442597
0.34305653
-0.64032596
-0.053032584
-0.14720674
0.052031767
0.27719527
-0.079859965
0.23256597
-0.36274076
0.04876102
0.38286772
-0.14154556
-0.04274914
0.1244168
0.48066348
0.13567926
0.19599491
0.31747654
0.38794062
0.26895976
-0.43754628
-0.0004830215
-0.07537495
-0.059425656
-0.046830248
0.43848106
-0.34940812
0.019011436
-0.7713222
-0.6009763
0.1140766
0.22086903
-0.6885022
-0.023057368
-0.4082556
-0.48303938
-0.16810623
-0.06956426
0.16821353
0.08081431
-0.50350875
0.29499823
-0.16974296
-0.33783627
0.57482326
-0.1070814
-0.27381614
0.028271856
-0.11605147
0.3046103
-0.026093226
0.23395617
0.40303707
0.23504826
-0.36385486
-0.5134398
0.44158486
0.006612673
0.2823998
0.32669285
-0.86456615
-0.03081798
-0.21988618
-0.16989015
-0.08455509
-0.2990917
0.52304363
0.11536934
-0.061083734
-0.55109763
-0.41040945
-0.019653317
-0.058213305
-0.3911486
-0.1526807
0.1355665
0.007394896
0.06015152
-0.01005322
0.1886057
-0.18078
-0.03481615
0.26038268
-0.11270901
-0.44080737
-0.045136895
-0.3021987
0.14316384
0.010250527
-0.06506382
0.17163645
-0.4084184
0.1530592
0.9062852
-0.004088668
0.48650208
-0.13520776
-0.34300345
-0.0012840924
-0.21755418
-0.061527144
0.0503346
0.38161433
-0.06570072
-0.041488327
0.2513198
0.30587295
-0.2422476
-0.09380943
0.6452666
0.005628232
0.049873404
0.066533305
0.051744252
-0.2719951
-0.16939467
-0.020901684
0.01201804
-0.19136272
0.11962446
-0.3680545
0.24809915
0.076296136
0.111336134
-0.045476068
-0.06911807
-0.14692207
-0.7934471
-0.03902096
-0.22679603
0.47138235
-0.27240685
0.13502751
0.25774822
0.06394706
-0.08540869
-0.32767057
-0.014999165
0.37610182
-0.02336345
-0.0012114906
0.27248636
0.54372305
0.32695007
0.4247713
0.39035687
0.33332044
0.36901185
-0.34356478
0.048444927
0.046237424
0.23010072
0.18959634
0.025654966
-0.3783973
-0.017833846
-0.7015602
-0.046800464
0.21482882
0.25356063
-0.11311581
0.016845899
-0.27260873
-0.32497206
-0.003477788
0.004407669
0.29751584
0.02287276
-0.28579354
0.12586358
-0.46293712
-0.11532987
0.2315701
-0.20747082
-0.25023013
0.071696825
-0.3827486
0.28681353
0.05610974
0.32363
0.54834026
0.012756079
-0.11077716
-0.1393977
0.17465906
-0.4034726
0.56390285
0.5231354
-0.8283903
0.07344949
-0.40970144
-0.24659841
0.018945731
-0.30819446
0.008771851
0.045668487
0.045854084
-0.23946789
-0.2229675
-0.032467887
-0.41897768
-0.42214936
-0.43865588
0.041446187
-0.06252061
-0.12909903
-0.14156719
0.15852338
0.13518643
0.093176566
0.13333288
0.022615576
-0.15462166
-0.07751288
-0.43205196
0.0023570072
-0.28558898
0.24438491
0.39796117
0.15363008
0.122039594
0.46822906
-0.025008852
0.25668538
-0.14732416
-0.09309179
-0.09807071
-0.23492666
0.04989843
0.11890288
0.15179798
0.05418343
-0.32016516
0.28755856
0.16666715
-0.23031345
-0.09915223
0.5495498
0.0077668065
-0.21345362
0.025778538
0.09275558
-0.4451213
0.27336314
-0.0644469
0.08579663
-0.14260244
0.26265284
-0.163671
0.34833923
0.20631787
0.027474442
0.030561028
0.27922627
-0.23702496
-0.5253608
-0.37749848
-0.24932025
0.6359015
-0.4109523
0.28198162
0.01029219
0.054650836
-0.2179886
-0.010876724
-0.018014643
0.056255013
-0.033333294
-0.11653305
0.46189144
0.45401058
-0.2213338
0.5979816
-0.29839915
0.068702005
0.21439676
-0.09958438
-0.034395013
-0.1380285
-0.015850928
0.23696508
-0.014638068
-0.12294086
0.037808597
-0.63587785
0.3770231
0.14878424
0.21709448
-0.32850716
0.23738684
0.1821832
0.16904378
-0.016908308
-0.083835
0.017111627
-0.009165503
-0.17011954
0.18053533
-0.06737827
-0.17765617
0.0790188
-0.34768933
-0.4430961
-0.21462439
-0.4027326
0.27347177
0.00879466
0.057742205
0.2830706
-0.14828719
0.07230238
-0.18768339
0.18942234
-0.33532873
0.26115328
0.36336854
-0.25758985
-0.02749364
-0.4429027
-0.15880741
0.17023952
0.103304476
0.022022283
-0.028941374
0.046691738
-0.2676774
-0.19653384
0.09294243
-0.20980671
-0.2476864
-0.3206314
0.05566726
0.0086457785
-0.17591403
-0.429283
0.04645284
0.009931638
0.17901321
-0.06440628
0.31677172
-0.12151767
-0.2971978
-0.21604796
-0.35021508
-0.08939634
0.23498525
0.08827586
0.2253532
0.24152973
0.3139702
0.09669573
0.13831344
0.09619282
-0.019342745
0.003472508
-0.16191679
0.01740106
0.031047527
0.12334596
0.33578375
-0.42427656
0.1020909
0.41066742
-0.097092584
-0.3015023
0.11365004
-0.04739798
-0.07490501
0.26781687
0.055654284
-0.45173523
0.22609793
-0.03987598
-0.0007418094
0.101481736
0.10603793
0.08432255
0.31586733
0.058777064
-0.08086162
-0.01756675
0.30169046
0.16112404
-0.18575968
-0.12235608
-0.20441155
0.105517544
-0.086559914
0.16615249
-0.35708526
-0.0699364
0.01211197
-0.051176578
-0.013271548
-0.16980967
0.114972286
-0.3342105
0.33541963
-0.49163437
-0.29353926
0.52967954
-0.3460411
0.021096585
-0.024218967
0.15592843
-0.0065568183
-0.15369232
0.23954318
0.07182574
0.57072407
0.28496432
0.012515534
-0.010124337
0.7088031
-0.16208369
-0.2248582
-0.11076471
-0.042137433
0.08563304
0.064354904
-0.034895867
0.15588719
-0.062263463
-0.012166768
-0.18989134
-0.006978422
0.013346776
-0.21886654
-0.15095414
-0.29704124
-0.10794743
-0.12283479
0.08718053
0.08084584
0.06884142
0.019999681
0.47781023
-0.1622443
-0.032570194
-0.104855664
-0.23219202
-0.18663818
-0.0654996
-0.15549633
0.1356989
-0.16074023
0.12906072
0.08717006
0.060275495
0.32679844
0.28996804
0.012083316
0.02991844
-0.2912259
0.23416315
0.009736077
0.23094368
0.41664505
0.33856508
0.011122232
-0.028441515
-0.012829248
-0.05580576
0.20430614
0.092786156
0.2746759
-0.20673697
-0.07428568
-0.0037871797
-0.19813597
-0.021930246
-0.077277705
-0.26881036
0.0050199623
-0.19134323
0.07944102
0.2061448
-0.2550056
-0.050859503
-0.20258819
0.37440437
0.15956502
-0.016441714
0.022952024
-0.016735924
0.07757723
0.079572864
-0.104563266
-0.028939025
-0.18792471
0.059935182
0.12607375
-0.31989175
-0.080464326
-0.00862384
0.068065874
0.034656473
0.1253723
-0.17308573
-0.04179899
0.06418825
-0.08371037
-0.055400256
-0.11968412
0.007960865
0.28964585
0.05098608
-0.019888705
0.048677266
0.17275588
0.016801484
-0.11624591
0.041600015
-0.13280241
0.17283681
0.3122319
0.114018515
-0.08771786
-0.047490068
-0.069980495
-0.0817363
-0.033609964
-0.09986559
0.08219189
-0.19509283
0.19066605
-0.3771759
-0.109740235
0.04708365
0.022313721
0.038143225
-0.12357382
-0.05866743
0.069285065
-0.26155308
-0.0825321
-0.120875224
0.26781422
-0.13823017
0.039659604
-0.17621753
0.42989537
-0.20023118
0.25677758
-0.04832584
-0.011245792
0.16983923
-0.045882408
-0.1719295
0.17830147
0.0051476965
-0.013311073
-0.037843022
0.03964149
-0.20267195
-0.12564696
-0.12388983
-0.10836519
-0.004139787
-0.12645212
0.088217445
0.11805138
-0.07279506
0.0459173
0.21472949
0.15408859
0.040854886
0.05894255
0.22063743
-0.0449692
-0.08774556
-0.122612454
-0.2890746
0.16188158
-0.28636196
-0.023844782
0.0337509
0.25524694
0.32845196
0.020319795
-0.046399448
0.03457539
0.28794003
0.061531205
-0.06241945
0.62005657
0.17556126
-0.09099443
0.072763644
-0.021346502
-0.2317656
0.16842076
-0.13927525
0.11210956
-0.017677696
0.07226853
0.0037657842
-0.00089505484
0.09170763
-0.025424678
0.043558124
-0.107954934
-0.16897784
-0.13676661
0.039376184
-0.22232522
0.14882748
-0.16489153
0.30999622
-0.06383471
0.029401341
-0.13477542
0.019035242
0.011668745
0.017362393
-0.043605104
0.31823248
-0.0839061
-0.018856118
-0.18207586
-0.115255
-0.18349501
-0.074318305
0.21490441
-0.086942725
-0.019869946
-0.081515595
-0.50339174
0.054531045
0.0387308
0.20601512
-0.28983465
0.06291304
-0.07692066
-0.01686018
-0.015198574
-0.041956246
0.12943365
0.42511204
-0.23078041
-0.21741946
0.07586118
0.4122161
0.03193545
-0.0383226
0.18778524
-0.059056982
0.14998496
0.035821926
0.055251203
0.043604095
0.035611797
0.16195543
-0.0221971
-0.024834115
0.1875974
0.03464055
-0.11845539
0.3102651
0.0036286626
-0.0470034
0.13598062
-0.021723408
-0.10463802
-0.13756227
-0.049642324
-0.26354298
4.7652797e-05
0.001254471
-0.038111478
-0.019764805
0.4919258
0.017585816
0.2421226
0.03185996
0.22092071
-0.15973622
-0.03074271
0.08087963
-0.038265835
0.12286212
-0.01762316
0.4089282
0.03462862
0.12276457
-0.017205438
0.09265666
0.079613715
-0.042214196
-0.019743608
0.0118031725
0.17426783
0.26363045
0.059513476
0.12732773
0.17605571
0.25551644
0.075692885
0.058173936
0.20763658
-0.21178764
0.27364987
-0.4144361
-0.11003181
-0.019795535
0.03394578
0.03188434
0.24386494
-0.01724431
0.002408648
-0.00675295
0.015615651
0.19926898
0.53134036
-0.12313791
0.05521214
0.06343038
-0.042271633
-0.051332645
-0.1492018
-0.19826263
-0.16432856
0.22349796
0.005408705
-0.31048182
-0.015398283
0.038290776
-0.023254575
0.22354779
-0.11096494
0.32979545
-0.12554358
0.068900295
0.25756565
0.11973585
0.02669544
-0.041827627
-0.07907806
-0.034655247
0.07470315
-0.031961046
-0.11100483
-0.23821214
-0.05687818
0.59884477
0.28031558
0.07601118
-0.45760107
0.2922859
0.1792483
0.06567351
0.095654555
-0.010206742
0.062450625
-0.19585465
0.14763974
0.025174484
-0.058217257
0.30453268
-0.19854371
0.13629092
0.20874062
0.1418545
0.05945845
-0.02019382
0.23357286
0.2701924
0.011395863
0.024874434
0.12618113
-0.06308998
-0.049132027
0.1264118
-0.053200264
-0.05479724
-0.101199456
-0.093499534
0.02076701
0.0688139
-0.12549971
-0.016339764
0.06615963
-0.10148352
-0.1810686
0.13161896
-0.09678869
0.10878804
0.14891142
-0.033629935
0.0021046188
-0.04759972
-0.0080397455
-0.06686628
0.10505237
0.22856788
0.034597263
0.12457367
0.025211995
-0.015170702
-0.22305399
-0.13700001
-0.07227538
-0.07677759
0.04375014
0.07292228
0.18019684
-0.05485584
0.007622227
-0.15967605
0.0049136053
-0.0836738
0.046173092
0.07694806
-0.21047302
-0.23696621
-0.17397603
0.046927523
-0.048631504
0.07149636
-0.020024925
0.109850496
-0.06937585
-0.08384672
-0.1608603
-0.08510468
0.12490286
-0.10091465
0.11456595
0.019910222
-0.085806035
0.036837798
0.004528335
-0.04497021
0.16962133
0.06726134
-0.12847005
0.04707315
0.18558183
-0.20520145
0.05602208
0.12698711
-0.20215808
0.11328216
-0.03203582
0.07529586
0.07749588
-0.006060659
0.0790967
0.15951718
0.12472581
-0.14483035
-0.11251462
-0.11894884
0.008117182
-0.14130446
-0.009756163
-0.109474905
0.16272384
-0.056220386
0.06329904
0.06351464
0.21644911
-0.0038284836
0.391272
0.12522003
-0.07201839
-0.18913399
0.21825443
-0.05413674
-0.0005481749
-0.19675474
0.086388014
-0.18858178
-0.10831387
0.13703485
0.23879658
-0.22821863
-0.06928762
0.03881839
-0.12952593
0.039429523
-0.05267012
-0.12689209
0.053440426
-0.017685033
0.25732002
0.43733793
-0.3237101
0.40580302
-0.013842141
0.124935366
-0.11470076
-0.1140703
0.1741032
0.023745868
-0.40868893
0.32192466
0.479818
-0.10343607
-0.017271701
0.2422994
-0.18902726
0.07946996
0.0671606
0.17928028
-0.038045242
-0.033629663
-0.15704902
-0.0009621197
0.1087874
-0.11137328
0.28969002
0.13072081
-0.10747271
-0.030349161
0.06293994
-0.12248302
0.04647257
-0.05616138
-0.11433044
-0.10908133
-0.04377459
0.347454
0.06976465
0.173792
0.56484413
-0.18450767
0.07449275
-0.13784856
-0.04089882
-0.039603505
0.28598455
0.03205766
0.5176292
-0.17435224
0.021631896
0.054986764
0.23067673
-0.20399009
-0.20064533
0.033099998
-0.3577613
-0.051294565
-0.15843032
0.11059051
-0.016903775
-0.061239757
-0.1982794
0.16011395
-0.14536758
-0.16015233
-0.19769165
0.048970226
0.11163783
0.12862426
-0.07827914
0.036765326
0.010103744
0.02407805
0.068319656
-0.005285086
0.24015717
-0.028692653
-0.20353277
0.06320033
0.2163458
0.108919136
-0.050362907
0.03638463
-0.23996294
0.5700981
0.08136422
0.028711595
0.16376781
-0.069763035
-0.3240415
-0.103714705
0.07407113
-0.16823898
-0.031731296
0.0065371357
-0.117556356
0.16256632
0.030259212
-0.023091445
0.27718773
0.17047158
0.03292709
0.01396326
0.06384533
-0.17597911
0.26422206
0.18349385
-0.16627277
0.0612795
0.27488956
-0.024983209
0.0546217
-0.2892045
0.015652914
0.034847762
-0.104430676
0.08888607
0.18935828
-0.07943002
-0.060501587
0.045404933
0.21180734
0.2639747
-0.087182336
-0.04944136
-0.22182024
-0.0104338825
0.07815686
-0.2814033
-0.46395937
0.2829407
-0.49724144
0.1543651
-0.21675265
-0.0843928
0.049355473
0.079564534
0.24833518
0.29427546
0.56236124
-0.3202256
-0.023944914
-0.11143272
0.27725938
0.06502166
0.031449564
0.16366182
0.054749914
0.0340666
-0.15719755
0.10702603
0.0721357
-0.4051691
0.13163239
-0.10435088
-0.18945855
0.12235069
0.14518027
-0.07953488
0.14376117
0.09925542
0.18047024
-0.17054148
-0.00038848704
0.04111792
0.0751837
-0.013255217
-0.3355796
-0.34121534
-0.0136742275
-0.14072813
0.0791647
0.1403543
0.07896199
-0.04491373
0.31756032
-0.034140505
0.06953611
0.06707046
0.15304723
-0.34020135
0.062773965
-0.0057177586
-0.055927623
0.011165209
-0.19866595
0.03821471
0.013166115
-0.01468531
-0.20778285
0.21674433
0.19033211
-0.057060614
-0.14029881
-0.08746888
0.46269447
0.14632502
-0.006124864
0.11857437
0.20933986
0.33060488
0.05318508
0.17204852
0.10379219
-0.076762654
-0.033702224
0.06995321
0.07336029
0.050708644
0.13020256
0.14732055
0.022289798
-0.13941172
0.07581988
-0.07727699
0.27710837
-0.12733176
-0.018460507
-0.1486318
0.054464035
0.34635788
-0.11320656
0.27743
0.071721114
0.08832604
-0.11313525
0.18017052
0.14031087
0.20212683
0.2080146
-0.065207444
0.18869178
-0.40327778
0.5769262
-0.028535841
-0.07899885
-0.029571345
0.54395604
0.04463684
-0.005602665
0.08489893
0.075005315
0.25203606
-0.048751667
0.11212333
-0.025462575
-0.043528646
-0.14600128
-0.01851561
-0.025663242
0.017609073
0.19628125
-0.21207881
0.36867675
0.008896433
0.35983202
-0.049434207
-0.07590618
0.18067907
0.0858063
-0.060014877
-0.2416979
-0.11768366
0.36842337
-0.072036386
-0.2311266
0.15212144
0.2682583
-0.117267944
0.08027156
-0.028335275
-0.13035795
-0.039652895
-0.01791011
0.27895004
0.053180717
-0.04135967
-0.18610528
-0.050412215
0.2131425
-0.30811468
-0.06481333
0.32589045
-0.13114244
-0.0008327366
-0.023091849
0.2194056
-0.030309662
0.06765647
-0.37369183
-0.12675017
-0.14731649
0.2536913
0.05440583
-0.05220144
0.22056617
-0.38907748
-0.31286183
-0.112765916
-0.15785351
0.19380592
-0.25274387
-0.0020223088
0.27936524
0.052177563
-0.029730316
0.111758456
0.23898537
-0.19247681
-0.13801761
-0.08443002
-0.19247329
-0.33144924
-0.33928576
-0.12583865
-0.19213365
0.049000643
-0.2620584
-0.05300129
0.18238933
-0.10538971
-0.22425589
-0.28915423
-0.30743903
0.25924492
0.00021501668
0.17750342
-0.078295276
0.40594065
0.13098943
0.15026219
0.37221792
-0.093975626
-0.33290341
0.017293118
-0.0056496565
-0.25897083
0.15763083
0.14041889
-0.23240176
0.10613439
-0.047206663
0.010787018
-0.13553557
0.03536977
-0.16829811
-0.05383228
0.20201823
-0.31969985
0.0053941496
0.29034284
0.0026164164
-0.33802983
-0.21435833
0.1213451
0.2738743
0.035746545
0.33847666
-0.064535074
-0.25125325
-0.16336308
-0.24109845
0.2513347
-0.0328674
-0.024797138
0.11430527
0.06414961
-0.037545413
-0.32297748
0.21212639
-0.06759097
-0.21052496
-0.12978904
0.057516735
-0.40407267
-0.34281075
0.062033094
-0.08362439
0.15088084
0.062857516
-0.29688182
0.08285516
0.06719717
-0.040154375
-0.12636198
0.037764095
0.09515686
0.34880158
-0.06858578
-0.12642674
-0.1662758
0.39853925
0.016096132
-0.34407234
0.16691132
-0.122892976
-0.0868873
0.048394445
0.39361355
0.0982895
-0.06537455
-0.11487084
-0.067066185
-0.06889004
0.12267181
-0.1308291
0.1706948
0.10050857
-0.18905833
-0.37464327
0.14822783
-0.4141469
0.13242665
0.15836675
-0.01751491
0.07203956
0.038130697
-0.22973326
0.0770939
-0.12855476
0.2194553
-0.034055363
-0.19021751
0.08406312
-0.42068216
-0.10967882
-0.30536747
-0.16887078
-0.10502608
-0.11581831
0.20966615
0.35312462
0.10673452
-0.044277474
-0.28854987
-0.03826736
-0.35303515
-0.16990574
0.2604741
-0.29329357
-0.5134414
-0.39325386
-0.004265655
-0.13339908
-0.06086117
-0.19998081
0.070278205
0.21440934
-0.06592898
-0.43230185
-0.0012348793
-0.30020407
0.3561352
0.09350732
0.024229178
0.052867837
0.0039988835
-0.010384951
0.14303443
0.44196126
0.26777735
-0.18022227
0.027433373
-0.28468978
-0.008031584
0.023010492
0.12944704
-0.13926262
-0.16827662
-0.116291784
0.043567963
0.16623878
-0.1112419
0.20542067
-0.11800768
0.43258557
-0.046564627
-0.04191616
0.33065718
-0.10562224
-0.37150067
-0.16392937
0.13013755
0.090898655
-0.095411256
0.21241333
0.009399977
-0.28218997
-0.27669576
-0.32024556
0.2387781
-0.05591864
-0.111904636
0.035581864
0.008870794
0.4359199
-0.007428404
0.16203746
-0.18677434
0.1160243
-0.2178836
-0.075052135
-0.47805336
0.16336532
-0.027874514
-0.060913485
-0.11860715
-0.04286713
-0.48528886
0.42993534
-0.044463005
0.09383595
-0.13494754
0.10004348
-0.10980116
0.52674705
0.0540933
0.15766491
0.023530778
0.08803674
-0.43423742
-0.7107131
-0.22769263
-0.14623182
0.34319097
-0.13688509
0.40526348
-0.30970263
-0.009085074
0.021706395
0.11647139
-0.073461175
-0.049906675
-0.06891669
-0.0184821
0.31831872
-0.13490136
-0.013453385
0.43705973
-0.52016675
0.19938423
0.4245849
-0.18025348
0.11483944
-0.13974233
0.07699761
0.24510445
0.015757766
0.048873655
-0.04725132
-0.39690164
0.40221265
-0.19438083
-0.11698684
-0.33929962
-0.025028799
-0.14105174
-0.37779567
0.056888606
0.07952909
0.19396363
0.07010057
-0.24788187
0.11303368
-0.32462564
-0.16874194
0.11637143
-0.3969303
-0.513497
-0.14380573
-0.31263864
0.2830693
0.04086533
-0.018258533
0.06355228
-0.264573
0.20263137
0.040910568
-0.029481854
-0.48445827
0.21940702
0.14285305
-0.15164797
-0.032207344
-0.09068312
-0.0057711634
0.16776931
0.053865947
0.13657734
-0.19728944
0.028395064
-0.085579224
0.14936215
0.13837434
-0.28339598
-0.06548
-0.110340856
0.044523034
0.0077338386
-0.27084818
-0.14281376
-0.04000429
0.15535428
0.24837364
-0.3390862
0.21160819
-0.14895348
-0.141756
-0.39967787
-0.41165724
-0.08328327
0.35681275
-0.008304537
0.29363418
0.17427354
0.041150253
-0.11225359
-0.3162088
0.03846971
0.080308765
0.005828082
-0.24475786
0.037875943
0.24750079
-0.27805188
0.22220258
-0.3161094
-0.08093735
0.1803493
0.091313355
-0.29786205
0.053903814
-0.034928054
-0.0557623
-0.38187286
0.047704976
-0.39969978
-0.059564576
0.068675585
0.037979834
0.042265568
-0.07205377
-0.112353444
0.52142084
0.03318381
0.2465582
0.06359054
-0.10013193
-0.26362768
-0.2502166
-0.15657666
-0.21014138
0.23356196
-0.17239025
0.34375873
0.047349006
-0.009348735
0.072021306
-0.17931351
-0.036315084
0.16403098
-0.05459108
0.308118
0.07933263
-0.10304672
-0.16921173
0.46550313
-0.44298372
0.38243937
0.0735746
-0.28190932
-0.014859447
-0.17290498
-0.08573666
0.0033038785
0.2857295
-0.06799646
-0.025459988
-0.46041712
0.09640713
-0.05853729
0.026346197
-0.1643614
-0.032548144
-0.097726345
-0.4905869
0.22501132
-0.31398296
0.1376459
0.044272237
-0.26200128
0.0352688
-0.3525108
-0.13108163
0.16905788
-0.3615396
-0.2860099
-0.20852527
0.082805574
0.20896347
-0.043339
0.076259814
-0.2391248
0.09087456
0.23946369
0.13470992
0.2509308
-0.25662073
0.20104466
0.15643223
-0.3687969
0.09597307
-0.38892865
-0.23565595
-0.20901197
-0.12515144
0.22312835
0.07090877
0.028653443
-0.24512708
0.3470682
0.17964505
-0.29199317
-0.07475151
0.05317462
-0.07492891
0.05733833
-0.11656009
-0.18957396
0.36729744
0.057358786
0.1719343
-0.03233375
0.24030003
0.10133969
-0.020758715
-0.1591669
-0.3409845
0.20675908
0.040909037
-0.4625626
-0.08977484
0.13887039
0.27581033
0.14333491
-0.16194193
-0.21171308
0.0048809242
-0.05895401
-0.4695163
-0.057314645
-0.10821991
-0.08135286
-0.078969084
-0.123704165
0.010875566
-0.09017542
0.072653
-0.43296412
-0.0011133461
-0.07904099
-0.29532912
-0.36435235
0.16457658
-0.014514764
-0.08294316
-0.08058049
-0.07760252
0.17948103
-0.33182052
0.11351301
0.23370758
-0.16701661
0.26244345
0.14260234
-0.06968746
0.050407898
-0.3410465
-0.16201624
-0.0678581
0.4055984
-0.27563313
0.17489104
-0.18003173
0.058849037
0.13266498
-0.40493935
0.05106976
0.2244247
-0.057062168
0.3919015
0.26346704
-0.12611328
-0.060847215
0.33364618
-0.07552043
0.0030585702
-0.0634509
-0.20783782
0.062945515
0.2715395
-0.250847
-0.010441759
0.19226384
0.17349878
-0.029941894
-0.42994466
0.11279105
0.040313106
0.1694104
-0.24421065
-0.21159251
-0.25522685
0.053813312
-0.08531829
-0.48016948
-0.099596776
0.0011219084
-0.3274599
0.006866804
-0.043334935
-0.04930036
-0.16809832
-0.014626577
-0.12959643
-0.0069727222
0.010171931
0.27126506
-0.07399107
0.15570371
0.010132721
0.17168297
0.03115705
0.017952353
0.4306624
-0.27788073
0.09187483
-0.39231896
-0.49389386
-0.10942578
-0.3792718
-0.14777979
-0.37714726
0.29355985
0.15740855
0.10327508
-0.0017596707
-0.4396456
0.24515028
0.0020971051
-0.13345723
0.11893986
0.34205043
0.057392936
0.03340252
-0.13239042
-0.07687432
0.11720326
0.10336891
0.2088788
-0.1586002
-0.25685078
-0.3863528
-0.06537932
0.011357357
0.075667724
0.3727794
0.22275575
-0.046231028
0.07366479
0.13338749
0.6597529
-0.23621812
-0.2845542
-0.17405106
0.056192484
0.07905199
-0.49000308
-0.09480235
-0.4617912
0.20445833
0.16880554
-0.30959085
0.1896119
0.035816293
-0.11137674
-0.44452852
0.027871102
0.1084266
-0.47360787
-0.3603111
0.034477483
-0.03208838
0.4174981
0.034196414
0.05046296
0.009399427
-0.14034681
0.2930863
0.23280177
-0.42906097
-0.18342397
0.04692433
-0.102073446
-0.08978478
-0.25480372
-0.1719902
-0.68250114
-0.03441023
-0.22515288
0.005444725
0.049381368
-0.013433889
0.1989022
0.17583819
0.052195884
0.16424525
-0.2588671
-0.07681574
0.11877999
-0.23989117
-0.42033508
-0.18787125
-0.090611175
-0.1727365
-0.14186552
0.23784247
0.123009115
0.22902828
-0.78377604
-0.36022502
0.18919966
0.23905885
0.0013584116
-0.046040274
-0.1836936
0.02041365
-0.05735852
-0.77950513
-0.38462794
-0.63724524
0.24056692
0.022635197
-0.42384303
-0.20044288
0.013754889
-0.057969216
0.15091132
0.060401835
-0.14162299
-0.3520773
0.25920343
-0.3548365
-0.37642384
0.22769028
0.19926435
-0.052960627
-0.08818866
-0.33048528
-0.119561136
0.08386879
-0.5335864
0.004925062
-0.28194767
0.17631665
-0.55464286
0.089035206
0.025650345
-0.028109893
0.18385065
-0.22418074
0.22871286
0.092068575
-0.21209452
-0.04781464
-0.10532502
0.08455862
0.15172645
-0.11260856
-0.052405294
0.72519433
-0.067563
0.015031831
-0.038063016
-0.095485926
-0.12295272
-0.036782373
0.24080133
-0.34973422
-0.28898445
-0.10100129
0.04185742
-0.16216885
0.028545514
0.079413906
0.1620208
-0.19832195
-0.15687647
0.044663366
0.0559286
-0.27154475
-0.10761358
-0.13115622
-0.078528486
-0.28434175
-0.28178105
-0.08479127
-0.38447618
0.25736687
0.17016816
-0.4344942
0.17764688
-0.21130687
-0.052521434
-0.73672855
0.04402791
0.009136799
-0.19726786
-0.21827376
0.32841364
-0.14588954
0.1313134
-0.091930896
0.36586165
0.170248
0.049573936
0.555393
0.15873905
-0.31643945
-0.25328553
-0.046928458
-0.22348931
-0.22014546
-0.16960283
-0.08010158
-0.3784763
-0.0013919063
-0.13332032
0.05828114
-0.083784536
0.03560833
0.064167246
-0.12168318
-0.075916946
0.15658331
-0.16745335
0.04784137
-0.032765426
-0.1482467
-0.35771376
-0.3557786
-0.045610763
0.21447776
0.086696155
0.16935873
-0.050244153
-0.11165304
-0.624412
-0.26439354
0.0900566
0.21318968
0.022182323
0.08973766
-0.3617917
-0.009451455
0.06253185
-0.79968446
-0.47929966
-0.52663404
0.20954785
0.3035184
-0.09077817
-0.23537296
0.050802045
-0.27735946
-0.06276136
-0.29721493
0.12738518
-0.20313938
-0.18390872
-0.17830975
-0.43497068
0.07416298
-0.06612829
-0.052335583
0.0006311401
0.08082899
0.049181797
0.16670232
-0.39935088
0.14830633
-0.32202744
0.064527154
-0.4265962
0.030575698
0.0474831
-0.054446764
0.46244478
-0.33086523
-0.010037822
0.036130544
-0.11246577
0.0632697
0.059308022
0.10713497
0.047219872
0.048930254
-0.027796397
0.5505161
0.045074593
-0.0059657358
0.027878556
0.0022552093
0.07294912
0.039546
0.0396313
-0.40998322
-0.06955955
-0.0049945186
0.12309971
-0.2039288
-0.12673846
-0.15187874
0.2569704
-0.1958616
-0.1697057
-0.16910748
0.16656625
0.21704984
0.035292443
-0.06783098
-0.16249314
-0.28936386
-0.4987881
0.023999311
-0.14128758
0.13631997
0.16205974
-0.10886773
-0.0018329859
-0.14799611
0.15134133
-0.6195436
0.03228196
0.030948777
0.052619696
-0.18446523
0.34641093
-0.38991123
-0.44397905
-0.057394594
0.020958567
0.16204666
-0.058690723
0.2957082
-0.19260222
-0.11459821
-0.21500611
-0.040733516
-0.14577016
0.23633064
0.1314709
-0.013686496
0.11775552
-0.24656673
0.121855825
-0.3607219
0.2939915
-0.038100995
0.045956463
-0.14972791
0.058560647
0.027786745
-0.14031602
0.017578822
0.19671963
0.40327847
0.0077967444
-0.7744305
0.17151041
0.4071768
0.2662992
-0.08114415
0.25117773
-0.34262618
-0.6847494
-0.43307906
-0.10415846
-0.2518756
0.031410087
-0.14154485
-0.42168453
-0.009984553
0.12198917
-0.52823037
-0.43086946
-0.45548755
-0.12915777
0.24065763
0.5215536
-0.035489034
0.018630922
0.041094687
-0.15660769
-0.51530033
0.17600751
0.23876089
-0.65841645
0.39532635
-0.7286226
-0.086584404
0.05960887
-0.0460711
0.17319913
0.36292106
0.29212543
-0.4485056
-0.5836332
0.29332635
0.0016749843
-0.19909151
0.10503053
0.21969946
0.3063447
0.019716183
0.014153239
0.013145282
-0.25353923
-0.00032970542
0.21939737
0.04136904
0.2640179
-0.07216452
0.022579998
0.050162997
-0.19254132
0.09933939
0.10533033
0.03236801
0.05023015
-0.048414405
0.13108815
-0.072736986
-0.33814052
0.10113284
0.28405145
0.22853626
0.19684716
0.45277524
0.08223335
-0.49035123
0.01195323
-0.3279002
-0.36414608
-0.08337254
0.5087987
0.33943537
0.24541725
-0.28100106
-0.16506097
0.05464032
-0.38958704
-0.03895473
-0.08976195
-0.23874556
-0.35039234
0.112160735
-0.28010258
0.11354922
0.20424618
-0.38529873
0.17326605
0.05625354
0.31054133
-0.012065352
0.1375627
-0.018186195
-0.14155722
-0.057647545
0.07925174
0.22433661
-0.113847464
0.023479188
-0.049199585
-0.26117578
0.00063014345
0.19690698
-0.11666863
0.13766286
0.244821
-0.04880071
0.15489298
-0.09464347
-0.077214286
-0.31510052
0.18936181
0.06707805
0.25468978
-0.120973475
0.023424886
0.06636666
-0.22012603
-0.16942592
0.285508
0.28548402
0.27896193
-0.9364329
0.25905377
0.22042376
0.12627551
0.025465544
0.016279504
0.07438045
-0.378403
-0.42465618
-0.27730507
-0.24053356
0.024169262
0.0090020355
-0.42895573
-0.06969755
0.16295786
-0.21533161
-0.2115156
-0.065454915
-0.036010545
0.09511035
0.2062263
0.021387976
0.063704565
-0.01947123
-0.030182304
-0.16215539
0.20259961
0.17949095
-0.43395174
0.2517427
-0.4409883
-0.08739062
-0.037580736
-0.023568664
0.15927102
0.08537929
-0.07812826
-0.36211213
-0.56243485
0.2754345
0.27818766
0.007542356
0.13981716
0.20256741
0.17514908
0.14233774
0.18264723
-0.085966155
-0.47451618
0.14927118
0.14580628
-0.038938146
0.10985852
-0.25339863
-0.023224875
0.10738769
-0.11523707
0.27672032
0.24730337
-0.08899746
0.02880989
-0.07162951
0.107617415
0.010331313
-0.3700718
0.30551663
0.3462918
0.14725108
0.051124867
0.45369455
0.17954361
-0.3192288
-0.018387897
-0.032898907
-0.20460808
0.17377244
0.12720984
0.057295345
0.13487689
-0.19198197
-0.34391043
-0.077821866
-0.008630523
0.026086753
-0.103733234
-0.13761462
-0.20335335
0.079548
-0.015860172
0.0050059794
0.055531498
-0.3621226
0.17562148
-0.07016147
0.22874862
0.12904118
0.10708561
0.21070565
0.18770793
-0.047354233
0.14027329
0.14460929
-0.17605041
-0.01060699
-0.0407357
0.022484075
-0.023879288
-0.1597573
0.11973356
0.023142986
0.122149795
-0.17858842
0.25567555
0.0142611535
-0.09952831
-0.112759694
0.027293332
0.029837161
-0.09692968
-0.12821817
-0.052448213
-0.10114219
-0.20400152
0.026235558
0.15325882
0.18199813
0.2738754
-0.55685765
0.19243681
-0.075259335
0.022736143
-0.01365545
0.14655615
-0.05559525
-0.20790957
-0.35847473
-0.4476533
-0.24013929
-0.077522464
0.15428722
-0.26769054
-0.10234591
0.22295433
-0.20940252
-0.014359185
-0.012226468
0.104489274
-0.035743613
0.091432124
0.13642523
-0.046440374
0.07987366
-0.030147932
-0.0025046607
0.086013004
-0.030652573
-0.2690451
0.12300387
-0.12776409
-0.12067847
0.118492536
-0.003024273
0.20139788
0.06592552
-0.15048558
-0.008369514
-0.11108569
0.06760457
0.26486257
-0.015395704
0.032945283
0.07969449
-0.043844517
-0.05828491
0.10416678
0.17182322
-0.5283381
0.16818812
0.13652778
-0.026661694
0.047214057
-0.204135
-0.044518687
0.037974212
-0.03892446
0.07561685
0.07139145
0.054924197
-0.06717106
0.022383312
-0.015886484
-0.04670785
-0.6241609
0.24059258
0.014576313
0.09352706
0.034336757
0.09617747
0.15892674
-0.10686799
-0.025843486
0.22141947
-0.05208581
0.16267034
0.15178041
0.063818134
0.079553485
0.024620874
-0.012802402
0.003754097
0.19757168
-0.0693198
0.15504679
-0.036867578
0.04904805
0.06542992
0.1330123
0.17798103
-0.037563525
0.1341726
0.23863436
0.026368069
0.037301656
0.09374177
0.19087167
0.065807395
0.14835791
-0.036978
0.21714303
0.2163563
-0.02701403
0.12643138
0.06416422
0.18753096
0.06548298
-0.2677642
-0.07754447
0.13412969
-0.080370404
-0.12948872
0.11548343
0.30640438
0.056449737
0.07006124
0.12332283
-0.009271979
-0.04214558
-0.17838989
-0.08159325
-0.091421336
-0.03454083
0.26793566
-0.09645115
0.056158524
0.033883113
0.10371691
-0.13247348
0.17257144
0.19695641
0.18137343
0.095549025
-0.18299578
0.12767068
0.12989917
-0.12854904
0.12602644
-0.09398659
0.13979256
0.17965141
-0.07113027
0.1765717
-0.3048151
0.05504882
-0.0029940717
0.30373898
0.15799426
0.0500168
0.11679355
-0.03518878
0.09317643
-0.08578759
0.21942694
0.03336466
0.13995695
-0.48158687
-0.024672687
-0.16805808
0.123418204
0.03653666
0.022582453
0.23804921
0.05623237
0.07839297
0.1619663
0.20447676
-0.11700004
0.038506024
-0.063898236
0.10483792
0.025973013
-0.0220116
0.07446992
0.062132698
0.25047565
-0.6017233
-0.040940765
0.029132757
-0.047964554
-0.0771433
0.02977152
0.006484406
0.16462238
-0.104288876
-0.033210393
0.04705607
0.055038676
-0.058020394
0.1418299
-0.1807259
0.20026876
-1.1290663
-0.074038975
0.02270407
0.10275858
-0.0011506915
-0.21967967
0.0027863341
0.0646208
0.31279325
0.208781
0.42972237
0.023272812
0.16891544
0.14046033
-0.022054976
0.094573505
0.15147306
-0.18464604
0.17649658
0.015924407
0.29773906
-0.09888131
0.13844056
0.08034808
0.13531162
0.08155037
0.13535437
0.15623266
0.19767554
-0.007875792
0.04306647
0.20097153
0.09429784
-0.10781783
-0.14137721
0.018057834
0.120100625
-0.10146463
-0.11160873
0.12460846
-0.072504476
0.36039272
0.078807384
-0.40845308
-0.17306961
0.19326454
0.12332293
0.056548983
0.03830149
0.055472806
0.16311172
0.20507495
0.15161602
0.033745877
-0.24620073
-0.07500129
-0.087418176
0.119620435
-0.09498702
0.31156898
-0.08595772
0.252954
0.16301799
0.20935962
-0.058833674
0.014824137
-0.07831046
0.18102784
-0.105516516
-0.08480738
0.28205246
0.23297337
-0.39432138
0.029814495
0.04012266
0.11098366
0.13528103
-0.15928972
0.07577658
0.010306176
0.029793212
-0.17196575
0.2415863
0.19156303
0.15938996
-0.092581056
-0.0027105727
0.16753443
0.11115848
0.12392179
0.039938934
-0.08485297
-0.21627781
0.068085894
0.10390139
0.16237538
0.1350372
0.0068691554
0.016621314
0.1765019
0.20990631
-0.09692886
0.22902527
0.07891463
0.24456447
-0.018272124
0.10826989
0.16576238
0.09923115
0.30771205
0.053421095
0.23067617
-0.5109455
-0.35807094
0.18827182
-0.020064244
0.033611555
-0.083496034
0.026119
0.38206092
0.05672891
-0.19955063
0.08373369
-0.080038406
-0.017445065
0.20341791
-0.25904742
0.14025225
-0.8318829
-0.05870767
-0.047803223
0.23353112
0.17002472
-0.07453546
0.002035168
0.017126454
0.058391415
0.21134116
0.13020185
-0.20107654
0.2015152
0.2607484
0.022877391
0.2997401
0.06600522
-0.31753588
0.11784526
0.10524965
0.42932913
-0.15339795
-0.04132419
0.21253711
0.2206843
0.22645935
0.0010986498
0.021862555
0.38551456
0.034464043
-0.24973316
0.19340354
0.16766268
-0.11571963
-0.08150678
0.023025973
0.047434624
-0.11983504
-0.07744143
0.16959724
-0.30149448
0.30838403
0.046998754
-0.2634964
0.009418215
0.27206582
0.1855803
0.19969173
0.17209442
-0.105122656
0.19491568
0.16327451
0.13392343
-0.025873214
-0.1363303
-0.23900327
-0.014840466
0.12096668
-0.012649897
0.3051277
0.06593564
0.22388308
0.20039107
0.15946686
0.16578214
-0.17778583
-0.06621547
0.11615482
-0.032763112
-0.0004352346
0.19355807
0.29857555
-0.41530478
-0.14807492
-0.038383488
-0.03314368
0.0866367
-0.25923476
0.14594378
0.11206972
0.095343366
-0.0690828
-0.05311003
0.26990125
0.3688528
-0.04294909
0.03394937
0.08249571
0.009462058
0.31023285
0.13824332
-0.22732049
-0.1731066
0.24925959
0.18892047
0.12389781
-0.044528037
-0.07536419
-0.080061525
0.14145069
0.122208975
-0.23960637
0.23412286
0.27970305
0.41005751
-0.22908446
0.11191875
0.2617199
0.16695194
0.3571118
0.051542375
0.27513665
-0.32091185
-0.30556333
0.291031
-0.05012609
0.15184692
-0.15250716
0.0051080994
0.4724236
-0.09980684
-0.32600883
0.07715364
-0.019780906
0.10583688
0.24443522
-0.3022455
-0.033193897
-0.82758904
0.2177202
-0.07427299
0.31750724
0.17552263
-0.094300434
0.005218513
0.09246236
-0.017486183
0.28088835
0.020084156
-0.14485824
0.1147968
0.24083775
0.13912672
0.28969103
-0.015072627
0.10470946
0.21432093
-0.07047991
0.4603571
0.04527925
-0.07647605
0.25158837
0.15634847
0.35626557
-0.1746772
0.011552024
0.35182363
-0.054469366
-0.25322092
0.29355326
0.10722159
-0.05506146
0.117975704
0.06445462
0.24273229
-0.08215585
-0.07591579
0.1588598
-0.16393733
0.1448271
0.12782152
-0.43440902
-0.09402713
0.1399625
0.14815862
0.06479442
0.25505757
0.21408118
0.13061449
0.20341884
-0.014427378
0.0311376
-0.13424146
-0.12534586
-0.030533541
0.028603526
-0.02623602
0.08265133
0.07925499
-0.046935212
0.16390623
0.2576944
0.0021987548
-0.069071874
-0.038708523
0.31327784
-0.11683047
-0.16794139
0.21652623
0.28833786
-0.16759549
0.0089548845
0.024835413
0.11137879
0.1583302
-0.15799531
-0.003725642
0.015041347
0.14431806
-0.022454165
0.29281983
0.20891759
0.06959611
0.12393532
-0.036335032
0.14761114
0.064160235
0.16104558
0.20181464
-0.14709237
0.03613638
-0.006395228
0.17235565
0.045027334
-0.1600612
0.029593186
-0.10470745
-0.021749139
0.106779166
0.009511209
0.2579095
0.005190561
0.29349077
-0.091718405
-0.08760402
0.30181792
-0.03472704
0.26163727
0.09829292
0.20509367
-0.4692531
-0.3543336
-0.00180061
0.018409703
-0.051083922
-0.17174284
0.048423823
0.45481923
0.041274343
-0.06060252
0.24567717
0.025409259
-0.13517672
0.078077346
-0.2724904
0.1769559
-1.0430607
0.0116199935
-0.029084522
0.1511346
0.111084625
-0.26394778
-0.0955075
0.0012195841
0.07598631
0.37113225
0.26860374
0.22432116
0.07972496
0.09144165
-0.025875865
0.20927249
0.12210822
-0.09844655
0.36145207
0.06228683
0.1894573
0.014709099
0.23619093
0.093848586
0.2096406
0.3006008
-0.119846694
0.35693038
0.14858374
-0.003299145
0.13584259
0.21900153
0.20938855
0.1324832
0.101955436
0.06839745
0.06192915
0.030663148
0.006466023
0.07511544
-0.09002434
0.061912443
0.06116587
-0.5221359
-0.0044534407
-0.12196487
0.22020128
-0.011848825
0.03238561
-0.04863581
0.10076282
-0.2285171
0.19088306
0.035214618
-0.0034892634
-0.011187982
0.022496875
-0.015357216
-0.09630858
0.05441716
0.12629469
0.21371838
0.10881209
-0.2536942
0.1380757
0.10455197
-0.05097526
0.22678204
0.084982865
-0.16088887
-0.06359779
-0.028702883
-0.4193716
-0.10786927
-0.09336987
0.22777623
-0.12505305
-0.20554328
0.1536703
-0.14433746
-0.093877986
-0.133997
0.097177885
0.1315068
0.04950505
0.31484303
0.011214859
0.057277367
0.026601546
-0.019317219
0.11762162
0.02457261
-0.12485155
0.21025188
0.17728125
0.010338552
0.026048083
-0.08517867
0.06904703
-0.20756534
-0.18566917
0.07471367
-0.17864329
-0.110109605
0.17665425
0.15572785
0.1347974
0.115341
0.08692089
0.13866489
0.05008805
0.2154948
-0.5344098
0.12198238
0.3174473
-0.017007297
0.09859548
-0.2798082
0.06877241
0.24254665
-0.021344418
0.05600294
0.07837398
-0.0053474316
0.02329829
0.018174523
0.118121356
0.0373955
-0.9425766
0.23071237
-0.08466132
0.19968691
0.20303826
-0.030776458
0.065125175
-0.124390736
0.18961868
0.3434394
0.15184851
0.12866062
0.07903558
0.10818304
0.09724535
0.1253658
0.06576735
-0.15414183
0.32363197
0.017073486
0.19941778
-0.074206926
0.13606498
0.23320101
0.22512376
0.18242186
0.055591706
0.3347462
0.36961406
0.00645081
0.4348041
0.12899514
0.080774985
-0.044769417
0.111759916
-0.024973521
0.12295284
0.24258655
-0.1623801
0.07871867
-0.114464305
-0.16494898
0.020294469
-0.58684945
-0.2477911
-0.13244706
0.2599994
0.013266003
0.035062883
-0.11758219
-0.11806606
-0.59123766
0.2528675
-0.055553712
-0.0969102
0.16320263
-0.0050466163
-0.18131244
-0.35100007
-0.057932064
-0.15199088
0.36251318
0.23837371
-0.9221253
0.42276517
0.19990076
0.019470256
0.10190132
-0.08367538
-0.11705268
-0.3784637
-0.41921082
-0.33380944
-0.21427709
0.03600237
0.18841141
-0.19739725
-0.1808905
0.026791723
-0.2264529
-0.26907212
-0.0850234
0.040721655
-0.033616267
0.23630089
-0.08544302
0.05038849
0.15224546
0.0166392
-0.042812075
0.20378888
-0.011305723
-0.37267417
0.29738015
-0.054728687
-0.19589792
-0.08926914
0.068263866
0.13470171
-0.14095744
-0.18341014
0.0011440424
-0.647335
0.09119298
0.24406037
0.042307105
0.1724474
0.13580951
0.17528868
0.05504922
0.08597123
0.106406875
-0.4983301
0.20471005
0.35168353
-0.04659199
0.2525812
-0.4405777
-0.0051750466
0.06993547
-0.03680407
0.14522067
0.04124636
0.041115575
0.010660223
-0.06382493
0.24243774
-0.06653598
-0.6352978
0.34002656
0.1365115
0.061867468
0.15666817
0.3995932
0.33883694
-0.29538164
0.10985402
0.21088804
-0.26762038
-0.014132937
-0.1306832
0.21401745
0.2493338
-0.14315443
-0.40856493
-0.053699628
0.09748461
-0.09600564
0.031394854
-0.030149333
-0.065165274
0.17828226
0.22498627
0.12616779
0.11018328
0.04951819
0.24472772
-0.058662023
0.19904032
0.124486126
0.13118596
-0.31209058
-0.17444359
-0.034146767
0.15338692
0.2881824
-0.06082078
0.047987625
-0.084158264
0.042725172
-0.19710237
-0.42781377
-0.2032242
-0.019027138
0.1888918
0.12230497
-0.018541735
-0.50580245
0.1563075
-0.41527474
0.17150037
-0.06831615
-0.082773805
-0.015640972
-0.033249926
0.15010001
-0.29172918
-0.051942017
0.072456494
0.27782065
0.2676672
-1.2155094
0.21532495
0.30069497
0.021557473
0.039943047
0.0027659994
-0.31238505
-0.78846246
-0.5209889
-0.15538177
-0.05746063
0.001974134
0.11350067
-0.4786904
-0.0398616
-0.06372782
-0.3724814
-0.6317351
-0.122337386
-0.27975708
0.13471037
0.3807402
-0.23629113
0.06685594
0.001381229
-0.15839148
-0.21316925
0.09185871
0.15391628
-0.33025098
0.49553823
-0.1824652
-0.16278087
0.024638971
-0.046417076
0.15148847
0.26590014
0.31676584
-0.2950155
-0.6786532
0.21411794
0.3132793
-0.03469567
0.28079668
0.18180358
0.18869829
0.054238167
0.21179217
0.007081933
-0.27548993
-0.026428705
0.3742526
-0.020925516
0.22757348
-0.3153242
0.10864146
-0.0147029795
-0.028829906
0.16089086
-0.11321859
-0.011566605
0.17067537
-0.013751132
-0.03701816
0.019568052
-0.46636203
0.16928399
0.11987909
0.12109774
0.09015693
0.35628107
0.26178882
-0.39346212
0.07618134
-0.2110662
-0.37043956
-0.089335494
0.07721996
0.33497846
0.41690224
-0.23515971
-0.33495188
0.005939508
-0.32411543
-0.061523344
0.16741295
0.030487554
-0.20565158
0.26062402
-0.07381136
0.028401421
0.06838521
-0.065413825
0.28380394
-0.05841228
-0.15324165
0.16745651
0.17721064
-0.50874645
-0.099842064
-0.098283336
0.1556392
0.1455419
-0.11185116
0.12047524
-0.049990416
-0.059186727
-0.14568323
-0.39448342
-0.29912257
-0.19793533
0.1399692
0.26111335
-0.46642202
-0.3345667
-0.034046587
-0.10516104
0.21268475
-0.0030553713
-0.019464878
0.10736106
0.05353825
0.1675712
-0.30739266
0.0022888996
0.17634177
0.053558998
-0.14224815
-0.59768736
0.06868736
0.3522789
0.10782469
-0.05358011
-0.10249729
-0.013480846
-0.61265373
-0.4548228
-0.07184706
-0.09681481
-0.037685957
0.0298625
-0.3415527
-0.10884668
-0.11765079
-0.49773133
-0.44497982
-0.527642
-0.23986226
0.13786677
0.10853861
-0.16349636
-0.078792065
-0.20404674
-0.20034522
-0.59619594
0.049704205
-0.034301654
-0.16155988
0.15916608
-0.15340446
0.011877999
0.15539405
0.070819885
0.10227113
0.14020604
0.24288417
0.03684747
-0.36948556
0.03201181
-0.032283716
0.23599376
0.12268166
-0.10781875
0.16032735
0.12834568
0.23212057
-0.07711115
-0.17053737
0.0050901882
0.22187907
0.0039111897
0.10227212
-0.32124713
0.12011132
-0.051799726
-0.16894746
0.20593828
-0.23744541
0.026186444
0.18608068
-0.13296555
0.110383034
-0.061004035
-0.3366924
-0.020744937
0.016268
0.09180132
0.19458726
-0.13258149
0.07964399
-0.39525744
0.080771744
-0.04448692
-0.38721123
-0.109862946
0.13964678
0.20405608
0.34779304
-0.18289459
-0.21909586
0.03339113
-0.47078788
-0.07575088
0.1373941
0.018586032
-0.0013893069
0.055700634
0.124510236
-0.07712642
0.13578126
-0.038393997
0.29261085
0.053063363
-0.5308148
0.23850414
0.13092263
-0.111428306
0.1545192
0.0551597
0.3226835
-0.024641918
-0.2266141
0.17648691
0.07604915
-0.29828396
-0.05081867
-0.2428028
-0.2697013
-0.45914772
-0.009548439
0.1202938
-0.6178955
-0.06664161
-0.23251349
-0.09796461
0.019659447
-0.062660836
-0.06658554
0.092105836
-0.01773306
0.1659766
-0.28100547
0.06343795
0.122301735
-0.06546738
-0.24146034
-0.14751607
0.06965332
-0.13058676
-0.2846782
0.11865195
-0.03913501
0.22446975
-0.42319518
-0.32064614
0.15083335
0.12898363
-0.1001438
0.092393115
-0.16107926
-0.19598028
0.046734396
-0.9911536
-0.6381634
-0.30848542
0.092876144
0.02221362
-0.3581023
-0.08705739
0.071990244
-0.16100511
-0.11535048
-0.19692226
-0.061030976
-0.28620893
-0.119778
-0.1628839
-0.14511505
0.26795292
-0.0659579
-0.028633151
0.1524255
-0.10210935
-0.021400876
0.18852529
-0.4954368
0.009490608
-0.049808905
0.232525
-0.39396006
-0.30580518
-0.16738625
0.14701553
0.54925996
-0.27189073
-0.07175123
0.07900627
-0.10077962
-0.0027046956
-0.13685207
-0.17195074
0.03144321
0.24446067
0.0438225
0.5177106
0.025580784
0.0058668135
0.20454612
0.0007732836
0.048899543
-0.051687844
-0.20116577
0.025107535
-0.09558336
0.2696593
0.09303937
-0.4426139
0.102354996
-0.31871635
0.15093356
0.1978282
-0.09470427
-0.2746644
-0.22220604
-0.29674277
0.1445415
0.09381218
-0.122407384
0.12753735
-0.2415382
-0.11472392
-0.09438154
0.46345234
-0.0054501616
-0.19602436
0.22677135
-0.24746203
-0.21398963
-0.4568905
0.2555692
0.093416974
-0.17836885
0.19037609
0.023576008
-0.18580368
-0.18520206
-0.06538745
0.20054576
0.05432985
-0.36639348
0.09222188
0.24424103
-0.25295964
-0.009061533
-0.17483771
0.0031268476
-0.16659635
0.1016812
0.17182812
-0.4590779
0.12335678
-0.18605143
0.0354931
0.10329945
-0.0032091243
0.028906014
-0.05348828
-0.0057058237
0.2720297
-0.19821894
-0.043391503
0.25992686
0.29168156
0.0038071717
0.120464265
-0.062149003
0.13340318
-0.07860386
-0.025872536
0.053969584
0.045013096
-0.22203462
-0.33205363
0.25421187
0.07323122
-0.064959645
0.11641557
-0.17616059
0.01230685
0.112692885
-0.74604714
-0.43900537
-0.23290059
-0.19962414
-0.06343113
-0.40015265
0.1743541
0.006084718
-0.21396399
0.17121142
-0.238908
0.030598786
0.03885165
0.020669632
0.02626322
0.1850728
0.33108726
-0.06952072
0.037862856
0.13334002
-0.08050039
0.09509144
-0.0922554
-0.26230463
0.22904551
0.0063544987
0.25453907
-0.30243772
-0.2541553
-0.010458846
-0.10952884
0.08694701
-0.23635417
-0.13605212
0.071309954
0.18603046
0.058279566
-0.20548046
0.12650038
0.09288136
0.25957316
0.117831044
0.22018498
0.15470344
-0.013897456
0.36956784
0.08836552
0.14982185
0.15131775
-0.08788246
0.020671053
-0.050827853
-0.008141452
0.09168369
-0.10341842
0.18062676
-0.032615613
0.046004497
-0.2275614
-0.16203858
0.20985575
0.3865907
-0.06691812
0.096717134
-0.02897011
-0.17631383
0.11085461
-0.3372219
0.00984525
-0.10072718
0.3775967
-0.078507975
-0.16434056
0.10385158
-0.062121388
0.02948925
-0.46101373
0.27702865
0.048387166
0.14224018
0.024040114
-0.20208572
-0.38533607
-0.46271506
0.065214
0.2900322
-0.19450147
-0.37585387
-0.034540825
0.052082323
0.03504599
-0.09295396
0.048695203
0.20734654
0.009654131
-0.14321029
-0.19658387
-0.2643858
0.31782478
-0.40247047
0.17295824
0.27513492
-0.0669697
0.029378034
-0.23098654
-0.011219192
0.46371803
-0.15052158
0.10104521
0.352923
0.17388214
0.41917327
0.53144985
-0.31856415
0.46942845
0.09572739
-0.20845501
-0.0631174
0.09375528
-0.043535944
-0.012868191
0.23321329
-0.16824563
-0.08112071
-0.21621962
-0.11928527
-0.06758472
0.1019768
-0.38564003
-0.19970533
-0.15018018
-0.2800112
0.06520879
-0.454378
0.338289
-0.078406245
-0.07668493
0.13914166
-0.31178144
0.08702171
0.3109835
-0.12732571
0.07346681
0.13363263
-0.062132403
-0.06407129
-0.05189001
0.32872793
0.09663704
-0.1872639
-0.1451312
-0.23904313
0.11981659
-0.2616293
0.46358886
0.31926978
-0.24345267
0.04108317
-0.28875586
-0.08009647
-0.16359034
0.060724046
0.030860495
0.29789045
-0.065819375
-0.22150603
0.2509356
0.061290275
0.100937895
0.24763486
-0.21780701
0.1631923
-0.08270265
-0.03190717
0.02202643
0.10268184
-0.18124522
0.3001397
0.21551724
-0.095469154
-0.05568614
0.030613948
-0.3417562
-0.22403246
0.07860829
-0.035380516
-0.033622876
-0.177105
0.32984
0.3479358
-0.090574205
-0.019377751
-0.034285806
-0.08365097
0.065337025
-0.088686995
-0.013245072
0.15380633
0.25256625
0.003932183
0.036127124
-0.044324886
-0.3822956
-0.17699155
-0.2909099
0.39941213
0.041840643
0.2334596
0.15755704
-0.10948309
-0.44402584
-0.34239995
-0.06518595
0.51797605
-0.34139356
-0.18496616
-0.11966124
-0.016465206
0.053558033
-0.005439742
0.11372103
0.18139435
-0.031948928
-0.6379338
-0.3860617
-0.15495263
0.31009382
-0.41253453
0.34577388
0.12064645
-0.023425084
-3.4075267e-05
-0.08104997
0.04962034
0.35957745
-0.0038771331
-0.08128251
0.18091558
0.28381854
0.15143284
0.25337622
-0.52888745
0.47079882
0.005544172
-0.28674275
-0.14678131
-0.0019568258
-0.10189789
0.07781074
0.44681093
-0.30609086
-0.010328781
-0.28243348
0.384572
0.03924718
-0.21624564
-0.31670272
0.2819399
0.12306764
-0.17473213
0.09185916
-0.31675145
0.2727697
-0.017667025
-0.11071633
0.26575187
-0.23539926
0.0013874728
0.27892813
-0.1821822
-0.22455627
-0.04083895
-0.3954403
-0.11163938
0.03946177
0.24919975
0.032285947
-0.064502105
0.11849723
-0.13812923
0.22137722
-0.5356216
0.2804507
0.2872712
-0.49515438
0.11351999
-0.36584398
-0.14084566
0.28102624
-0.018723233
-0.19508697
0.2761225
-0.06965004
-0.10059703
0.2930957
0.13046885
-0.052628584
0.16555476
-0.38837802
0.03212577
0.009126126
-0.21331792
-0.05352701
0.28834584
-0.43746296
0.008886441
0.072453626
0.15208836
0.021955688
-0.20533007
0.0044109337
-0.575633
0.015885483
0.12735406
0.053186804
-0.23341627
0.21228704
0.13205095
-0.09710857
-0.009356481
0.1825086
-0.17469709
-0.18658844
-0.07256452
-0.10735479
-0.034955483
0.16109383
0.05044856
-0.10942811
0.11101709
-0.048870046
-0.20977001
-0.1102939
0.40819618
-0.016484063
0.035298992
0.20905246
0.06646788
-0.55713266
-0.054685514
-0.044591952
0.38684687
-0.10380716
0.08219482
0.06335601
0.09336191
-0.015222881
-0.15555912
-0.066777796
0.1998774
0.12796547
-0.3733296
-0.41718808
-0.14421226
0.4360236
-0.13499185
0.29616782
-0.10196008
-0.074157834
0.07882104
0.09107946
-0.017292
0.29743925
-0.20929086
-0.16657704
0.05847182
-0.41583037
-0.025558809
0.26812875
-0.38064975
0.28346187
-0.13485123
0.0022846996
-0.17979579
0.1419414
-0.17154656
0.08327832
0.6019456
-0.044779725
-0.049954668
0.12304734
1.0180242
-0.15204811
-0.2182866
-0.23800471
0.0559304
0.14244618
0.011686941
0.016554948
-0.1240461
0.13556492
0.0064821243
-0.06217576
0.14312266
-0.15423678
-0.16746491
0.07357882
-0.29597223
-0.22970667
-0.07966748
-0.16914001
-0.087518685
-0.05752078
0.2732824
-0.11058226
-0.07205134
0.2377975
-0.412108
0.17303757
-0.2852028
0.12263502
0.155674
-0.30953544
-0.027321208
-0.53007305
0.112505354
0.1524779
0.30089968
0.2817182
0.24330819
-0.016879551
-0.24126779
0.3795098
0.13887425
-0.050336663
0.40684015
-0.025580881
0.019439649
-0.049078103
-0.26463512
-0.16293038
0.080384515
-0.07966257
0.2766135
-0.09712222
-0.04357059
0.24301326
-0.0749331
-0.403725
-0.41720504
-0.04112738
0.066245906
-0.03293591
0.03419043
0.06597892
-0.01568957
-0.08141475
-0.21598679
0.24072208
-0.012438049
-0.0490036
-0.10947458
-0.07740852
0.2407734
0.19553015
0.014325536
0.07702237
-0.12623526
-0.008442377
-0.35325515
-0.35633886
0.06274927
0.07774564
0.11485802
0.052412163
-0.092255384
-0.4101641
-0.09514694
0.060392193
0.3732446
-0.13900805
-0.20655595
-0.030911269
0.029933387
0.05065204
-0.1040151
0.07539898
0.25125238
0.18445311
-0.23453104
-0.17832854
0.01646353
-0.009594392
-0.1287495
0.10273583
-0.1280613
0.0043803155
0.30621648
-0.06658695
0.019862115
-0.04501826
-0.17738132
-0.39581665
0.20606104
-0.68400747
-0.16311575
0.06986896
-0.07070651
-0.13455546
-0.16117953
-0.062069096
-0.07549661
0.12888446
-0.025678085
-0.17680137
0.6373723
-0.17960781
-0.024556454
-0.108848594
0.57530063
-0.06431792
0.03579802
-0.11498105
0.12805864
0.11930952
-0.14246653
-0.13866283
0.031196024
-0.034974866
0.0067777857
-0.21384
0.17987116
-0.12564102
-0.040797394
-0.2987934
-0.20542328
-0.13924927
-0.070120916
0.04921092
-0.008618709
-0.072154984
0.16528095
-0.238577
-0.05488824
0.24595383
-0.24227136
0.15417285
0.039070223
0.002195253
-0.09848927
-0.4008778
0.0030458737
-0.17449306
0.04460024
0.24877593
0.38365823
0.30132723
-0.01554528
0.04113647
-0.2611358
0.4030431
0.076962
0.20717172
0.366965
0.14285506
-0.11573906
-0.028993163
0.12899172
-0.15417029
0.18116537
0.00985143
0.31312412
-0.08121212
0.120936185
0.13561118
-0.18768768
-0.019221209
-0.09688886
0.035957284
-0.10426719
-0.27416435
-0.017376091
0.12204566
-0.30114183
-0.3191883
-0.011413325
0.26016185
0.118939325
0.035452425
0.06525286
-0.11839394
0.029409502
0.25641045
-0.2394219
0.14931259
-0.24378665
0.025197726
-0.103355564
-0.3210799
-0.12989627
-0.0045091547
0.29365382
0.08710821
-0.096117534
-0.2128858
-0.48589364
-0.072150245
0.21053123
-0.16423124
-0.45158383
0.06432202
-0.26447326
0.060741197
-0.18710165
0.13674125
0.026608445
0.17184895
0.0513126
-0.57194155
0.20428957
-0.010188264
0.08155046
0.01677499
0.1932636
-0.030768722
0.06854158
-0.11804016
-0.0658222
0.032188084
-0.031566683
0.0693871
0.27240118
-0.1601556
-0.0030073752
-0.20205717
0.07582715
0.1200262
-0.04161429
-0.12329681
-0.099701814
0.2108843
-0.025695013
-0.09955671
0.4243419
-0.36578292
0.01588452
-0.2197341
0.15907389
-0.07708324
0.12549065
-0.16418928
0.19249378
0.05771821
-0.046646956
0.1131858
0.11437079
-0.047600117
0.060011275
0.025516566
0.11165352
0.060397394
-0.058740724
0.019757735
0.005245038
-0.039843306
0.009571125
0.016261209
-0.27725407
0.049175307
0.24063772
-0.12519208
0.12093565
0.17648609
-0.1677531
0.47542593
0.10995526
0.09603926
0.030355936
-0.29933742
0.11061046
-0.17064936
-0.06291209
0.14763159
0.22656603
0.15073977
-0.0093528405
0.05483491
0.11685527
0.22018546
0.14690809
0.32610065
0.4118841
0.0066270786
0.07330761
-0.08354766
0.03354144
-0.11327598
0.0070573827
-0.27427343
0.07559148
0.32737622
0.2748475
0.045924414
-0.027252905
0.009710284
-0.123855844
0.21417752
-0.3394812
0.18322252
-0.077289335
0.05452828
-0.118248455
-0.32859918
-0.015884362
-0.09138151
0.042747848
0.028128034
0.0009017217
0.013761843
-0.096243456
0.16382007
-0.16193366
0.3775004
0.024552062
-0.081263825
-0.6094752
-0.11722152
0.08478187
-0.052248683
0.19680734
0.19786295
-0.008258037
-0.28875107
0.13146354
0.031442434
0.4463085
0.23563159
-0.30419162
0.24768731
-0.28031927
0.07679491
-0.20889236
0.07425504
0.14077051
0.19478981
0.09522305
-0.0782073
0.39311323
-0.3029772
0.10457429
0.13356756
-0.18763618
0.026363209
-0.044310343
0.098933555
0.01642903
0.09903046
-0.21817072
0.004305854
0.019980846
-0.3740105
0.15171604
-0.0037282407
-0.07485143
-0.077508815
0.13467182
-0.033217795
0.11178244
0.25889984
-0.2591712
-0.11748131
0.04102696
0.042405978
0.016257528
0.16533029
0.11298444
-0.100432105
-0.43632558
-0.28823003
-0.2044869
-0.20618455
-0.15470146
0.08456805
0.41465324
-0.14292778
0.053784467
0.16646828
0.22017437
-0.16057116
-0.1172059
0.24610451
-0.23992579
-0.3792662
-0.14110342
-0.08334674
-0.22954857
0.04823015
-0.016303096
-0.10309449
-0.04202662
-0.22285506
-0.26534024
-0.17560185
0.11887645
0.2769183
0.2722318
0.009555323
-0.41503
0.20094739
-0.061465174
0.0738871
0.2196114
0.028125038
-0.33344656
-0.030757274
0.07478154
-0.25796637
-0.104047574
0.30563954
-0.40426993
-0.34010983
0.028535265
-0.0046866387
-0.029256685
-0.16476241
-0.2038148
-0.031212678
0.021057429
-0.21966833
0.05116351
0.06358238
-0.031730443
-0.33199072
-0.11044822
-0.050010983
0.20623207
0.4733032
0.10551278
-0.13058123
0.17370719
-0.059892118
0.3480832
-0.12095519
-0.10889756
-0.39311484
0.37076896
-0.07981458
0.13783965
-0.19570026
0.17337245
-0.085557476
-0.04886803
0.11783581
-0.3220616
-0.21391466
0.31546074
-0.0011908934
0.020343367
0.45069307
0.0043509584
-0.007498701
-0.36023065
-0.079023585
0.2493233
-0.010173715
-0.48518676
-0.053311106
-0.3192497
0.03754082
-0.10542729
-0.017810892
0.025233837
0.08331705
0.32622018
0.1793993
0.34593862
0.11591415
-0.23518625
0.10909852
0.25746238
-0.07869665
0.04822154
-0.13895787
0.033091873
0.24908854
0.21091193
0.12453774
0.021351952
-0.14108528
0.16946188
-0.13792348
-0.14999546
0.2445348
-0.13296603
-0.12139856
0.070658684
-0.10199456
-0.11192161
-0.07564338
0.058912646
-0.08189864
-0.042549
0.4916416
0.099149436
0.024326215
0.25852758
0.026551904
0.14169165
0.2828371
-0.09155046
0.13456778
0.2081257
0.06291396
0.013035171
0.060699902
0.14505824
-0.39837983
0.16907981
-0.058454134
0.011995591
0.082572065
-0.0659931
0.30558133
-0.024694854
0.018925443
-0.19810346
0.17795193
0.044882327
0.30574068
-0.16726537
0.20924339
0.19563177
-0.24543025
-0.08707984
0.067409806
0.30686766
-0.024375912
0.039129153
0.3259308
-0.10369776
0.019678485
0.27347276
-0.007893369
-0.14127153
0.31134555
-0.04354233
0.011490795
0.23226878
0.25260693
0.09774571
-0.03646041
0.3763006
-0.14867166
0.045846485
-0.5762384
-0.18609497
0.24664095
0.17007421
0.27788255
0.088115625
0.23773697
0.038055863
0.3368044
-0.15588409
-0.021974033
-0.2170184
-0.09238911
0.14963323
-0.3655036
0.5175073
0.022670452
-0.22167154
-0.07052878
0.25375333
0.031490892
0.09702981
-0.18183458
-0.2899593
0.27208892
0.3242286
0.08913803
-0.10477178
0.06839867
-0.08483132
0.035259716
0.06677698
-0.0013253851
-0.025653785
-0.1401285
0.07766675
-0.0340234
0.1722871
0.02898616
0.04630588
-0.15898414
0.05563432
0.069870286
-0.21089558
-0.088144965
-0.2662237
0.037069548
-0.24863793
0.14414348
0.4698247
0.11729198
-0.2482081
-0.04770255
0.3357142
-0.035568606
-0.15088055
0.034757692
0.037904516
-0.11426877
0.18747284
0.12757365
0.16629736
-0.08110949
0.041267272
0.38568923
-0.09864948
0.4115029
-0.17271258
0.039927125
0.05521522
0.13629125
0.30789882
0.04088407
-0.3074143
-0.25820348
0.07311504
-0.012884728
-0.043228835
-0.14007172
0.52629364
-0.0725109
0.027403759
0.1616001
0.042460352
-0.09157021
-0.08000526
0.004343011
0.03671682
-0.0056504575
0.23694272
-0.18528192
0.080445975
-0.21206346
-0.042905558
0.18545534
0.09235982
-0.14150499
-0.053052798
0.08024288
-0.03887546
0.15158561
0.27785018
0.18558517
0.104055226
-0.1251668
0.17886172
0.03998886
-0.052225955
-0.29612803
0.34558916
0.04238926
0.07575946
0.46521148
-0.19675462
0.013897081
0.025401723
0.0028619915
-0.16945654
0.029306706
0.15360452
0.10322155
0.020854391
0.05199945
0.11915132
0.025569968
0.16112517
-0.09469335
-0.26015043
-0.11448603
-0.2502054
0.21266843
-0.08559067
0.05403878
0.08019071
0.24737366
0.07716745
0.18520345
-0.08476367
0.10307314
-0.29821447
0.008634649
-0.1574557
-0.33340827
0.08050057
-0.123398274
-0.14898363
0.16205361
-0.29031068
-0.08536996
-0.03894616
0.101445064
-0.028127939
0.1937285
0.10213757
-0.07324852
0.10284866
0.13996299
-0.17062229
0.011560611
-0.011864902
-0.13885887
-0.12139629
-0.27182087
0.18822858
0.076865025
0.21673559
0.12034758
-0.08158914
-0.0639964
0.1510891
-0.065968476
-0.13743939
-0.103672706
0.3000143
0.04169396
-0.5234358
0.009516881
0.23618607
0.11447755
-0.052703403
0.111085266
0.008102315
-0.008443914
0.056911256
0.14759795
0.04502202
-0.15059769
0.017478183
0.22747867
0.09045447
-0.30882123
-0.0781423
0.28016827
-0.26758763
0.20987912
0.085186005
0.1139544
0.05204356
-0.07099896
-0.014710901
-0.031561702
-0.2711134
0.039978508
0.052189894
-0.03362022
0.3291026
-0.16051768
-0.07261045
-0.12326236
-0.02269379
0.1677847
-0.16666849
0.1008132
0.047206618
-0.0148412315
0.07137225
0.11213295
0.08787173
-0.22690152
-0.14454675
-0.22547261
-0.20628524
-0.32194474
-0.34787232
-0.16427436
-0.2668182
-0.0059403777
-0.28382397
-0.08069781
-0.1678827
-0.016685782
-0.2293071
-0.11448074
-0.38661858
0.29243043
-0.066063635
-0.12500946
0.0039951843
0.27871433
-0.042753343
0.21893556
0.1029828
0.05260844
0.07006577
0.04774233
-0.0049872277
0.0722332
0.19383177
0.07557148
0.022270389
0.18732859
0.1057009
0.048014507
-0.2660738
0.043580547
-0.27576366
0.07364562
0.189167
-0.08863552
-0.1510612
0.07095338
-0.087472126
-0.26124558
-0.19825952
0.1442827
0.1707416
-0.10048656
0.10547226
-0.11346826
-0.37437296
-0.67470914
-0.21423066
0.1533326
0.06230666
-0.15085134
-0.08334402
0.08906952
0.19367804
-0.09793145
0.09821622
0.21586029
-0.27997833
0.011613127
0.048816007
-0.14410728
-0.24085197
-0.043475997
-0.011860003
0.36431065
-0.09163993
-0.29806054
-0.04642654
0.0709034
0.09459155
-0.26043144
-0.111253366
0.2109416
0.3859824
0.12510575
0.21810715
-0.21200113
0.45769274
-0.047044527
-0.30283
0.4069873
0.12681575
-0.09745614
-0.22811322
0.42556658
-0.16965863
-0.030491684
-0.06602868
0.13994174
0.052021824
0.21852311
-0.108862884
0.033519313
0.12022366
-0.17486055
-0.42473525
0.28345785
-0.23766977
-0.10447166
-0.055390246
0.31237453
-0.05814043
-0.101691864
-0.09329827
0.14410496
-0.12773587
0.33825076
0.041032933
0.313894
0.4190578
-0.14723589
-0.23589689
-0.34358525
-0.2155177
-0.119208604
-0.15933435
0.1327153
0.163211
0.25731394
0.0014137477
-0.41693318
0.027203143
0.00715864
-0.21680117
0.056189444
-0.32739243
-0.539159
-0.37110114
-0.1519039
-0.16723736
0.033238634
-0.18651508
-0.047445614
0.15716596
-0.015762486
-0.41154623
0.03675758
0.04873636
0.2569506
-0.055982437
-0.059919666
-0.36256614
0.12543125
-0.057289127
0.056088474
0.46510288
0.01027368
-0.1909351
-0.05095228
-0.60643476
0.13696417
0.064222485
0.16794167
-0.19175754
-0.08520535
-0.07908209
0.045446318
-0.04777962
-0.059766
0.30999532
-0.10137576
0.3386569
-0.09434483
-0.12274667
0.12523171
-0.22384673
-0.36934727
-0.3266444
0.023208953
0.31382143
0.052218825
0.12915109
0.010110637
-0.33675462
-0.29508492
0.16087842
0.40969625
-0.05731124
-0.32102317
0.16089155
-0.009801771
0.35027078
0.0852677
0.10265464
-0.1186142
0.14580695
-0.35977742
-0.31792435
-0.4566161
-0.015133824
0.011540882
-0.08330989
0.010185003
0.230704
-0.5181697
-0.027032236
-0.070194915
0.094955534
-0.20658106
-0.15688883
-0.026455373
0.4933519
-0.050748803
0.12008484
0.01088746
0.072715946
-0.3874099
-0.28250965
0.06852844
-0.14107965
0.16234699
-0.37304386
0.20623145
-0.045762405
-0.07903596
0.07431783
-0.028210493
0.050038718
0.004689238
-0.1669537
0.03793154
0.08174498
-0.04152754
-0.083816744
0.52408653
-0.44126365
0.1590267
0.033158217
-0.13233651
-0.0108536985
-0.057940423
-0.047156
0.12744881
-0.08660461
0.108336836
-0.06548494
-0.054939732
0.45942745
-0.061570037
-0.1496667
-0.3381376
-0.060549956
-0.27173176
-0.41316506
0.11501139
-0.10553412
0.0120393
0.04658016
-0.29235932
-0.002036082
-0.22933373
-0.058999825
0.08712538
-0.4192266
-0.23850371
-0.2849004
-0.073493555
0.1305781
-0.06018699
-0.09770341
0.037617862
-0.08525347
0.2146444
-0.09062425
0.043863256
-0.23451068
0.15884653
-0.1780481
-0.16226996
-0.06338735
-0.12174389
-0.042144246
-0.043540534
0.32695588
-0.13070507
-0.23353958
-0.018701121
0.03292427
0.020568302
0.004980507
-0.17352192
-0.37688476
0.04883853
-0.13691154
0.06962349
-0.15599117
-0.15901652
0.10945154
-0.035514586
0.18317619
-0.17401472
0.1437366
-0.00024273864
-0.09613637
-0.1685667
-0.42301273
0.0061833044
0.26522547
-0.08875681
0.08877762
0.066544615
0.108365774
0.06289396
-0.026131108
-0.029105077
-0.001661246
0.2300425
-0.33730257
-0.04572915
0.060872205
-0.2001018
0.10575952
-0.042425666
-0.09329675
0.013838488
-0.029098954
-0.38050368
-0.09405196
-0.052471437
-0.0017980918
-0.18699767
0.16665217
-0.51929533
0.12455738
-0.07503204
0.026029274
0.16313395
-0.15104863
0.20355982
0.19153573
-0.14896639
-0.06096709
0.008046458
-0.15657651
-0.2892402
-0.24461614
-0.12735817
-0.2343498
0.28632775
-0.7156228
0.040098593
-0.27405736
-0.009284101
-0.14231868
-0.2860058
0.03515552
0.15388109
-0.120634206
0.10416397
0.17347696
-0.21564732
-0.39180234
0.116626106
-0.4481814
-0.01646944
-0.0488698
-0.078740515
-0.00682173
0.22345777
-0.0821896
-0.05892084
0.23636736
0.34819472
-0.019814406
-0.10174668
0.1554424
-0.14589208
-0.06566509
-0.29445913
-0.17799936
-0.28535593
0.12094359
-0.016119704
-0.55109864
-0.14622861
0.023180373
-0.18782628
-0.0009485966
-0.011369208
0.057662208
-0.3124427
-0.45419568
-0.08578076
-0.3078231
-0.0071889022
0.16140871
-0.05239452
0.12805505
-0.3430357
-0.11600928
-0.023810957
-0.13255335
-0.088612944
-0.10387161
0.08123403
-0.39772174
-0.2212888
-0.26567462
0.0012743792
-0.22199093
-0.037314806
0.33773062
-0.054313574
-0.08559213
0.07452109
-0.69138813
0.14901733
-0.026826229
0.072535664
0.03669357
0.23778214
-0.06586177
-0.01419722
0.059760027
0.022377301
0.25481635
0.1258481
0.31109425
-0.1996772
-0.16116332
-0.14397651
-0.075881526
-0.3380022
-0.3688377
0.051064476
0.06641444
-0.1273136
0.21410073
0.18397501
0.16923995
-0.11154781
-0.11724985
-0.08481567
0.05346728
0.20635827
-0.44229665
-0.073752604
0.03226147
-0.20861623
0.08845797
-0.16539682
-0.30032608
-0.17434338
-0.03432956
-0.49467537
0.020361142
0.025830647
-0.08795184
-0.26610354
0.21207897
-0.28107047
0.24729909
-0.016351683
0.07501666
-0.057150528
0.02311654
-0.08138093
0.3642203
-0.54583955
-0.048870515
0.13377517
-0.3373244
-0.059897408
0.123694606
-0.006959796
-0.68687797
0.11831868
-0.37167034
-0.17416607
-0.041031517
0.04927757
-0.24632928
0.22787127
-0.030501064
0.0075113657
-0.24149537
-0.061227564
0.06818758
-0.30701625
-0.75388455
-0.19963434
0.019204848
0.25621697
0.39023548
0.018302448
0.04314431
0.11802419
-0.10688829
-0.2222563
-0.18307972
0.038288835
-0.09175016
0.052708715
-0.1199658
0.077087775
0.021716544
-0.4712329
-0.34566635
-0.645942
0.1177412
0.19041803
-0.45424956
-0.0788564
-0.036889818
-0.053725697
-0.1822509
-0.10463407
0.15222836
-0.22655353
-0.11566884
-0.5628213
-0.1563806
0.18280827
0.21084397
0.06369273
0.07687583
-0.6271243
-0.015297713
0.120555125
-0.3763021
-0.5352342
-0.10395445
0.0502863
-0.58582085
-0.06096619
-0.07976423
0.24034652
-0.11006244
-0.07763076
0.25891912
-0.11129634
-0.24513434
-0.032385465
-0.3501828
0.387551
0.036432583
0.18974894
-0.07108117
0.3514333
0.14841554
-0.036609598
0.05357117
-0.022940561
-0.10095673
0.12951745
0.14127311
-0.32892922
-0.3717299
0.049136568
0.15542948
-0.24814282
0.07172791
0.117271334
-0.00065381353
-0.27209434
-0.0011443646
-0.09543237
0.08326831
0.2313548
-0.22465906
0.044288836
0.0791706
-0.4080749
-0.25038418
-0.024924828
-0.19468261
-0.25380233
0.15662019
-0.070194155
-0.2509534
-0.07260867
0.34826648
-0.5454692
-0.21817453
0.015082407
0.0040388796
-0.06850556
-0.0051608407
-0.22542256
0.15082307
0.05777597
-0.06609142
-0.13037409
0.15200412
0.18453233
0.4253758
-0.22571787
-0.24772182
-0.08234565
-0.062059607
-0.2748084
0.09869396
0.011915994
-0.47823593
-0.06254668
-0.2096158
-0.1262831
0.04017105
-0.0075642704
0.011956784
0.3233668
-0.07703586
0.030796682
-0.12670314
-0.40483227
0.0040950705
-0.34194952
-0.6315903
-0.48395398
-0.064882606
0.36899734
0.30553436
0.17890923
0.050214298
0.108266
-0.17605647
-0.07065042
0.011373699
0.1294142
-0.09069527
0.09134292
-0.21466155
0.14403595
-0.086756214
-0.47709927
-0.14257467
-0.73605037
0.22866589
-0.026773239
-0.24540123
-0.10655487
0.03883069
0.008964196
-0.0436025
-0.54461765
0.27922165
0.2246374
-0.010049182
-0.39419207
-0.15356338
0.112731606
0.35618892
-0.007076445
-0.039628565
-0.319077
0.03301807
0.29888704
-0.31092948
-0.36770222
-0.115345
-0.06496346
-0.37206605
0.2317564
-0.0733696
0.10767542
-0.20256628
-0.007508514
0.08468967
-0.15004563
-0.29674983
0.0016924292
-0.1627133
0.4880561
0.14997552
0.13788797
0.079075634
0.41927904
0.3347316
-0.008895905
0.00832525
-0.15832815
-0.06752552
0.24274755
0.0053944746
-0.33466265
-0.014444321
-0.096836045
0.17717464
-0.17500412
0.018794311
-0.29048696
0.16758198
-0.35446098
0.035057414
-0.2610665
0.12550393
-0.22719362
-0.17491812
-0.062455174
0.012633445
-0.22741488
-0.26299962
-0.083680205
-0.0048011537
-0.18559688
0.07874136
-0.029651053
-0.2822531
-0.065434225
0.29101896
-0.3375897
-0.24698336
-0.028538637
0.098324515
-0.14214967
0.30705187
-0.3302478
-0.17977583
0.04711675
-0.008453362
0.12275208
-0.012082241
0.430424
0.27366418
-0.34073237
-0.23580067
-0.024419121
0.046193533
-0.20287378
-0.13934493
0.030416377
-0.26097482
0.05877748
-0.047675345
0.16505222
0.008559409
0.05683437
0.22251818
-0.026094522
-0.0276751
0.21961927
-0.15573257
-0.083396636
0.020044936
-0.18205623
-0.23210812
-0.11694003
-0.25141892
0.26862374
0.26888105
0.09337541
-0.053296585
0.031753436
0.20265839
0.0028794182
0.08939855
0.29465342
-0.012689761
-0.115012735
-0.2716521
-0.098467916
-0.06338826
-0.5860748
-0.24087435
-0.5152202
0.12802027
0.1332565
0.066339165
-0.14906731
0.01840476
-0.28413847
-0.3122467
-0.33143792
0.12009435
0.2867549
-0.16297127
-0.24322589
-0.40990588
0.058120128
0.1310884
-0.063469045
-0.099381976
0.1967108
0.20897816
-0.113362156
0.17271796
-0.020465948
-0.081375204
-0.14061782
0.05113509
0.023137743
0.026067112
0.090475895
0.085488975
0.02807529
0.13851345
0.09753227
-0.4343676
-0.051865533
0.06406316
0.3930061
-0.10641111
-0.030772949
-0.006014448
0.10642333
-0.08833671
0.071623
0.01065952
-0.027562471
0.025762508
0.07721071
-0.047482677
-0.39690164
0.28027782
-0.089794375
-0.092716336
-0.46115935
-0.111471996
-0.23358837
0.18477264
-0.25322136
0.0848424
-0.21703574
0.1809315
-0.37710613
0.008138794
-0.18133079
0.04239317
0.17909537
-0.21332122
-0.06529313
0.07048708
-0.21134388
-0.12664406
-0.022813816
-0.35332745
-0.044435296
0.16635093
-0.24873257
0.0030081174
-0.017905591
-0.11984286
-0.13671276
0.18514659
-0.22896253
-0.14318259
-0.07687254
-0.059802443
0.016038086
0.116969526
0.22926073
0.11216433
-0.049929913
0.13544828
0.016891917
0.15704113
0.2242623
-0.03333728
0.050248973
0.38137642
-0.14874183
0.089150846
0.143472
0.13820387
-0.015044019
-0.051349346
-0.15888795
0.07967385
0.0839423
-0.03236247
-0.19975868
-0.0037227436
0.044131123
0.037725113
-0.05146931
-0.09094257
0.1226766
0.080326125
0.06440833
0.24090528
-0.25793105
0.4750318
0.17239101
-0.19916923
0.09172778
-0.041107964
-0.007981705
-0.2848275
-0.0875118
-0.0046460703
-0.47070864
-0.12637228
-0.3569045
-0.0061433595
0.10782109
0.3049831
0.009320712
0.023419224
-0.11077079
-0.15905032
-0.07027383
0.030876469
0.19582321
-0.50271255
-0.08412845
-0.6327923
-0.04317023
0.084853135
-0.054401834
-0.1313106
0.09007284
0.05364949
-0.3877051
0.124217555
0.022139778
0.06062912
-0.33637905
0.011442537
0.17287311
0.11772077
0.12207948
-0.01134123
0.069746986
0.18406105
0.14390449
-0.28132096
-0.0054854727
0.24113314
0.06965226
-0.032394208
-0.066732444
-0.23955503
0.11175191
0.0734912
0.028605558
0.11415031
-0.044816658
-0.0010377426
0.013661267
-0.040174205
-0.20597062
0.26386058
-0.055739053
0.0670595
-0.13784018
0.08890202
-0.09764657
-0.026002578
-0.11216966
0.0031221644
-0.121107236
0.31748196
-0.17903589
0.1283197
-0.18297315
-0.019107442
0.117829435
-0.27113733
0.03568575
-0.00581144
-0.26057923
-0.083220005
-0.07558936
-0.2595167
0.06284926
0.20310104
-0.65209556
0.15989196
-0.07753319
-0.008002918
-0.048617747
0.11864454
-0.05237133
0.06931882
0.0701928
-0.068065494
0.089573756
0.025918702
0.12266287
0.085612446
-0.041263994
0.18226282
0.050381128
-0.12738481
0.07013724
0.16796228
-0.04747347
0.07141018
0.064387634
-0.14044218
0.18858899
0.05996853
0.044799767
0.24736966
-0.0042588823
0.066420875
-0.15437701
0.021036426
-0.304203
0.2545334
-0.06860012
-0.03567373
0.20697404
-0.01352734
0.0646069
0.07499297
0.09930308
-0.2350188
-0.104491174
0.33193168
0.17108732
-0.10604611
