0.18358721
0.122850515
0.0035767343
-0.1287667
0.08676866
-0.009041876
0.090652876
-0.20692296
0.053680465
0.047137633
-0.08685077
0.18730843
0.13174255
0.14331785
0.17952234
-0.17433052
-0.16395593
-0.12201558
0.21999663
0.14716516
-0.16390109
-0.49574357
-0.3237933
-0.2026461
-0.3157504
0.34831905
-0.40084463
-0.16839337
0.46814746
-0.14826152
-0.13125622
-0.3804224
-0.56930435
-0.051899675
0.08922248
-0.12894256
-0.14723633
0.10837046
-0.69916725
0.07591076
-1.4070165
-0.88834745
-0.9014008
-1.2703439
-1.378446
0.25535372
-1.387287
-0.46616203
-0.7820135
0.6021344
-0.15676016
-0.37859014
0.14765958
-0.1823142
0.14929299
-0.9433218
0.038340945
-1.1908526
-0.3593506
-0.043173656
-0.08247064
0.52352893
0.16232118
-0.24982095
0.03746346
0.7083951
-0.032321006
-0.7729734
-0.8231689
-0.7645429
0.13772261
-0.31618175
-0.14711474
-0.048637327
0.10522453
0.3551655
0.050361387
-0.33150485
-0.13973777
-0.10714438
-0.04893613
0.1464012
0.03297712
0.07068901
0.08634681
-0.92889404
0.046985637
-0.3902715
-0.024013158
-0.49156204
0.11826681
-0.4891911
-0.17579094
0.07996914
-0.18290102
-0.18192516
0.163947
-0.35390303
-0.30886325
-0.027394064
0.28731155
-0.01887447
-0.37475976
0.05548767
-0.06717711
0.24589233
0.29172412
-1.6098619
-0.82837343
-0.14104149
0.035814375
0.072954245
0.003798818
-0.22390759
-0.14527585
-0.13090676
-0.1503791
-0.6263752
0.075227216
-0.6496318
0.051676374
0.1664244
0.10187698
0.22446775
0.014207871
-0.49856502
0.021391537
-0.11858402
0.2060379
-0.6656063
0.120952524
-0.24810934
0.046808258
0.05963091
0.13756956
-0.70070195
0.14124261
-0.27128786
-0.22234604
-0.4616921
-0.10197476
-0.06451515
0.1009636
-0.055856053
0.043208715
-0.33690414
0.114634916
-0.074721836
-0.4956689
-0.37251762
-0.36075756
-0.25217828
-0.058419764
0.08584291
-0.16142012
-0.08548469
-0.3111083
0.038956136
0.17936713
0.18002035
0.060434062
-0.5291856
-0.18390952
0.008216472
-0.11658093
0.12729762
-0.12840393
-0.043589525
0.30348986
0.04539359
-0.066267714
-0.019140465
-0.09776904
0.093532145
-0.1192586
-0.1994763
-0.025168747
-0.1682659
0.20504853
-0.08539066
0.14889865
-0.6638089
-0.13193642
-0.11140695
0.010827059
-0.036157005
-0.16089489
0.15570664
0.15611942
0.11503804
-0.21694122
0.14085747
0.18146108
0.34869465
-0.37158746
0.23333432
-0.21554351
0.18194918
-0.56027985
0.02801138
0.041032627
-0.03090954
0.13627204
0.07006584
0.17578372
-0.1409018
0.15306549
-0.13112858
0.2971723
-0.053400636
0.054841354
-0.1505287
0.07692454
-0.010521036
0.14095561
-0.8265316
-0.037098195
-0.8459436
-0.07538524
-0.58120936
0.06463107
0.25529456
-0.36620873
0.04451749
0.10951983
-0.40949327
-0.077588156
-1.1755011
-0.069735594
-0.49728534
0.10117081
-0.2002654
-0.35574707
-0.30934566
-0.26056838
0.34865424
-0.07479562
0.09751722
-0.59208965
0.0026453799
-0.06440889
0.13921037
0.15438639
0.12988135
-0.051356137
-0.055683624
-0.06118
0.18697692
0.10317453
-0.12564398
-0.22387722
0.1442313
-0.054726113
-0.061741956
-0.06858709
0.07279122
-0.13230263
0.11908683
0.21272735
0.06409898
-0.27794948
0.13180684
0.20961718
-0.50066715
-0.0901866
0.18408589
-0.4916993
0.07406477
-0.63460624
0.17339306
-0.0092827
0.24365285
0.056232814
-0.20186853
0.051410988
-0.13637866
0.060628604
0.08198896
0.23439686
-0.032641243
0.16962141
0.17460586
0.07640568
-0.01191978
-0.0073578334
0.04822216
0.07162787
-0.7436926
-0.3235841
-0.37066227
-0.1561049
-0.039794486
0.047034804
0.011918722
0.15169142
-0.7666572
0.14871983
-0.3503729
-0.25011414
-0.15527609
-0.5545574
-0.21301888
-0.16869064
-1.0283126
0.09280072
0.76794446
0.0038116311
-0.07071423
-0.5003513
-0.75801253
-0.121349975
0.029372113
-0.14689381
-0.10697302
0.04742695
-0.065675095
-0.10714331
-0.026740361
0.109650694
0.16517976
-0.25770378
-0.43468446
-0.3315607
0.5373924
-0.65102804
0.21329512
-0.19470276
-0.11742568
-0.39628664
0.06907278
0.008748073
0.12901185
0.11530543
0.072867386
0.006101359
-0.17228
0.12911092
-0.056034602
-0.041174766
0.05081931
0.004788181
0.17177066
-0.29859677
0.09057264
-0.23175298
0.029495606
-0.18653184
-0.059990473
0.10150949
-0.06349753
-0.11943156
-0.119968064
-0.23210318
-0.0987743
-0.17130877
-0.006607499
-0.44184408
0.12740952
0.35142204
0.025492033
-0.2621087
-0.049820956
-0.0879893
0.2711267
-0.052193113
-0.2314766
-0.30823922
0.22910294
-0.028993519
0.24176116
0.13392396
-0.7103791
-0.22518095
-0.21134938
-0.24752061
0.40740165
0.29719007
-0.12946683
0.09160546
-0.36471844
-0.037371963
0.6218855
-0.2432866
-0.2088645
0.055285793
0.34672335
-0.36915073
0.054692205
-0.040757786
-0.2453748
0.11268883
0.120329335
0.034460504
0.13656098
0.09925251
0.1459422
0.12746593
-0.23054807
-0.3784703
-0.6231257
0.41824737
0.2505406
-0.46355027
0.10929687
-0.10113063
-0.3547619
0.0053465776
0.47097898
-0.18199433
-0.7235157
0.16932061
-0.029520104
-0.19515704
-0.4275517
-0.11154371
-0.060090728
-0.023637522
0.16651593
-0.70659894
0.21836437
-1.0397421
-0.026505064
-0.80346924
-0.50126034
-0.72509855
-0.06986202
-1.0169239
0.3001629
-0.36038074
-0.14334604
0.20639636
-0.0036142073
-0.1400981
-0.50572085
-0.10323482
-0.3010196
0.23781818
-0.81683165
0.10129331
0.08431573
-0.09413135
-0.04890394
-0.19588989
0.007915686
0.13599615
-0.02043579
0.015994364
0.18900117
-0.099535316
0.1494652
0.11097741
0.2854647
0.1122003
-0.39912778
0.16498077
-0.4195532
0.050040483
0.001801203
-0.3712633
0.06439799
0.117633075
-0.5534295
0.14035533
0.15607263
0.1505149
0.020713512
0.16213283
-0.11692229
0.18470806
-0.5171776
-0.24149108
-0.061767615
-0.022371525
-0.0015033162
-0.16102843
0.05771316
-0.16704163
0.22390045
-0.32993895
-0.37220913
-0.36911318
0.34670904
-0.2498583
0.047284123
0.012324456
-0.32158437
0.33243224
-0.040563315
-0.11811606
0.19217879
-0.08285578
-0.23074931
-0.24747317
-0.115026735
-0.28688002
0.13235857
-0.21310437
0.10206707
0.14064813
0.19184919
0.045244705
-0.2632375
-0.026649632
-0.1285146
0.0491378
-0.30023
0.032306865
-0.18951817
0.33553088
-0.07086317
0.19733047
-0.33883908
0.30731836
-0.44181725
-0.32829982
0.3184083
0.069536954
-0.43763813
0.025006203
-0.0751523
-0.0039058945
-0.37652388
0.19248895
0.22782834
0.054357983
0.49592948
-0.13934852
-0.61500585
-0.054625325
-0.70563596
-0.32967648
0.3683196
-0.27467126
0.10548111
-0.22441356
-0.287243
0.09253734
0.22515601
-0.18063487
0.26487434
-0.0657793
-0.36964035
0.018425658
-2.5527375
0.19349298
0.38461688
-0.60169226
-0.61477244
0.32527673
0.39240497
0.24951182
-0.36149892
0.2462606
-0.25344318
0.034627598
0.26611096
-0.20684542
-0.31024814
-0.5042412
-0.087180346
0.19146189
-0.59577185
0.0897929
-1.4434706
0.12308643
0.36620557
-0.4370215
-0.107517645
-0.5413271
-0.3503031
0.061213706
-0.32762936
-0.33961365
-0.09392166
-0.22416769
-0.20016183
0.35522288
0.40361637
0.19471791
-0.31999472
0.4222371
-0.8399261
-0.2498567
-0.3357723
0.2925729
0.37106478
-0.13418192
-0.27374083
-0.30324757
-0.39438134
-0.3595052
-0.26175633
0.063866824
0.05210272
0.117048286
-0.11330883
0.03453733
-0.16310035
-0.5530307
-0.37024093
0.16393395
-0.20913145
-0.12488968
0.038765714
-0.45959595
-0.48432812
0.21616307
0.29876706
-0.3314817
-0.25758618
0.036489855
-0.18064393
-0.12685004
-0.15367635
-0.071873695
-0.05265289
-0.065032266
-0.04670397
0.087282546
0.12156888
-0.094451964
-0.039078016
0.021156812
-0.23806408
-0.13482949
-0.035398055
0.18631615
-0.15096872
-0.0087045925
0.08367608
-0.11779148
-0.18084498
0.15121652
-0.49182498
-0.0987402
-0.16740483
0.023379575
-0.10345777
-0.15396672
-0.13032122
-0.15352407
0.017736055
-0.18533586
0.20926036
0.2637068
-0.6972446
-0.18580635
-0.71149606
0.039679743
0.0873491
0.1847655
-0.2969977
0.13220663
0.08544093
0.041148372
-0.083854616
0.12355702
-0.058429763
0.11958675
0.012633994
-0.39957848
-0.3727983
-0.5822671
-0.4875456
-0.4924996
-0.26621968
-0.67017305
0.46627623
-0.4618503
0.040413976
0.08192747
-0.40693983
0.06791892
0.03505244
-0.020052774
-0.024259575
0.051793493
-0.39737293
0.1980498
-0.16907582
0.017140891
-0.5555963
0.11419123
0.033534683
-0.06584571
0.15783997
0.041832406
-0.020216227
0.030207034
-0.25827673
-0.15714338
-0.16763918
0.18429533
0.18691397
0.17197607
0.06910166
-0.1746188
0.00813441
-0.524971
0.13213801
-0.8362726
-0.6400327
-1.6000316
-0.33047718
-0.99499863
-0.3954353
-0.5659208
0.5925913
-0.30929238
-0.35916594
-0.0049686907
0.2841602
-0.7489243
0.16506487
-0.5654922
0.2523759
-0.09271043
-0.87789375
-0.03705179
-0.17680839
0.061046965
-0.53518957
0.1161573
0.41583663
-0.15237424
-0.31084946
0.28036562
-0.20440689
-0.12571341
-0.086758465
0.25064722
-0.6310584
-0.20192045
-0.67950314
-0.37331766
0.64174145
0.17543016
-0.3346346
-0.61663586
-0.66977173
0.06724537
-0.09407324
-0.08910253
0.010717179
0.04040372
-0.13425931
-0.14612009
0.05798035
0.10829957
-0.003443207
-0.29197508
0.20231195
0.014794758
-0.16300754
-0.026219847
-0.8310683
-0.16374741
-1.6512625
-0.24384597
-0.006117313
-0.31930313
-0.16856188
0.1437929
-0.3970396
-0.57355434
0.9134619
0.17582758
-0.7948284
0.23440184
-0.3235701
0.08301236
-0.31324047
0.110815346
-0.16146848
0.09363327
-0.29487848
-0.0002627912
-0.05774862
0.24319641
0.006130205
-0.014133254
0.14820191
0.13534273
-0.3611659
0.16608022
-0.0038880503
0.19344479
-0.007075219
0.17414756
0.07236528
-0.19915229
-0.7229957
0.106924675
0.2618567
-0.13367036
0.24270007
0.32802054
0.18844563
-0.09551402
-0.27772537
-0.19420801
0.0893974
-0.5152965
-0.17731473
0.036253594
-0.3699539
-0.18813694
0.15041046
0.53684294
0.19398558
-0.39343357
-0.40841302
0.25017333
-0.96334225
0.09223373
0.3541808
-0.06869292
-0.50785774
0.27124825
-0.5855898
-0.12208018
-1.436111
-0.7388253
-1.3473312
-0.8956411
0.6642637
-0.13058133
-0.3566662
-0.37765718
-0.79566306
-0.0959225
-0.38944206
0.04068261
-0.358046
0.018570723
0.09930721
0.07430961
-0.08966773
-0.098145
0.08995117
0.28616607
-0.21334994
0.25789824
-0.21190625
0.051891223
0.4386725
0.05764756
-0.34343448
-0.536075
-0.34835476
-0.50747806
-0.48681724
-0.24143593
0.22551654
0.11892224
0.10855062
-0.06513929
0.0867328
0.40274054
-0.18973902
-0.121671185
0.36819887
0.13949344
-0.118634306
0.16660249
-0.14474335
0.16351724
-0.064995944
0.01891274
-0.3339892
-0.06549611
-0.6955554
0.11717639
-0.19632843
-0.346496
-0.19868004
0.023899432
-0.05946166
-0.12906584
0.019593045
-0.4359475
-0.3578837
-0.42345583
0.24558422
0.21911933
0.40006804
0.3957953
0.08170883
-0.80506074
-0.07660058
-0.61128706
-0.19954441
0.2381507
0.10619444
-0.86622155
-0.3376971
-0.26318762
0.14853019
-0.24692176
0.18638963
-0.70038396
-0.08819575
0.098789856
-0.37846336
-0.18107359
0.27512026
-0.35960197
0.3235369
-0.47684672
-0.34000954
-0.08029578
-1.1747787
-0.6560044
-1.2570187
0.2547257
0.43952912
-0.4397892
-0.13922587
-0.7955746
0.18473774
-0.044905536
-0.45231774
-0.14085618
0.13791662
0.07766534
0.10534491
0.030319806
0.05689523
0.10139468
-0.037685435
0.2809368
-0.3066463
-0.41825467
-0.9439185
-0.2427886
0.7049995
-0.6180143
-0.22903697
-0.78050566
-0.18141596
0.104065545
-0.6943946
-0.39545628
0.28797197
-0.28609663
0.20830959
0.016394041
0.007030206
0.13931361
-0.10785697
-0.10225073
-0.98974985
-0.26451162
-0.71917796
-0.4859434
0.01424424
-0.17086513
-0.009576405
0.32533708
0.14629102
-0.3252831
0.054440066
-0.47979575
-0.51797235
0.21841572
-0.114094056
-0.033634104
0.1536504
0.30741617
-0.41188326
-0.39348716
-0.25708812
-0.15699911
0.48985448
-0.32352152
-0.6153126
-0.4111212
0.4002079
0.6057319
-0.56305945
0.10064534
-0.12634149
0.117419645
-0.4377001
-0.32970843
-0.34820408
0.020002613
0.0941481
-0.5918354
0.20984088
0.0037397828
-0.2416727
0.07721204
-0.32150286
0.033503592
0.084928915
0.15625064
-0.13287018
0.12167437
-0.0038788437
0.043017745
0.19317536
0.13767374
-0.19876382
-0.15519786
-0.4318841
-0.25027892
-0.2875697
0.39058718
0.053042624
-0.23472789
-1.0031496
-0.16895188
-0.23311748
0.06743477
0.18939611
0.088469654
-0.27744085
0.18304177
-0.24267901
0.021227993
0.3249827
0.15514229
-0.42353907
0.21335188
0.2352826
-0.15617388
-0.20293796
0.20321
-0.6692877
0.4147459
-0.761209
-0.14904474
0.26447836
-0.3615857
-0.992864
-0.17287944
-1.374403
0.3347392
-0.88093895
-0.34155044
-0.090041265
0.11613579
-0.61160964
0.09639271
0.40500253
-0.26225808
0.19499506
-0.13470438
-0.5151443
0.047082186
0.08410971
0.09159843
0.14081089
0.033353295
-0.21477385
0.18656455
-0.105455354
-0.26176336
-0.045642108
-0.18206891
-0.21753189
0.032255676
-0.16378383
0.18741772
-0.09234722
0.07573171
-0.137413
0.16693786
0.17453377
0.1083674
-0.4705575
0.13854398
0.09378328
0.0753338
-0.21521032
0.16873677
-0.016729338
0.06583093
-0.030562585
0.07034394
0.38174343
0.038510416
-0.052462295
0.1446197
-0.119849
-0.09423378
0.17535065
0.17144316
0.21912645
0.016351465
0.31810373
0.075462595
-0.008977786
-0.08209586
0.020523632
-0.06311399
-0.8313922
-0.1954543
-0.32122037
-0.035961
-0.11084092
-0.21757872
0.044247124
0.033753537
-0.0031988611
0.09401236
0.12360746
0.024497965
0.03610558
0.06498346
0.3155245
0.060721178
-0.09297982
0.03869468
-0.31457907
0.08575918
-0.27004105
0.16028376
-0.5704995
-0.43035635
0.13717149
-0.32980227
0.26685968
0.021332057
0.22494505
-0.28986445
-0.17850731
-0.40928745
-0.25472507
0.056800414
-0.27129588
0.099953
0.094682395
0.019457143
-0.1739567
0.18686175
-0.1611569
-0.19619222
-0.313661
-0.16456158
0.2672719
-0.7343919
-0.76639116
-0.33534998
0.11539782
-0.56349397
0.029199034
0.39573884
0.11186266
-0.3420896
0.8261489
-0.41724297
-0.2518656
-0.08403685
0.30837795
-0.16160648
-0.13369529
-0.18384133
-0.044311117
0.25421247
-0.40870264
0.09334382
-0.11158128
0.19288537
-0.42356414
0.02916399
-0.17665449
-0.52634966
-0.2566959
0.03959771
0.0032200823
0.19165346
-0.002575998
0.1383349
0.03016503
-0.15432009
0.15183419
-0.008409595
0.006817573
-0.21472415
0.20142691
0.3407363
-0.041370668
0.0051070172
-0.7596995
-0.49029684
-1.2759522
-0.4264961
-0.3982107
0.30380243
-0.34290072
0.12762868
-0.16382255
-0.28874373
-0.24040662
-0.15251803
-0.17157023
-0.29164144
0.20483643
-0.08118716
-0.1509318
0.13158473
-0.13453986
-0.061195828
0.095559426
0.15428467
0.17310868
-0.16307114
0.1452445
0.14778444
0.069227
0.07748408
0.11592627
-0.073273785
-0.27358857
0.06673111
-0.47786656
-0.037914667
0.013697752
0.28941384
-0.28930864
-0.43841773
-0.35858572
-0.4512725
-0.025669659
0.13903941
0.17438395
-0.28143144
0.1933593
-0.13753569
0.10891739
-0.24550585
0.10507665
0.014392102
0.6494368
0.06416953
-0.7589085
-0.43121767
-0.1559092
0.13769478
0.25200152
0.12050891
-0.48675495
0.23049529
-0.23186007
-0.14714265
0.41194558
0.22127564
-0.051989447
-0.6831521
-0.63395065
-0.7715399
-0.7204712
-0.3129793
0.25237402
-0.3697602
0.0044010975
-0.67561704
0.08331956
-0.030980788
-0.110141836
0.30090263
-0.25397217
-0.3525671
-0.08571533
-0.29678443
0.19803812
0.20437814
-0.15900074
0.18786275
-0.2538146
0.29820013
0.26968458
-0.14575082
-0.3550978
-0.08024387
-1.2689829
-0.041946266
-0.042624637